-0.0,0.0,0.0,-0.95257324,0.0,1.6388947,0.0,-0.88909477,0.7363382,0.0,0.0,-0.0,-0.0,0.0,-1.6253791,-0.0,0.0,-2.4040608,-1.1011407,-0.0,-0.0,-0.0,-1.3566629,2.1002007,-0.7560924,-0.0,-1.0809822,0.6860067,0.9217153,-0.0,-1.1545055,-1.6354567
0.0,-0.0,1.152622,0.7476126,-0.0,0.0,2.4705217,-2.0425782,-0.0,0.6859286,-0.0,-0.87030876,-0.0,-0.65238196,0.0,-1.0746964,-0.0,0.61687064,0.0,-0.0,0.0,-0.6558344,-0.0,1.0204579,-0.0,1.6001385,-1.5347285,1.3135735,-0.71433973,0.0,0.0,0.0
-0.81184524,-2.4559035,0.78639716,0.0,1.2852435,1.9752474,0.0,1.1079268,1.4728557,0.0,-1.4144392,0.0,0.0,0.0,0.0,0.0,-1.4836605,-0.0,0.0,-0.8955056,0.0,-0.0,1.820894,2.188964,2.1841109,-0.0,0.0,1.0697484,-0.0,-0.0,-1.0380638,0.0
-0.0,2.263221,-2.1381733,-1.1875024,0.0,-1.3525786,-1.1142399,0.0,-1.2529658,-1.7901311,0.0,-1.0886441,0.8511195,-2.2109268,-0.0,2.8628566,-1.6117606,0.0,-0.0,-1.0463891,0.0,-0.0,0.0,1.4260197,0.0,-0.0,-1.637471,0.0,0.0,-0.0,0.0,-0.0
-0.0,-0.95472306,-1.6059833,0.0,1.1084414,-0.917685,0.0,0.0,1.6721463,0.0,1.3172145,1.127967,-0.0,2.0662758,-0.0,0.9930336,0.0,1.8221081,-0.0,-0.0,-0.0,0.0,-0.0,-0.0,-0.0,1.561498,1.6109595,0.0,-1.304391,-0.8837068,-2.1968718,-0.0
-0.0,-1.0108746,-0.0,-0.83905697,-0.86771303,-0.8451788,0.0,0.0,-0.0,-0.0,1.2376878,-0.0,0.84366614,-0.0,-2.3603733,-1.2343102,-1.0988314,1.4685719,-0.0,-0.0,-0.0,0.0,-1.1068728,0.0,0.0,0.91494435,-0.7930577,-0.0,0.0,-0.8627782,0.82182306,-0.0
0.98628825,-0.94418436,0.0,-0.0,0.912727,-0.0,-0.82011527,-1.2647899,-0.0,0.0,-0.0,-0.0,0.0,-0.0,1.1958075,1.3875796,-1.1766269,0.0,-0.94458646,0.7452017,-0.0,1.0255457,-1.2219173,0.7301964,1.3948733,-0.0,0.0,-0.0,0.0,0.0,1.2237611,-0.0
-0.0,-0.0,0.0,0.7730575,-1.7359896,-0.0,1.6360118,0.91423905,1.2143155,-1.7333602,0.0,-0.0,1.7705531,0.0,0.0,-0.0,0.0,-1.5072638,0.0,1.4338062,-0.0,-0.88036346,-0.9358446,-0.0,0.0,-1.9721403,1.3833212,-0.0,-0.8939664,-0.0,-0.85476834,0.0
0.0,-0.0,0.0,-0.0,0.0,0.9794806,0.0,-2.3613882,-0.0,-0.8441822,-1.0797675,-0.764886,0.0,1.0398568,-1.5359205,0.0,-1.1814958,1.381569,2.3742623,0.0,0.81525946,0.9364429,1.4566891,-0.0,0.0,-0.0,-0.0,-0.0,0.0,-0.0,-0.79244894,2.5821686
0.0,-0.0,1.1883719,0.0,-0.0,0.0,1.150597,-0.0,-0.0,0.0,0.0,-2.1746259,-0.0,1.0060681,-0.0,0.0,0.0,-1.6568328,-0.0,0.90479696,-0.98238033,1.0918018,0.0,-1.8802073,-1.1108668,2.5221107,-1.1686784,-1.0236087,1.6501412,-1.6332532,-0.0,-0.0
0.0,-0.9445099,-0.0,2.0000913,-2.0384665,-0.0,0.0,-1.0670553,-0.0,1.6734046,0.0,-0.0,0.74451625,0.0,-0.0,0.0,-0.9296615,0.8205383,0.76549274,-0.0,1.0256177,0.8167405,-0.0,-0.0,-0.0,-0.0,1.1305368,0.0,-1.5073669,-1.0381087,-1.189779,0.0
-0.0,0.0,0.9243564,0.0,-0.0,0.0,0.0,-0.7028557,-1.1191617,1.1346816,-0.0,0.0,-1.0405179,-0.0,0.0,0.0,0.0,-0.0,2.6418262,1.9179521,0.0,-1.1382263,-1.3720785,-1.1508644,-1.3030711,-0.90712976,1.264579,-1.7234696,0.68653965,-0.0,0.0,0.0
-0.0,0.0,-0.0,-1.7750089,-0.0,-0.8190729,-1.4964768,-0.66144073,-0.7187237,-1.2400259,2.1555507,-0.0,-0.0,-0.0,-0.0,-0.0,1.429364,0.5569479,-1.1434469,-0.9108204,0.6337315,2.2817116,0.0,-0.0,-0.0,1.1644497,0.6440105,0.0,-0.0,0.0,0.0,-0.0
0.90473795,1.6088805,1.9461749,0.0,-1.1596338,2.5941808,0.0,-0.0,1.7078563,-1.2700821,1.3770628,-1.5037968,0.0,1.6977011,-0.0,0.0,-0.0,0.0,-0.0,0.0,-1.2437694,-0.0,-0.84256256,-0.0,0.0,0.0,1.1503906,1.8810418,-0.0,0.0,-0.0,-1.5301582
-0.0,0.0,0.0,0.72835016,-0.9195851,0.0,-0.0,-0.0,-1.2572925,-1.0926946,-0.0,1.8156832,0.0,1.0278451,-0.9731309,-0.0,1.083056,0.0,1.3111864,0.0,0.9029446,1.1639556,-0.0,-0.0,0.0,-0.65038514,0.0,-0.88597184,-1.5645611,0.0,0.0,-0.66103613
-1.0232468,-1.7875663,0.0,1.3236834,1.0772799,-0.0,0.0,-0.0,-0.0,1.7493353,0.9337749,-1.7700745,-1.2103922,0.0,-1.090439,2.3327785,-1.0347996,0.0,1.3307813,-1.2935262,0.0,0.0,0.0,-0.9795181,0.0,2.0159984,-0.0,-0.0,-0.0,-0.0,-0.0,-0.0
2.7376485,-0.0,-2.5899942,0.0,-0.0,-0.0,-0.0,-1.1607753,0.0,-1.5075735,0.745439,0.0,0.0,-0.0,0.0,-0.0,-0.0,0.8955194,-0.0,-0.94693667,1.3980054,-1.4926134,1.7359486,0.0,-2.1976538,-0.0,0.96311826,-1.4355398,-1.3250003,0.0,0.0,1.8968068
0.0,1.4335696,-0.7569453,0.0,0.0,-0.0,-0.9915312,0.0,1.3124126,-0.0,0.9870483,0.0,-0.0,0.0,-0.0,-1.4872016,-0.0,1.1838856,-0.7187948,0.0,0.0,1.5652423,-2.489964,-0.9004213,-0.0,0.98751193,1.3405532,-0.0,0.0,0.8683785,-0.0,0.71838933
0.8364223,-0.0,0.0,-0.0,0.84227186,0.8963954,0.0,-0.0,0.0,0.0,-0.8644093,0.0,0.0,-0.0,-1.0519007,-1.0356592,0.925646,1.0938723,-1.7899915,-0.0,0.0,0.0,-0.0,1.6782948,0.0,-1.9883502,-1.6877649,-1.3226151,-0.8270322,-0.0,0.0,1.476328
0.0,-1.3291906,0.620976,1.659014,-0.0,-0.0,-1.3558756,0.7852668,0.0,-1.3715429,-2.1573954,-0.0,-1.0306062,1.604512,-0.0,-0.0,0.0,1.2911711,0.6446159,-0.0,1.636228,0.0,0.0,-0.0,0.63118064,-0.0,-0.98126674,0.0,-3.0841577,-0.0,-0.0,0.0
-0.8997226,0.0,0.0,-0.0,-1.4167155,1.3032367,0.0,0.0,-0.0,1.4781525,-0.9592297,0.67184174,0.0,0.8657004,-0.0,0.0,1.3211536,-0.0,2.1124542,0.78081924,0.9620913,-0.0,0.67094386,-0.0,0.0,-1.3018593,-0.0,3.2249084,-0.0,-1.7454596,0.0,0.0
0.88139975,-1.3134077,0.0,0.0,0.0,-0.0,-0.0,-1.0966444,0.0,1.359253,0.0,1.3509814,1.3131421,-0.0,0.0,-1.262931,-0.0,0.84015423,1.6528074,0.0,0.98053414,-0.0,0.76001453,-0.0,-1.5137573,1.0187826,0.0,-0.0,-0.0,1.9233664,-1.0961307,-0.0
-0.0,0.0,0.0,1.5738384,-0.92620784,0.0,1.1356626,-0.0,-1.2176685,0.0,0.0,0.0,0.60451335,1.2100996,0.0,1.597984,-0.95591664,-0.0,0.0,0.0,-0.0,1.1043981,-1.1023612,0.87285006,1.0288168,-1.2323394,-0.0,-1.2602495,0.7545563,-0.0,-0.0,-0.0
0.0,-0.0,-0.8647093,0.0,0.0,-0.8528258,-0.0,1.2055842,0.0,1.7161744,1.6845943,-0.0,2.0701852,1.2629336,0.0,-0.0,1.620862,-0.0,0.0,-1.4090148,0.0,0.8683228,2.1299431,-0.9705855,1.6446003,0.0,1.3862661,-0.0,-1.0626943,-0.0,-0.0,-0.0
-0.0,-2.161204,-0.74152684,-0.0,-0.0,-0.0,-0.96280384,-0.0,0.0,-0.0,0.0,-0.0,1.4456176,0.0,0.0,1.9144632,1.4071516,1.4562317,-2.1080918,-1.5684885,-0.0,1.2966888,0.0,0.0,1.1773131,-0.0,-0.0,-0.0,2.3405108,1.1805035,1.8561883,-1.5615032
-1.2995842,-0.0,-0.0,-0.0,-0.0,0.0,1.3478681,1.3168561,-0.0,0.9794073,-0.0,-0.0,-2.0780873,0.0,-1.4091742,0.0,-0.98557913,-0.0,0.0,0.0,1.071807,-1.4977673,2.1998115,-1.9327081,1.0398674,0.0,-1.9153204,0.0,2.110774,1.266626,0.0,-0.0
-0.0,1.0423808,-0.0,0.0,-0.0,1.6179186,0.0,-0.0,-0.0,-1.4434878,-1.8738323,1.3393716,-1.4841514,1.0940727,-0.0,1.4389138,0.0,-2.4457383,1.6110219,0.0,0.0,-1.4124696,0.0,0.0,1.2838496,1.4353548,-0.98476696,0.0,0.0,0.0,0.0,-0.94624406
-0.0,-0.8213584,-0.0,0.0,-0.0,-0.0,2.546671,0.0,0.76007664,-0.69429743,-0.0,-0.0,-1.0258174,-0.88816315,-0.0,1.2279117,-0.99666584,0.0,-0.0,-1.3334208,0.0,-0.0,0.0,0.0,-0.819809,-1.7702229,-0.0,-0.0,1.5480642,0.829919,2.5770588,-1.3766574
-1.1893337,-0.68222284,0.0,-1.1549122,-0.0,-0.0,-0.0,-1.6280624,0.0,0.0,0.87100905,1.1288936,2.5444329,-1.217471,-1.0244312,-0.0,-1.7855642,0.0,0.0,0.0,0.0,-0.0,-0.0,-0.0,0.0,1.1309519,-0.0,-0.0,-1.8245702,0.8103711,-2.5757356,0.93712234
-0.0,1.1648277,0.0,-0.0,-1.1002105,-1.0643255,-1.3565767,2.9115639,0.9077995,1.8299049,0.0,0.0,0.86746234,-0.9639209,0.0,0.0,-0.0,-0.0,-0.0,1.0390662,-1.3677136,1.2538488,0.0,-1.0212804,0.0,-0.0,0.0,1.9599063,0.0,-0.0,0.0,-1.2853143
-0.9296018,-0.9000243,-1.5781218,-0.8554574,-0.0,-0.0,-0.0,0.0,0.0,0.0,-0.0,-0.0,1.3413774,-0.0,0.0,-1.6842387,1.5543666,1.6700176,0.0,1.798642,-1.5489492,0.8968967,-1.6434661,-0.0,0.8996039,0.0,-0.0,0.0,-0.83301085,-0.0,0.8010603,-0.0
-0.0,1.4702734,-0.0,0.0,1.0479351,-1.5019734,0.5983158,1.6365165,1.1926684,-0.65433574,-0.0,-0.0,0.0,-1.3409814,-0.0,-0.0,0.72140974,-1.0719421,-0.0,-0.0,-0.0,-1.7579244,-0.0,0.7617608,-0.0,-0.86122966,0.0,0.789026,0.0,0.0,1.597365,-0.0
0.9254078,-0.0,-0.0,1.0564264,0.0,-1.3668635,0.0,-1.1685028,-1.0619441,0.0,-0.0,0.8882016,-0.9229519,-0.735275,1.1081126,0.0,1.2408563,-0.0,-0.0,0.0,1.4366305,0.0,1.1457323,-0.0,0.0,-1.3801272,1.0721458,0.0,-0.0,-0.9987668,0.0,-0.0
-0.0,0.0,-0.0,-2.1426167,-2.0717335,-1.38812,0.0,-0.0,-1.507017,0.0,1.1719164,-0.0,-0.0,1.5140215,1.7338552,-0.0,-0.0,0.0,0.9256195,0.0,-0.96735436,0.0,1.1087371,-1.9421974,0.71540904,0.810473,-1.518143,0.0,-0.0,0.0,0.0,0.7143529
-0.0,0.99415755,0.0,0.0,-0.87474525,-1.0712788,-1.7513986,0.0,-0.0,-0.0,0.0,1.1423122,1.9080551,-0.0,-0.0,-0.0,-1.8416693,1.2978772,-0.0,-0.8619448,-0.0,-0.0,1.5764483,1.6110924,-0.0,-0.83074754,0.0,0.89533985,0.0,0.8562667,1.2753994,0.0
-1.1038681,1.1990691,-0.85437727,1.9646213,-0.0,-0.0,-0.7727647,-0.85891855,-0.0,-0.0,-0.0,0.0,0.8891708,-0.0,0.7682205,1.4856797,-0.71762544,0.0,-0.0,0.65420413,-0.0,-1.1461997,0.0,0.0,0.0,0.0,-1.0562984,0.0,-0.84376717,-0.0,0.9815822,0.0
1.9459755,-0.98047,-0.0,1.6414111,-0.0,0.0,-0.0,0.0,0.0,-0.0,-0.0,0.9348367,0.0,0.0,1.1300384,-0.0,0.0,1.1255255,2.4976897,-0.0,-1.0125659,-1.8495996,-0.0,1.7044197,1.0405079,1.2924937,2.409871,0.0,-1.6933447,0.0,-1.8494271,-0.0
0.0,0.8880732,0.0,-0.0,2.131516,0.0,0.0,-0.8175175,0.9973284,-0.8107398,-1.0768884,0.0,-0.0,-1.7404641,-0.0,1.6119055,1.0781779,-1.053646,-0.0,0.0,1.1517972,0.70303506,-0.9944563,0.0,0.0,-1.5793642,-0.0,-1.2745391,0.0,0.0,0.0,-0.0
-0.0,-0.0,-0.0,-1.2413504,-0.0,0.0,1.4663786,0.0,0.0,-0.0,0.9942212,0.0,-0.91500163,-0.0,0.0,1.478038,1.6252623,-1.4063637,0.0,1.0134451,1.1342719,0.0,0.0,-0.92587477,0.0,-0.8266033,0.8707665,-0.0,-0.7855157,1.0162591,0.87547815,0.0
-1.5286727,-0.0,0.0,-0.0,-1.9529811,0.0,0.0,1.0076526,-0.0,-0.0,0.960613,0.0,-1.2250166,-2.5745916,-0.8644922,-0.0,1.3873887,1.079085,1.2830799,0.0,0.0,1.0216502,0.0,-0.0,-0.0,0.8568908,0.93557984,1.2519269,0.0,-0.0,-1.8193271,0.0
0.0,0.0,0.7065098,0.7292818,-1.9669145,-1.2937063,-0.0,-0.8859048,0.9215933,1.4112543,-1.0605129,-1.6389366,0.7515121,1.3667861,1.7954694,-0.0,-0.0,-0.0,-2.671068,-1.7343712,0.0,0.0,0.0,0.0,-0.0,0.0,-0.0,0.0,-1.173566,-0.0,0.0,0.0
-0.0,0.0,-0.0,-1.1727879,-0.0,0.0,-0.0,0.0,-3.4364583,0.84340894,-0.717071,-0.0,-0.7097451,0.0,0.0,-0.0,0.9195138,-0.94570637,0.0,-1.003519,-0.0,0.0,-0.83705235,-1.1495938,1.2039986,-1.3824514,0.0,-2.3763952,0.0,1.6439579,0.0,1.7030917
-1.6542566,-0.0,-0.9885904,0.0,1.8004211,-0.0,0.0,-0.0,1.3345835,0.95660824,-0.0,0.0,0.0,0.0,-0.0,0.0,-0.0,-0.0,0.9347775,0.0,1.3009729,-2.099205,-0.9298809,-0.0,-0.0,1.6744988,-0.0,-0.90414894,0.93069917,-0.8075216,1.6266224,-1.1748644
-0.0,-0.97092265,0.7850725,-0.7667692,-0.0,1.474815,-0.8134017,1.2258861,1.1329068,-1.5912296,-0.0,-1.2494831,0.0,0.0,0.939152,0.0,0.0,-0.8316271,2.0235074,-0.0,-0.0,0.0,0.0,0.0,-0.0,0.0,0.0,-1.0084938,-0.0,1.3654616,-0.0,-1.5003763
0.0,-0.0,0.0,0.0,-0.7973138,1.3248796,-1.3656584,-0.0,-1.0914835,0.0,0.0,-0.0,-0.0,-0.0,0.0,-0.0,1.1032342,0.0,0.81551087,0.0,1.537214,-0.0,-1.8969069,-0.8363336,1.2955391,2.2871182,-0.0,-0.0,-2.01836,1.7293234,1.0140611,0.96817356
1.5876576,-0.0,0.0,-0.7151479,0.0,-1.0354906,0.0,-2.4161994,-1.8185155,-0.0,0.0,1.3137592,-0.0,0.0,-0.0,3.2046282,-0.0,0.93135047,-0.0,0.0,0.0,2.47151,1.0187533,-1.8777632,-0.0,-0.0,-2.3949673,0.0,-0.0,1.0572046,0.9269396,-1.3345459
1.5731698,0.9395614,2.637817,-0.0,0.0,-0.0,-0.0,-0.9065509,-0.0,-0.0,0.0,1.1414766,0.0,-0.0,0.0,0.0,2.0835662,-0.9025784,-0.9435558,0.0,0.79317373,1.6451768,0.0,-0.0,1.0466766,-0.0,-1.533534,0.0,-0.0,1.3109727,-1.4892956,-0.8972516
-0.0,1.8195839,-0.0,0.81141484,-1.2603779,0.91425854,0.0,0.99809617,1.2504679,0.0,0.91634,-0.0,0.84212667,2.6210697,0.0,-0.0,-1.1894113,-1.345213,0.0,0.0,0.77002406,0.0,-0.0,0.0,-0.0,0.0,-1.6676536,-1.1288552,0.0,-1.028288,0.0,0.0
0.0,-1.2684414,-0.0,0.8485182,1.2974291,-2.043561,-0.0,1.2614297,0.0,-0.0,0.0,0.0,-0.0,0.0,-0.0,1.910785,0.8033589,1.3904113,0.88280106,-0.0,-1.032957,-0.0,0.0,1.3171613,-0.86914086,-0.0,0.0,-1.7213405,-0.0,-0.0,1.3341824,-0.83948284
-2.1813412,-0.0,-0.627372,0.0,-0.531449,-0.6854164,0.82502973,-0.0,-0.0,-0.0,0.9891168,0.0,-0.0,0.5126401,-2.580745,-1.9998283,-0.99794066,-1.0910325,0.0,0.0,-0.0,0.0,-0.0,-1.1899029,-0.0,-0.5031197,0.0,0.0,0.8639549,-0.0,0.0,1.1296413
-2.0726042,2.05889,-0.0,-0.0,-1.1361433,-1.5979505,0.0,0.58398575,-0.96836877,0.60349065,-0.5380706,0.0,0.0,-0.0,0.0,-0.94487756,0.72803915,-0.0,1.0969754,1.1054016,-0.0,0.0,0.0,0.9625203,-0.0,-1.7860155,-0.0,-0.0,-0.0,0.0,0.7182539,-0.0
-0.0,-0.0,0.0,-0.5764504,0.0,0.0,-0.0,0.0,-0.0,-1.9378387,0.9515609,-2.0390265,-1.0916991,-0.97153306,-0.6229861,0.0,0.0,1.1622045,-0.0,0.69949603,-1.0851192,0.0,2.7819116,0.0,-1.7622079,-0.86120266,0.0,0.0,-1.2611021,-0.0,0.0,-0.6825444
0.0,-0.0,1.402678,0.0,-0.0,-1.1819773,-1.4239517,-2.3295767,-0.0,-0.8974706,-1.833962,-0.0,1.3775284,0.0,1.432926,-1.6082528,-0.0,1.2095441,0.0,0.0,-0.0,-1.33403,-0.0,-1.1385889,2.5850081,0.0,0.0,-0.0,0.0,0.8798026,-1.2068857,-0.0
-0.0,1.0800174,-0.6972772,-2.2464917,-0.0,-1.2374624,1.919168,0.0,0.0,-1.0535293,0.0,0.88060695,-0.8261582,-1.0314823,-0.0,-0.0,0.0,0.7484956,0.52561074,0.0,-0.0,-0.0,-0.0,-0.0,0.0,-0.61083126,-0.0,-1.1330395,0.47907227,0.0,1.4186157,0.0
1.0503725,2.2115614,-1.533411,0.0,1.413032,-0.0,0.0,-0.0,0.0,1.3485236,-1.0184557,-0.0,-0.0,-0.0,1.0971364,0.0,-0.0,-1.2299229,1.1235989,0.0,-1.1589229,-0.0,1.6411929,0.0,0.9029377,-1.006627,-0.0,0.0,0.0,-1.2159269,-0.84756285,0.0
0.0,1.0050032,1.8605967,-1.1570739,-0.0,-0.0,2.4852967,0.0,-2.3609765,-1.2208111,1.2651439,0.0,-0.0,1.1402246,-0.0,0.0,0.0,0.0,0.0,0.0,-0.97421676,-0.0,-2.115986,-0.0,-1.1654536,0.0,-1.1169751,-1.5189583,-0.936113,0.0,0.0,-1.264317
0.0,-0.0,0.0,-0.0,0.0,0.0,1.0755152,0.71766484,0.0,0.0,-0.0,-0.0,-0.0,-0.0,-0.77167624,-1.8345811,-1.4641911,0.84086525,0.0,0.69188017,1.2667763,-1.8154895,-0.0,-1.0835571,-2.227756,0.85813266,-0.0,-0.0,1.5090955,-0.7103934,-0.0,0.9096337
0.0,2.009447,-1.1930252,-0.0,-0.0,0.0,1.7687036,-0.0,-0.0,-0.0,0.0,1.5851661,-0.0,-2.4700801,-1.8196969,-1.5007534,0.0,1.3001633,0.0,0.0,0.0,-1.3072691,-1.0553803,0.0,0.0,1.0597456,2.1060758,-1.1699281,1.0721678,-1.1608781,0.0,-0.0
-0.0,0.0,0.97094166,-1.0455523,0.0,0.0,-0.0,0.0,-1.2216549,1.1016796,0.0,0.0,0.0,1.1726648,0.0,-2.324433,0.7252145,-0.0,-0.0,-0.0,-0.0,-0.77124304,0.0,-0.88685495,1.71223,1.4296051,1.183074,1.4875703,-0.0,-0.8957235,0.0,-1.2643898
-1.0575168,-0.0,1.6236163,-0.0,0.0,0.0,0.92794234,0.0,-0.0,0.0,-2.7270613,0.0,-0.93665516,-0.0,-1.542776,0.8617559,-1.6829182,-0.0,-0.9472211,0.0,0.7540843,1.1062504,-1.0702325,-0.6372502,-0.0,0.0,1.9541267,0.0,-0.0,-0.0,-0.9590619,-0.0
-0.0,0.0,1.181196,0.0,-0.0,-0.0,-0.0,-2.384324,-0.0,0.0,0.0,1.2963458,0.0,-0.0,1.1294099,-0.0,-0.0,-0.0,-1.6884483,1.8338511,2.4751365,-1.4842154,0.0,-1.5709262,0.0,1.270962,-1.9938163,-0.0,1.0658103,-1.1171392,-1.5260195,1.146556
-1.3005639,-0.0,0.0,-0.0,-0.0,-0.0,-0.0,1.4798822,0.0,0.7730017,0.0,-0.0,-0.70696604,-0.0,0.9860643,0.0,0.0,-0.0,0.8082199,-0.0,0.0,-0.0,-0.6993565,0.89073604,-0.0,-2.998812,0.6298231,1.0025775,1.2500749,-1.1768126,-1.5404224,-0.9714462
-0.84460914,0.0,0.9184049,-0.0,1.1111958,0.0,-0.0,-0.9410867,0.0,1.8373584,-0.6449048,-0.0,-0.0,0.6161431,-0.0,1.6928493,0.0,0.96845,0.0,-0.9226611,-0.6930303,0.0,-1.3432468,1.537518,-0.0,-1.7714301,0.0,0.0,0.0,0.0,-0.0,-0.6152856
0.0,1.0514191,-0.0,0.0,0.0,-0.0,1.6593819,0.0,0.0,1.132708,1.8113801,-3.0667791,-1.0717056,-0.0,-2.3546526,-0.0,-1.2560633,0.0,1.2381397,-0.0,2.140661,1.4639918,1.1587688,0.0,0.0,0.0,-1.26005,1.9127063,0.0,1.0227383,-0.0,0.0
0.92872626,2.4261281,1.3892738,-0.0,-0.0,-0.0,1.8894624,0.0,0.8980666,0.9655386,-0.86276174,-0.0,1.2039754,-0.0,0.0,0.0,-0.0,-1.0965977,-0.0,-1.1756383,-0.9974546,-1.0064532,-0.0,0.0,-0.0,-1.2069706,0.0,0.92949307,-1.0014223,0.0,-0.0,-0.0
-0.0,-0.0,0.0,-1.1658975,-1.0834568,-0.71463364,1.9617443,0.0,-1.454146,-0.0,0.729074,1.1522233,-1.2048948,-0.0,-0.0,-0.79726225,-0.0,0.9703478,-0.0,1.2526613,-0.0,0.0,-0.0,0.0,0.0,2.6311934,-2.1262603,0.9669522,-0.0,0.845827,0.0,-0.0
1.5830016,1.1954195,1.8598136,-1.3571453,-0.0,0.0,-0.8095066,0.0,-0.75524265,-1.2052191,1.1184794,-0.0,-0.0,-0.0,0.0,-0.0,0.7595191,-1.9981452,-0.0,-0.0,-2.2347224,1.0960076,0.0,2.5001233,0.0,-0.0,-1.7284071,-0.0,0.0,-0.0,-2.8068247,-0.0
0.0,0.0,0.0,0.0,-0.0,0.6488825,-0.0,-1.5813433,1.5177602,-0.0,1.5634298,-0.0,-0.7049027,-0.0,1.2599113,1.1085963,-0.0,1.5792737,2.722221,0.7013076,1.4651755,0.0,-0.0,0.0,1.236062,0.0,-0.0,3.0707726,0.0,-3.3377964,-1.1940676,-0.0
1.0469823,0.0,2.3100526,0.91291493,-0.0,-0.0,-0.0,-0.0,-0.0,-1.0596323,-1.0253356,0.0,-0.8130598,-1.458376,2.0392015,-0.0,-0.0,-0.94374007,1.5975689,-1.0234995,0.75175333,0.0,-0.0,-1.0793049,0.0,-0.0,-0.0,0.0,-0.0,0.0,1.3564714,1.6359288
0.97622865,0.9706537,0.0,-1.5043213,0.0,-0.0,0.0,-0.0,1.2229079,0.0,0.89672774,-1.473341,-1.0077177,-1.5337008,-0.0,-0.0,-1.2988285,-1.8764325,-1.5284797,0.9554826,0.0,0.90281165,0.0,0.675118,-1.8277612,-0.0,-0.0,-0.0,-0.0,-0.0,0.0,0.0
1.1450621,-0.0,0.0,-0.0,0.7833751,0.92588586,0.0,0.0,0.9820977,-0.79681426,-0.0,0.0,-0.0,0.7126404,0.7739513,-0.0,0.9886947,-0.0,-0.917686,1.0812966,0.75218666,-0.7690624,0.0,-0.0,1.9059268,0.78869665,-0.0,0.0,0.0,0.0,0.67947745,0.0
0.0,-2.0307012,-0.0,0.6132483,-0.0,0.0,0.0,0.0,-0.0,2.942222,0.61225444,-2.2946312,-0.0,0.0,-0.0,1.6602632,0.0,0.8077234,-0.0,0.0,1.192173,-1.2468735,-1.4921731,0.0,0.0,-0.0,1.1176721,0.82916343,1.1150378,-0.0,-1.1315937,0.78285223
0.0,0.0,1.3732308,-0.0,0.0,0.0,0.0,0.0,-0.0,0.9915922,-0.94707924,1.2177576,0.0,0.0,-0.0,-0.0,0.0,1.7416964,-0.855615,-1.594108,-2.2711058,-1.2196988,1.2975997,-0.0,2.026335,-0.0,1.0754082,0.0,1.8928232,1.9235473,-0.0,1.5497501
1.3263397,0.0,-1.0588824,-1.6262172,1.3412648,-0.0,-1.3720145,0.0,0.0,0.0,-0.0,2.6518762,-0.0,0.8881466,-0.0,-1.0251112,0.0,-0.0,0.0,-0.0,-0.8960074,-0.0,-2.113655,1.0843785,0.89758044,0.0,-0.0,-1.8477862,1.1250699,1.1243049,0.0,-0.0
0.0,-0.8126681,-0.0,2.0786436,1.0213852,-0.9214742,0.0,1.2045565,0.0,-0.0,-0.0,-1.1995138,1.2988724,0.0,0.0,-0.0,0.0,0.86862314,0.7261416,0.0,0.0,0.9817016,1.5245214,-1.4210105,0.6988544,-0.0,0.0,-2.437847,0.0,-0.0,-0.97952354,-0.0
0.0,0.0,1.286495,0.0,-0.0,-1.8807404,-2.065197,0.0,-2.3758566,0.0,-2.4076173,1.6618474,-1.2701174,2.1541188,0.0,1.294243,-0.0,-0.0,0.0,-0.0,0.0,1.7391005,-1.0905864,1.1295255,0.0,0.0,1.095765,-1.0367663,-0.0,0.0,1.0187677,-0.0
0.0,-1.2106961,2.2824864,0.0,-1.3877891,-2.1081657,0.0,-0.0,-0.84132063,-0.9408152,1.1887846,0.0,-0.0,0.0,-1.3172629,0.0,-0.0,1.554431,-1.3362651,2.376786,-0.0,-0.0,-1.3853025,0.0,-0.0,-0.0,-0.0,1.1290652,-0.0,-1.2122085,0.0,-1.4106956
-0.0,0.0,0.0,-0.0,-0.0,-0.0,-1.3652941,-1.638438,0.0,0.0,1.1707804,-0.0,0.0,-0.0,0.0,1.9645504,-1.1934074,-0.0,1.6354227,1.2614279,0.8304355,-0.0,-0.0,0.0,-1.2488052,0.92054653,-1.7037412,-1.9131817,1.182297,-1.090058,1.4966898,-0.0
-0.0,0.0,0.0,-1.3443094,-1.129869,0.0,0.7550868,-0.0,2.6999972,0.0,1.0365804,-0.0,-1.3354099,-0.0,-0.94277334,-0.0,0.61979383,0.62783337,-0.0,0.0,0.0,1.4617764,0.0,0.0,-1.333923,-1.051595,-0.87148786,1.9395906,-0.0,0.96494937,0.0,-0.0
0.0,2.2130556,1.119002,-0.0,0.61034477,0.0,0.0,-1.6023676,-0.0,1.7368745,-1.0903233,-0.0,0.90188396,-0.0,-0.7407053,0.0,0.0,1.8853735,-0.0,1.502266,-1.999965,-1.1786599,0.0,0.0,0.0,0.0,-0.0,1.1193314,0.0,-0.6992444,0.0,0.8810511
0.79850924,1.2445384,-0.0,-0.0,0.0,0.0,-1.4294726,-0.77226853,0.0,0.0,1.0694373,-0.0,0.0,1.8465253,0.0,0.0,-0.0,-1.8617779,-1.7264836,1.2225633,1.613378,-0.0,-0.0,1.4617478,0.0,0.68893284,1.2606604,-0.0,-1.0687469,-1.3085495,0.0,0.0
-0.0,-1.9878573,-0.0,-0.0,0.602199,0.0,-0.83641946,-0.0,0.0,1.6848528,-0.0,-0.0,-1.3332769,0.0,0.0,0.70353794,-0.0,-1.8216838,-1.7139002,-1.4765118,0.0,-0.0,0.85561657,-2.2929757,-0.6491326,-0.0,-0.85403514,-0.7574025,-0.0,0.0,-0.0,-1.3315514
1.4018323,-0.0,-0.0,-0.8549225,-1.6578178,2.1447513,0.0,-1.7924142,-0.81177866,0.0,-0.0,2.7168937,0.0,1.2432858,-0.0,1.4586588,1.3217543,-0.77962714,-0.89408416,-0.0,-1.1065025,0.0,-0.0,-0.0,0.0,-0.0,0.0,0.0,-0.9843568,-1.9156048,0.0,0.0
2.1906993,-0.0,-0.0,0.0,0.0,0.0,1.7625017,-0.0,-1.4184433,-0.0,0.0,-0.960697,2.4132779,1.3800184,0.78979534,-0.0,-0.83566767,-0.0,-1.5735546,1.7652619,0.0,1.3307433,0.0,0.0,-0.0,-2.038218,0.0,0.0,1.1021848,-1.8943368,-0.8092173,-0.0
0.0,-0.0,-0.0,-0.8391641,0.0,0.0,-0.8221832,0.0,-2.7537143,-1.2407018,-1.0103,-0.0,1.0739026,-0.9732215,-0.73891103,1.0506535,1.1848443,0.0,-1.1738876,0.0,0.0,-0.0,0.0,1.4568958,-0.881821,0.0,-0.0,0.0,0.76860905,0.0,-0.0,2.4662514
-1.1417278,1.1044385,-0.0,1.3355258,1.5446407,1.3831127,-0.0,0.0,-0.0,0.0,-1.2539954,-0.0,-1.6032085,0.0,-0.0,0.0,1.6570117,0.0,0.9803246,0.0,1.0765622,-0.0,-0.0,1.2811127,0.94558215,0.75641245,-1.0487086,-0.0,0.0,-0.0,2.4843693,-0.0
-0.94391227,0.0,1.8303319,-0.0,-0.0,0.93928754,-0.0,0.0,3.6035185,-0.0,1.2528425,2.3037405,-0.0,-0.0,-1.2072679,-1.4127947,-0.0,-0.8465234,0.0,0.0,1.0160825,-0.0,-1.5776845,-0.0,-0.0,-1.6988438,-0.0,1.2702138,1.1879846,-1.0519525,0.0,-0.0
1.3654877,-1.4011198,0.0,0.0,-0.0,0.73409927,0.0,-0.0,0.0,-0.8011926,-0.9637742,0.72934777,0.0,-1.2089025,0.0,-2.069863,-0.0,0.0,-0.9342086,-1.4635501,-1.0057265,1.5414032,-1.425402,-0.0,-1.5363556,-0.0,-0.0,-0.0,0.0,1.2321165,-0.0,0.0
0.73606217,0.8012682,-0.930364,1.1406657,0.0,-0.0,-0.0,-0.0,-0.0,0.6103231,-1.5098191,0.0,1.0335393,-0.0,-0.8193795,-0.9369358,0.0,1.7662486,2.3633287,-1.0476149,-0.0,-0.0,0.0,0.69996595,0.0,-2.131296,-0.0,0.0,0.0,-1.1177089,0.0,0.0
1.2787567,3.2194273,0.0,-0.0,0.0,-1.6323225,-1.2285922,-1.020303,-1.4099863,-0.0,0.69564843,0.0,0.0,-0.0,-1.4404856,1.049087,0.0,0.0,-0.0,0.74459326,0.0,0.0,-0.9678676,-0.0,-0.0,-0.6399428,-0.0,-1.8256704,0.0,0.0,-0.6562878,-1.7790244
1.8540348,-1.0379636,-0.0,0.0,-0.0,0.95760024,0.0,0.92214364,-0.0,1.1753047,-1.9825454,0.0,-1.0773404,1.619266,0.0,0.0,0.0,0.0,0.0,-1.1316353,-1.1603541,0.0,-0.84417135,0.0,0.0,0.0,-1.2430342,-0.0,1.8372544,-0.0,-0.9143605,1.8983511
-0.0,-0.79463804,-0.8708668,1.3757931,-0.7669751,-0.7991914,0.0,1.2379277,-0.0,-0.0,1.0231833,-0.0,-0.0,0.0,-0.0,-1.295133,0.0,1.6684178,-0.74825007,-1.2987546,0.0,0.0,-1.1467754,-0.0,0.0,0.0,-0.0,1.1239669,0.0,-1.0761065,1.2278821,0.0
-0.0,-0.0,-1.7346592,-0.0,2.4110403,0.0,2.041197,0.0,-0.0,-0.0,-0.0,-0.75129,2.8677816,0.0,1.0820464,-3.1136281,-1.5839984,-0.8894262,0.0,0.0,-1.3522588,-1.6573671,0.8658383,-0.0,-1.9078733,-0.0,1.7661874,0.0,-0.0,-0.0,0.0,-1.5503378
0.0,-0.0,2.0695302,-1.6734749,0.0,0.0,-0.0,-1.0561949,-0.0,0.0,-0.0,-1.0219169,-0.0,0.0,-2.764126,1.1659113,0.0,1.5107847,1.2007471,2.0192208,2.5899594,-1.3762316,0.0,-1.667025,0.0,-0.0,-1.489263,0.0,-0.0,1.571542,-2.0281973,0.0
-0.0,1.0501775,0.0,1.0007125,-0.0,1.1926404,-1.2283145,-0.0,0.8708325,0.0,0.0,-1.4864911,-0.9912132,-0.0,1.0909777,0.0,0.0,0.0,1.7977694,0.0,0.0,-0.9004605,0.0,-0.0,-1.670765,0.50457966,-0.7379549,-0.0,0.61069083,-0.0,0.0,-0.92662466
0.0,-0.0,-0.0,-0.0,-0.8442064,1.0561153,1.05083,0.0,0.0,1.2156485,0.0,-0.73836344,-0.0,0.0,0.0,0.0,-1.5959951,-0.0,0.7679484,1.184369,0.7165419,-0.0,1.0240865,-2.298744,-0.0,-1.4054924,1.2515976,0.0,-0.0,-0.9096028,0.9604039,0.0
0.0,-0.98000735,-1.152886,-1.5946093,-0.0,0.85780275,0.0,1.6552582,0.0,0.0,0.0,-1.8613951,1.2255098,1.1682707,-0.75254506,-0.0,-1.4101217,-0.0,0.0,1.0056683,-1.4249638,0.0,0.0,-0.0,1.255084,0.0,-1.9979998,-0.0,-0.0,1.4677942,0.0,-0.0
0.9714649,-0.0,-0.0,-0.0,-0.0,-1.1335565,-0.0,-1.493644,-0.8837628,0.0,0.0,0.0,-0.0,1.2755754,0.0,1.4179888,0.72689885,1.9184391,1.209917,0.8090858,0.0,0.0,-1.5361042,0.7162213,-0.7018752,0.0,0.0,-0.0,-1.3903856,0.0,0.0,1.0581053
1.1650984,-1.0445474,1.0507706,-0.0,-0.761916,-1.0118397,-0.0,-0.0,-2.2024412,0.89786136,2.0147445,1.6156507,-0.0,0.0,1.2181419,-0.0,-0.0,-0.0,-0.99719954,0.0,-0.0,0.8701441,0.0,0.0,0.9905531,-0.0,0.0,0.0,-0.0,2.1115189,-0.0,-1.5248597
-0.9340714,1.0800308,-0.81891495,-0.0,-1.789009,-0.0,0.0,-0.0,0.0,0.0,-0.0,-0.9078706,-0.99191666,0.0,1.2259601,0.0,-1.5642244,-0.0,-1.49518,-0.0,-0.0,-0.79957,-0.0,0.0,-1.2070602,1.4513098,0.9049153,-2.4136493,0.0,1.120032,-0.0,-0.0
0.0,-0.0,0.0,-0.7243549,0.0,-0.9728557,-0.0,0.0,1.0026786,0.0,-0.0,-0.0,-1.1567754,0.63017565,2.0755327,1.3186547,0.9632285,1.3512356,-1.0700142,1.3937486,0.0,-0.0,0.0,0.84600633,-0.0,1.4391214,1.2407537,0.0,1.3476421,0.0,0.0,-0.0
0.8087525,-0.80018044,1.244858,-0.0,-2.242975,-0.0,-0.0,-0.8392338,-0.8749098,0.0,1.3967056,-0.0,-0.0,0.0,0.0,-0.0,1.0320491,0.0,0.0,0.0,1.2541738,-0.0,-1.2748065,-0.0,-0.6872392,0.0,0.57275444,-0.0,0.0,0.89796436,-1.6337627,0.8395257
-0.0,-0.0,0.0,-0.0,-1.5385956,0.0,-1.7422057,-0.0,-0.0,0.98837703,-0.0,0.0,0.0,0.7809221,-0.72665685,-0.0,0.0,0.0,-2.3791316,1.3098191,0.0,-1.6175671,1.5021856,0.0,-0.82610816,0.97399974,0.0,-0.9408505,-0.9219137,-0.0,1.7915008,-1.2959683
-1.8997,-1.5836579,1.6765399,0.0,1.1198776,0.9795632,0.0,-1.2098508,0.0,-2.4726882,1.0320506,1.1887342,1.4428334,-2.0657358,-0.0,0.0,-0.0,0.0,0.0,-0.0,-0.0,0.0,-1.5528072,-0.0,-0.0,0.0,-2.9083538,0.0,0.0,-0.0,1.7810066,-0.9367228
0.0,1.0157762,-1.5963145,-0.0,-2.3655603,-0.0,0.0,0.0,2.0237312,-1.6821934,-1.1658438,0.91921484,-0.0,-0.9706562,0.0,0.0,-1.1788746,0.0,-0.98159045,-1.2298896,1.4169587,-0.0,-0.0,-0.0,0.0,-0.0,1.0017459,-0.0,0.0,-1.4287624,0.0,1.4260798
-0.7613491,-0.0,-0.0,0.9521774,1.1224725,-0.92668307,1.6265444,0.0,0.0,0.0,0.9222254,0.0,-1.3441362,0.8848388,0.0,-0.0,2.7048748,-1.5140272,0.0,0.0,-0.0,0.0,0.7189935,-0.0,0.0,1.0336016,0.0,-1.3464075,0.0,-1.6172011,0.66719335,-0.0
0.0,-1.5691684,-0.0,-0.0,1.4496981,-0.0,-0.0,0.0,-1.8012679,0.0,-1.413427,-0.0,0.0,-0.0,0.85916233,0.0,0.0,-1.1984552,1.2311419,0.80880255,-0.0,-0.0,-2.8358836,-0.0,-0.85214496,-0.0,1.4091754,0.7230535,-0.7691248,-1.9223509,-0.9296985,-0.0
1.042928,1.1151128,1.3457769,1.0579507,-0.0,-0.0,-0.0,0.9867622,0.0,1.2384361,-0.0,-0.9487954,-0.0,0.0,-0.0,-0.83390677,-0.0,-1.0066962,-0.0,-1.9578768,0.0,1.5132198,-0.0,-0.0,-0.0,0.0,-0.0,0.7991814,-0.96693903,-1.0327781,0.0,-1.3348148
0.0,0.9888013,-1.4101251,-0.0,0.0,0.8438946,0.0,1.3743739,-0.92190635,0.0,-1.179051,1.4568411,0.0,0.0,2.163048,0.0,1.6545885,-1.2741994,-1.6608138,-0.0,-1.0662903,-0.0,0.0,0.0,1.361473,0.0,-0.0,-0.0,-0.0,0.79854953,-0.0,-1.2382221
-0.95044464,0.0,0.0,-1.0897574,0.0,0.0,0.0,0.0,-0.0,-2.2669885,0.0,1.6657089,-1.4482715,0.0,-0.0,0.0,-0.0,-1.2508312,-0.0,2.0041835,1.5149026,-1.2048821,0.0,0.0,0.9449223,0.86887854,-3.1428165,0.7951347,0.0,0.88588727,-0.0,-0.9741316
-0.0,0.0,0.0,1.1903905,1.1996983,0.0,1.004627,0.0,1.0666705,-0.0,-0.7169517,-0.0,-0.0,0.0,-0.0,0.7511784,-0.95045257,1.6664776,0.0,0.0,-1.4171948,0.0,0.0,0.6449867,-1.619283,-1.0420663,-0.0,0.73497283,1.6871201,-0.0,2.4021208,0.0
0.0,1.8219689,0.9800402,0.0,-0.0,1.0418369,-0.0,-0.0,0.0,-2.3914168,1.8769284,0.6746967,1.9599087,0.70356584,-1.3702334,-0.7500006,0.0,-0.0,-0.0,1.2291915,0.0,-0.0,-2.3219192,-0.0,0.0,-1.2078614,-0.0,0.0,0.0,0.0,0.8329259,-1.6551777
1.9792315,-0.0,0.0,0.7971306,-0.0,-1.4883665,-0.0,-0.66987324,0.0,0.9913185,-0.69957197,-0.0,-0.0,0.0,-0.0,-0.764429,0.0,-0.0,-3.4106627,-1.3221327,-0.0,0.9386672,1.3032753,-0.0,-1.2844225,2.546418,-1.6490018,0.0,0.0,-0.0,-0.0,-0.93419695
-0.0,-0.8790294,-2.2273455,-0.0,-0.0,-2.3827713,0.0,-1.115296,-0.0,0.0,1.6829879,-0.0,-0.0,-0.0,0.9573717,0.8489213,-0.0,-2.0725343,-0.9210088,-0.0,0.0,0.0,-0.7977478,-0.0,0.0,-2.081428,0.0,2.0569992,-2.0801134,0.0,1.100006,1.4024512
-0.0,0.0,0.0,-0.0,-1.6148803,0.0,-1.8493266,0.0,-0.0,0.0,0.0,-0.0,-1.0539709,-1.6106868,-0.0,1.1969981,-0.0,-0.96064365,0.0,1.2351043,1.692389,-0.0,0.9355496,0.903685,-0.0,-1.3491466,-1.4439559,1.1549014,0.0,-0.8985714,2.3850484,0.0
1.3024868,1.408447,-0.0,-1.2155021,0.0,1.5697327,0.0,1.5733767,0.0,-1.2172234,-0.0,-0.0,-1.9702277,0.0,-0.0,-0.0,0.0,0.0,-1.759781,0.0,-1.4375292,-0.0,-0.0,-0.0,1.1264414,1.868426,-1.3093327,-0.0,-0.0,-1.5947093,1.6791835,1.2742331
-1.2395293,0.8900525,-0.0,-0.7473888,-0.0,0.0,-0.0,-0.0,0.57623047,-0.91675764,-1.782541,-1.4603124,0.0,0.0,-0.0,0.0,0.0,1.1093819,0.0,-0.0,-2.2305517,-1.1985319,1.0132976,0.0,1.607282,-0.0,1.5245268,-0.0,1.2429295,2.3303976,-0.0,0.0
-3.6071413,1.4245331,0.0,-0.0,0.0,-1.0047917,-1.236138,1.3794558,-0.0,1.4224697,0.0,-1.0872365,0.0,1.9292334,0.0,0.8450841,-0.0,1.2571939,0.0,0.8233215,0.0,-0.0,-0.0,-0.98396057,0.0,0.84349674,-0.0,-0.0,-0.0,0.0,-1.0183611,1.396449
1.0049453,1.396313,-1.2823981,-1.0403935,0.0,0.0,-0.9561634,-1.4246892,0.0,0.0,-0.0,-0.0,0.0,-0.0,-0.0,1.925671,0.0,0.0,-0.0,1.0668335,-0.7164619,0.0,-0.78335464,1.1806679,0.0,0.0,-0.80277103,-1.9491304,2.201104,-0.0,-2.4271338,-0.0
0.0,1.0624825,-0.0,0.8781379,1.2837008,0.0,0.67712796,0.0,1.3120972,1.2635056,1.3074667,0.0,-0.0,-0.0,0.0,0.0,0.0,-0.0,-0.0,-0.0,1.7222413,-0.8092461,1.0417138,0.0,-0.9109162,1.0582068,0.0,0.0,-0.7842855,-0.0,1.0588686,1.5056114
-1.8147894,0.0,-0.0,0.0,0.81976646,-0.0,0.0,-1.7393657,0.0,0.0,0.0,0.88994193,-0.0,-0.0,-1.6578228,-2.0796888,0.0,-0.9269259,-0.0,-0.7051323,-0.0,0.0,0.6801114,-0.51365286,0.0,1.4994216,-0.0,0.569075,0.0,-1.7938226,0.69563735,-0.58806276
0.0,1.2971255,-1.2032405,-1.1064496,-0.72958416,-0.0,0.0,0.0,0.0,0.8285719,-0.8475938,0.0,0.7521723,0.0,-1.1278589,0.0,1.0049291,0.0,-0.0,0.0,1.508557,1.7125098,-0.0,-1.8810735,1.1753144,-0.0,0.0,0.0,1.4254714,-0.0,-0.0,-1.1165936
-0.0,-0.0,1.15187,0.0,-0.0,0.0,-0.0,0.0,0.0,-0.0,0.0,1.1832832,0.0,-1.1972549,-1.6165115,-0.0,-0.0,-0.0,-1.7419397,1.7679397,2.0934563,-1.1753792,-1.970345,-0.0,-0.86059105,-0.0,2.000478,-1.437584,0.87781817,1.529953,0.0,-1.0301447
0.0,-0.0,-1.000173,0.0,1.9167273,1.0083972,0.0,-1.7043787,2.0393727,0.0,1.184439,-0.0,-0.0,1.0134462,0.0,1.7954407,-1.0816128,2.5827498,-0.0,1.1828923,0.0,-0.0,-0.0,0.0,-1.2909977,-0.0,-0.0,-1.4353831,-0.0,-1.0670236,2.039452,0.0
-0.8753761,2.2784767,-1.6105815,-2.5564957,-0.0,-0.0,0.0,-0.0,1.095644,0.0,-0.0,0.0,-0.6823875,0.0,0.0,-1.0754899,-0.70215416,0.0,0.0,-0.0,0.6699132,-0.0,-1.155826,1.3030506,-0.0,0.6227723,-0.79517347,0.0,-0.0,-1.6003336,-0.0,0.8755835
0.73919225,0.0,-0.0,2.3649158,0.0,0.74597424,0.0,0.0,-1.1519223,-0.9397936,-1.32904,-0.9051944,-0.0,0.0,-1.0976427,0.79815173,0.0,0.0,0.0,0.746742,0.0,-1.9408311,-1.0588452,-0.0,2.3416996,0.0,-0.0,-0.0,0.0,-1.108858,0.0,0.68335843
0.0,1.4757323,-0.0,-0.9706898,-0.0,0.0,0.0,0.0,0.0,0.5299581,0.87480015,1.8212368,-0.0,-1.2151587,-0.0,0.0,-1.233891,0.0,-0.86517084,0.54426324,-1.4564635,-1.5711968,-0.0,0.5914081,0.0,0.7582798,0.0,-0.0,-0.0,-0.9589389,-0.6973504,0.0
-0.0,-0.0,-2.1837947,0.0,0.0,-1.2145228,-0.0,0.9418964,0.86426455,-0.0,1.6915176,0.8680892,0.0,1.0047885,0.99485326,-1.6333153,-0.8778099,0.0,0.0,2.6426284,0.0,-0.0,1.1779071,-0.0,0.0,0.0,-0.0,-0.0,2.1747696,1.2360142,1.1512756,0.0
-0.9080794,1.5175817,-1.1326295,-0.0,0.0,0.0,-0.0,0.8929404,0.0,0.0,-2.0310128,0.0,-0.0,0.7709907,-1.6659745,-0.0,-1.8025242,0.0,0.0,1.0286509,0.0,-0.8485385,0.0,-1.5027221,-1.219271,-1.6148678,-0.0,0.0,-0.0,0.0,0.7195693,-0.9042846
-0.0,0.0,0.0,1.0579475,-0.0,0.0,-1.4704367,-1.7083308,1.5569066,0.0,0.0,-1.2527688,-0.0,1.3123126,1.5036336,1.2847536,0.0,2.9579806,-1.2261088,1.6833346,-0.0,1.5841285,2.0558338,-0.0,-0.0,0.0,-1.1676832,0.0,1.7860106,-0.0,0.0,0.0
0.0,1.227037,0.9447677,0.0,-0.0,1.3759329,-1.0672166,1.097401,-0.0,-0.0,-1.6118941,1.4972048,0.0,0.0,-0.0,-2.88017,-0.0,0.9748442,-0.0,1.5038509,-1.0323495,0.0,-1.0890161,-0.0,1.0935228,1.1997647,-1.448356,-0.0,-0.0,0.0,0.0,0.0
-0.84201926,0.0,0.0,-1.3785433,0.0,2.5927963,1.0003904,-0.7006772,-0.0,0.0,-0.8056625,0.0,-0.0,0.0,-1.1572208,0.0,0.0,-1.4475634,0.7779357,0.0,-0.0,-3.0290053,1.0078155,0.0,0.0,1.9211409,0.57945037,0.0,-0.8125258,0.0,0.0,-3.1103497
-1.4790367,-0.0,0.0,-0.0,1.3996437,0.0,-0.0,-1.3477448,-0.9108008,1.5668659,0.0,-1.3339874,-1.660397,0.0,0.0,1.4674579,-0.0,-0.0,1.0244749,1.3018242,-0.0,0.0,-0.0,-1.0711281,-0.0,-1.347407,1.0142109,-0.0,0.0,0.9344414,-0.0,-1.087028
1.3804787,0.0,-0.0,0.0,-0.0,-0.0,-0.0,-1.1359036,0.0,2.0991395,-0.0,1.893886,-1.3341607,-1.4440882,0.0,1.130301,0.0,-0.0,0.0,1.1733972,0.0,1.8719734,1.9532771,0.84956354,0.0,-1.2142683,1.085494,0.0,-1.178769,-0.0,0.9826552,0.0
-0.0,-1.380073,0.9322991,-1.4296384,-1.1788924,0.0,2.1678145,-0.0,0.0,1.103248,-0.0,-0.68214583,0.53574663,0.92335814,-1.244166,-0.0,1.243536,-0.0,-0.0,-0.0,0.0,-0.0,-1.2103536,-0.0,-0.0,-0.80453885,0.0,-0.7241918,-0.0,-1.1984714,-0.0,0.0
1.0749534,-0.90186733,-1.1107776,-1.1853572,0.0,0.72385246,-1.7820232,-0.0,0.80322254,0.86866033,-0.0,-0.75716496,-1.593581,-0.0,-1.8246814,-0.0,-0.0,-1.1284169,0.0,-0.0,0.0,0.0,-0.0,0.0,-0.0,-0.0,-0.0,-1.5529228,0.9885538,0.0,0.8495565,0.0
-0.0,0.0,-1.0806439,-0.8640856,0.94635177,-0.0,0.0,-0.0,0.0,-2.097872,-2.312248,0.0,1.3522943,-0.0,-0.0,-0.0,0.0,0.0,0.8344878,1.4147775,1.0403793,0.0,-1.0160307,-1.3178645,0.0,-0.0,0.8246353,-1.5124569,0.0,1.0907183,-0.99036807,-0.0
-1.0958279,-0.0,0.89937747,1.0932103,1.7954538,-0.0,1.4536477,-1.5611224,-0.0,1.5740796,-1.049001,0.9763463,0.0,-0.0,-0.0,-0.0,0.0,-0.0,0.0,-1.2417566,-0.0,-0.0,0.0,0.0,1.128874,0.0,-0.988208,0.0,-1.9207397,0.0,3.070872,-2.7801483
-1.5266025,0.0,1.1624761,-0.0,-0.0,1.2819088,0.0,-0.0,0.886943,-1.2359097,-0.0,0.0,-0.0,-0.0,1.3514295,0.0,-0.9829936,-1.1625619,0.0,0.91623026,1.0262775,0.0,-0.7088946,0.7289173,2.767715,-0.0,0.0,1.0382236,-0.0,0.0,1.6764507,-0.0
0.0,1.8047644,1.2711564,-0.0,0.0,0.0,-0.0,1.4579488,-0.0,2.4020567,-1.8925607,-2.0550559,-0.0,-1.2433693,-0.96491665,1.707202,-0.0,-1.2522647,-0.0,-1.2964222,-0.0,-2.6656704,-0.0,-0.0,-0.0,1.0970832,-0.91129065,0.0,-0.0,-0.0,1.3158734,0.0
-0.0,-0.0,0.0,0.82015616,-0.7749005,0.0,1.3543324,0.0,-0.0,-2.8279967,-1.3532747,1.2019173,-0.0,-0.0,2.2586393,-0.780449,-1.1061288,-0.0,-1.0439503,-1.9654094,0.0,0.8428059,-0.0,0.0,0.69546187,0.8615542,0.92473733,0.0,0.0,0.0,-0.0,-0.0
-1.2584498,-0.7505966,-1.3543092,0.95215595,-0.0,-1.1621568,0.0,-0.0,-0.0,-0.78227466,-0.0,1.1197202,-0.0,-1.1962246,-1.8857288,-0.0,0.0,-0.0,0.0,-0.0,-1.4031351,0.91085106,-0.97161907,0.0,0.0,-1.8624113,-0.8005446,0.0,-1.5671464,0.0,0.0,0.0
0.0,-1.2638001,-1.0465223,-0.0,-0.0,0.82541203,-1.1929067,-0.0,-1.043976,0.0,1.8132316,0.0,1.9579701,-0.7238162,0.0,0.0,-0.0,-0.0,-1.6372584,-1.306666,0.6426842,0.0,0.0,0.79988575,0.0,-1.3173058,0.9230942,-0.0,-1.1199957,-0.0,-0.0,-0.0
-0.0,0.0,-0.0,-1.4235497,-0.8322347,0.0,-0.0,-0.0,1.629844,-1.036519,-0.0,-1.0725052,-0.0,-0.8316975,0.9837042,1.1193191,-0.5914273,0.7949164,0.0,-0.0,0.948692,0.0,0.0,0.0,0.0,-0.0,1.5427471,-0.9560037,0.0,-1.703566,1.0332546,0.0
-0.0,-1.9452702,1.0999963,-1.197601,-0.0,0.0,-0.0,-2.0156121,-0.0,1.3806219,-0.94747597,1.0418528,-1.178155,-0.0,0.0,0.0,0.0,-0.9611691,-0.0,1.2233465,0.912313,-0.89550966,0.0,-1.9740411,-0.0,-0.0,-0.0,-1.2905341,-0.0,-0.0,-0.98568565,0.0
2.0723116,-0.0,0.0,0.0,0.0,-0.0,-0.79227924,0.92314243,0.0,-0.0,1.2433236,1.2994238,-0.0,0.0,0.60203135,0.0,-0.0,0.90448904,-1.8023962,-0.0,-0.0,-1.7148956,-1.4011823,-2.2541633,0.0,0.6502718,0.0,0.0,-0.0,-0.7380066,0.6078868,-1.4745388
0.0,0.9163691,1.2932574,0.0,-0.0,-0.0,0.0,-2.1158168,0.0,1.6187567,-0.0,-1.7733334,0.0,0.0,0.0,0.0,1.6525424,-1.0426998,1.1807089,-0.0,0.0,-1.0851487,-1.6637478,-1.0226011,0.0,-0.0,-1.6336235,-0.0,-0.0,-1.511053,-1.2993742,3.0991392
-0.0,0.501234,-0.5735546,1.1713741,0.0,0.0,1.2956632,-0.0,-1.5779185,1.210291,-0.8605477,0.0,0.0,1.143652,1.0740026,-0.0,-0.8729215,-0.6182967,-0.0,0.0,0.0,0.0,-0.0,-0.0,-0.0,-1.1251243,0.0,-0.6700274,-1.3555961,0.0,0.0,-1.0480518
1.0967412,0.0,-1.7462173,-0.5348607,-0.0,1.7035156,0.0,0.82251394,0.7364441,1.8808223,0.0,-0.0,-0.8961957,-0.0,0.622243,-0.0,-0.0,-0.0,-0.0,0.0,-1.5358846,-0.70725644,0.0,0.9185815,0.0,0.0,1.3533869,-0.0,0.0,0.9477985,-0.0,-3.4165442
1.2507898,0.0,0.0,-0.0,-2.251715,-0.0,0.0,-0.0,-1.3097404,0.0,-0.0,-0.94553006,-2.1293921,-1.3947433,-0.0,0.0,-0.0,-0.0,1.185482,-0.0,-1.1330898,0.93514544,-2.0200443,0.0,0.0,-1.2153312,-1.0461601,-1.3222793,-0.0,-1.1076958,-1.1281451,-0.0
0.0,-1.133398,-0.0,-0.0,-0.0,0.0,1.0437672,-1.3561547,0.0,0.0,-0.95696473,-0.0,-2.1775758,1.3093421,-1.1786029,-0.0,-0.0,1.6896591,-0.0,-1.3212473,-0.0,-0.0,-1.0974085,0.0,1.9268606,-1.1397572,-1.8672858,-0.0,-0.0,1.5831792,-0.0,-1.3389732
0.0,-0.0,-1.3307767,-0.0,-1.3415642,1.9879206,-0.0,-0.0,-1.0452379,0.0,-1.5904844,0.0,1.5108984,-0.79610044,0.0,-0.7836047,-1.1384169,-1.6702783,-0.0,0.0,-1.3610181,0.0,0.9510883,-0.0,-0.0,1.8240002,-0.0,-0.0,-1.3947879,0.0,-2.4328594,-0.0
1.0145538,0.0,-2.316919,-1.2434859,0.0,0.0,-0.0,1.5427418,2.1580498,-0.0,-1.1529098,-0.0,0.0,-1.4702464,-1.193537,-0.0,-0.0,0.0,-1.19615,-0.0,-0.0,-1.874329,-1.142696,-2.1343524,-0.0,1.0848477,-0.0,-0.0,0.0,-1.5692762,-1.0389532,0.0
1.0865624,0.0,-1.6635576,-0.0,1.188483,-0.0,-0.5915142,0.88577086,-0.0,-0.5912795,-0.0,0.0,-0.0,0.0,-0.0,-0.0,0.7798226,-0.0,-0.6920253,-0.0,-0.0,0.96548206,-0.5196148,-0.0,-1.2211736,1.2830232,-1.0133501,-1.1160402,0.0,-0.49577698,0.0,-0.0
-1.6304442,-0.0,-0.0,0.0,0.0,-1.4624074,-0.87064856,0.0,-0.82225263,-1.4664582,0.0,-0.0,1.4784344,-0.7930637,0.74942017,0.0,1.6396558,0.0,0.0,-1.3070197,-0.0,0.0,-0.0,0.9979375,0.0,-0.9201519,-1.1172769,0.80653626,-0.0,-0.7659037,-0.0,0.0
-0.0,-0.70298725,1.813099,2.741473,-0.0,-0.0,0.6036501,1.3152405,0.0,-0.6992208,0.0,0.0,0.0,-2.450049,-1.8770211,-1.1009336,-0.0,-0.0,-0.0,-0.0,-0.6071737,0.0,1.0222726,1.0317111,-0.0,0.0,-0.0,1.1922812,0.0,1.116272,-0.0,1.2227575
1.5069895,-1.4785794,-0.0,-1.5203481,1.002821,1.186361,2.0649915,-0.0,2.2481086,-0.0,-0.0,-0.0,-0.0,-0.8106751,-0.0,0.0,0.0,1.2800181,0.0,0.0,1.1953952,0.0,-1.9251412,0.0,0.0,1.3006841,-2.394057,-0.0,1.2198684,0.0,1.7316091,0.0
0.0,0.0,-1.4531183,-0.82388353,-1.3992002,-1.1637028,-0.0,0.82301486,0.0,-1.1157717,1.6019222,-0.0,1.0234995,-0.5911625,-0.0,-0.0,0.0,0.0,0.0,-0.0,0.9544022,-0.66702205,-0.0,0.0,0.0,-0.0,-1.166971,-0.0,1.3445351,-0.0,-0.8185115,-2.1314907
-0.0,-0.0,1.7130865,0.89392793,-0.0,-1.8180705,0.0,-0.82330155,0.91399086,1.6023077,1.2496259,0.0,-0.0,-0.0,-1.5166667,-1.5916151,0.0,1.748579,0.0,-0.0,-1.901361,0.0,0.0,0.0,0.0,-0.0,1.7474629,1.1905566,-0.9018853,-0.0,0.94085866,0.0
-0.75485843,2.11566,-0.6308142,-1.1413819,-0.0,-0.0,0.0,1.1947675,0.97699416,0.59084123,-0.0,-0.986907,-0.0,-0.8576026,-0.0,0.7588848,-0.7172394,0.0,0.0,-0.0,-0.0,0.0,-1.2289122,0.0,-0.0,-0.0,1.7139356,-1.3606511,0.0,-0.97844535,-0.0,0.0
1.0809389,0.0,1.5292944,0.0,-2.0026958,0.0,0.9647031,-0.0,0.0,0.0,-1.2156084,0.0,-0.0,-0.9392824,-1.2874548,0.9949443,0.0,-2.1717699,-0.0,0.8080268,1.1925559,-0.0,-0.7063394,0.0,2.9556317,-1.2442948,-1.2049536,0.0,-0.0,0.0,-0.0,-0.0
0.0,-2.155376,-2.0136333,0.85497713,-1.687785,0.0,0.0,0.0,-1.331618,0.0,-1.9415973,0.0,0.814807,1.8748175,0.0,0.0,-0.8013917,-0.0,-0.6908094,-0.0,0.64946586,0.0,0.90152735,2.1671581,1.7880622,0.0,-0.0,-0.0,-0.0,-1.222178,-0.0,-0.0
0.0,-0.0,-2.2076168,-1.6104659,-0.0,-0.0,1.3314422,0.7144389,-0.0,-0.7330238,-1.6702695,0.0,0.0,0.0,0.0,-0.61705726,-1.382879,0.0,-0.0,-0.0,1.2561289,-0.0,-1.9061494,-1.9679973,-1.3042731,-0.0,2.0472767,0.6647607,0.0,0.0,1.0433036,0.0
-1.172529,-0.0,-0.0,2.3638778,-1.2264419,0.0,0.0,-0.0,-0.0,1.4424801,-0.0,0.0,0.9428569,-0.0,-0.0,1.6198096,0.0,-0.0,0.7412885,-1.817602,0.0,1.1402751,0.81721646,0.83049256,0.0,-0.0,-1.1042465,1.4250599,-0.8309582,0.0,-0.99366564,0.0
0.877654,1.1628684,0.9706599,-0.0,0.0,0.0,0.0,1.4021088,0.0,0.0,0.0,-0.89700806,-0.0,-1.3766246,0.8674944,-0.0,0.0,-0.0,-0.0,1.4439917,-0.0,-1.8966545,-1.0781544,-0.0,-0.0,-0.0,1.0356336,-0.0,1.809476,-1.2481968,-1.1177783,-1.4379255
-1.4748458,-0.0,0.0,-1.771541,0.0,-1.5795823,-0.0,-0.0,1.2925216,0.0,-0.0,-0.0,-0.0,0.0,1.1778684,1.4342158,1.0281566,-2.0740454,0.0,-0.97157264,0.0,-1.5783103,1.8577937,-0.7725379,0.8886963,-1.1395401,-1.941547,0.0,-0.0,0.0,0.0,-0.0
1.214582,0.0,-0.0,-0.6914448,-1.3711612,-1.296529,-0.0,-0.0,0.6254721,-1.6827604,0.0,1.3686517,-0.0,0.7645501,-0.0,-0.0,0.0,-0.0,-0.0,1.4943163,-0.850579,-1.1169453,1.0898678,0.6151455,1.7133808,-2.0985687,-0.0,0.0,-0.0,-0.0,-0.0,0.0
0.0,0.0,1.4157006,0.9570196,1.4286698,-0.0,0.0,0.0,0.0,-1.4754478,-0.0,0.0,-1.0795734,0.81348985,0.0,-0.0,-0.0,-0.0,1.4283501,-0.0,-0.93488896,1.5883173,1.7169683,0.85159796,1.036734,0.0,-0.0,0.0,-0.0,-1.1366056,-0.9011962,1.5669435
-0.8034077,-0.0,-0.0,-0.82120997,0.0,-0.0,0.0,0.74739546,-0.0,0.0,1.2224145,0.0,-1.0909314,-1.5257304,-0.0,-0.0,-0.61221904,-1.237108,1.0931118,0.0,0.7919897,-1.1345984,0.7459792,-0.0,2.2632358,0.0,-0.0,-0.8704486,-0.0,-0.6818732,0.0,0.0
1.2783222,1.4930358,-1.7215109,0.6984481,-0.0,0.0,0.0,1.630563,-1.4447931,-0.0,-0.0,0.0,1.635486,-1.3203348,-1.0182899,-1.1527112,-0.0,0.8641635,-0.0,-1.3461984,0.0,-1.2560992,-0.0,-0.0,0.0,0.0,-0.0,-0.0,-2.1584923,-0.0,-0.93549293,-0.0
-1.3825744,0.0,-1.4383631,1.1466765,0.0,0.0,-1.3881742,0.0,0.0,-1.5686492,-0.0,1.0069368,-0.0,1.9688348,-0.0,1.37121,-0.0,0.0,0.0,0.0,1.4942967,1.3092761,1.2831548,-0.0,-1.151522,0.0,-1.0880767,1.5370773,0.0,-0.0,-1.5732148,0.0
0.0,0.60142696,1.4494456,-0.0,0.6869618,0.0,-2.221061,1.9849731,0.0,1.5913222,1.4541048,0.85821754,0.0,0.0,0.6222135,0.0,-0.0,-0.0,-0.0,0.78751165,-0.7584523,-0.0,0.0,-0.0,-0.9306704,0.0,-0.0,0.8528931,-0.0,-0.0,-1.2942632,1.2963592
-0.0,-1.1218022,-1.1607908,-0.0,0.9959132,-0.0,-0.0,-0.0,-0.0,-3.0035908,0.9787076,0.0,0.0,-1.1053524,-0.0,-1.2596354,1.5628686,0.0,0.0,-0.0,0.0,-0.0,-0.0,-2.112753,1.4722221,1.0353372,-0.0,-0.0,0.9649409,1.8409083,1.1623901,-1.2592766
-2.1395512,2.016154,-1.2445593,-0.0,-1.1685932,0.0,-0.0,-1.3905267,0.0,-1.2794529,1.5566056,-0.0,-0.0,0.0,1.8645205,0.0,0.0,-0.0,0.0,0.0,-1.2161174,-0.0,-0.0,1.2818832,0.0,0.0,-1.8948919,-0.0,-1.02253,-0.9934916,-0.9080633,1.1861212
0.0,-1.0542637,0.0,0.0,-1.6743618,0.0,0.69287264,0.0,1.0758045,-0.0,-0.0,1.2391385,-0.0,-1.1320469,-0.8372838,-0.0,-0.70650256,0.86844355,1.9791361,0.0,1.4048146,0.0,-1.2597224,-0.0,0.0,0.0,-0.0,0.70694137,-0.0,-0.81817573,-0.0,1.5654178
-0.0,-0.50592977,-0.0,1.2538204,0.0,-0.0,-0.75528324,-0.0,0.81960243,-1.6740516,0.9540339,-0.0,1.8746223,0.6817379,-0.0,-0.0,0.0,0.0,-0.0,-0.8666182,-0.79887044,-1.1619915,0.0,1.3996173,0.0,-0.0,1.1959012,-0.0,0.665801,-1.6834536,0.0,0.0
-0.81562555,1.451434,-2.0728095,0.0,2.3392947,-0.0,0.81934166,-1.1165172,-0.9823325,-0.0,-0.9431774,-2.1051552,0.0,0.0,0.0,-1.0227704,0.0,-1.2259854,-0.0,-0.0,0.0,1.0479126,-1.3210882,-0.0,-0.0,0.0,0.0,-0.0,0.0,2.3851182,1.6250243,-0.0
-0.9681851,-0.0,0.0,0.0,-0.0,0.0,0.7478136,-1.5863355,0.0,-0.0,0.0,-0.0,-0.93742275,-0.0,-1.2142285,0.0,0.86027807,1.5507716,0.0,-0.6735728,0.6506434,-0.0,-1.0874408,-0.5210172,0.8045926,-0.0,-2.2228456,-0.0,-0.0,-0.0,-1.1979626,-1.2469878
0.0,-0.0,0.0,2.3184352,-0.85756475,1.0931727,-0.67058635,-0.0,0.66977626,-0.0,-3.0116305,2.0958462,0.0,0.0,0.0,0.0,-1.6146038,0.0,-0.0,1.6773016,0.0,-0.0,0.69070566,0.0,0.74511456,-1.0011492,1.4705855,-0.0,-0.0,0.0,0.8485535,-0.9752388
0.0,-0.0,-1.30738,1.2555685,-0.0,-0.0,-1.0472215,1.8117707,1.2823983,0.0,1.4562092,-1.1203908,0.0,1.1582055,-0.0,0.0,0.0,-0.7147916,-1.4375323,0.8122998,0.0,0.0,1.1152717,-1.6093107,-0.0,-0.0,0.0,-0.0,0.0,-0.7794754,-0.0,-1.4431607
0.88689107,-0.0,-0.0,0.0,0.68084234,0.0,-0.0,2.043512,1.0579773,0.0,-0.0,-1.3407931,0.0,-0.0,-0.89445496,-0.0,-0.0,-0.0,-0.0,-0.5623664,0.0,0.0,0.0,-1.3350519,1.8989667,1.4863648,-1.0551631,1.0039386,0.0,1.0816476,0.9415861,-1.2240952
0.9381082,0.0,-1.3861603,-0.0,0.0,1.1901041,-0.64314866,-0.0,0.0,-0.0,0.79703623,1.7732333,-0.0,-0.9851767,1.2901417,1.3510866,0.0,-0.0,-0.7271965,0.0,2.059743,-1.3866752,0.0,-0.0,-0.0,0.0,0.0,-0.0,2.058944,-1.1333147,-1.2458832,0.0
0.0,-0.0,1.2699423,0.94012207,0.0,0.8989097,0.0,-1.1634805,1.1850004,-0.0,-0.0,-1.1303382,-0.0,1.4942198,-0.0,-0.91734064,-0.0,-0.8207805,-0.0,-0.87055945,-0.9052183,0.0,0.0,-0.0,0.0,-1.4057498,1.4724892,0.0,0.0,1.622837,0.0,-1.482295
0.0,2.70744,0.0,-0.0,1.1758181,-0.0,0.0,-0.87167054,-1.7328126,-0.0,-0.0,0.6967974,-0.7848505,-0.0,0.0,-0.69744927,0.0,-0.0,0.70816255,-0.7135487,0.0,-2.1549108,-0.0,-2.041276,0.0,-0.69937354,-0.0,1.5674233,-0.7237431,0.0,-0.0,-1.0693281
1.3314557,0.8756223,0.0,0.0,-0.0,0.7205937,-0.6610826,-1.2885628,-1.7053529,-0.0,0.0,-0.764949,-0.0,1.17787,0.0,-0.0,0.0,0.0,1.6808227,-1.6992208,0.0,0.0,0.0,-0.0,2.3878734,1.1263044,-0.8374168,-0.0,-0.9328533,-0.0,-0.0,-1.6663893
-1.1910653,-1.1439387,1.0180485,0.0,0.0,1.1633785,-1.1693835,-1.4269733,-0.0,-0.0,-1.4527001,0.0,0.0,1.0996745,1.2635219,-2.362143,-0.0,-0.9815512,-0.0,0.0,0.9177788,-0.0,1.8185054,0.0,-0.8674633,-1.0614043,0.0,-0.0,0.0,0.0,0.0,-0.0
1.1441545,0.0,0.0,0.0,2.0030055,-1.4006155,0.0,1.3028774,-0.0,0.0,-0.0,0.0,0.0,2.0013766,-0.0,0.0,1.2257475,-1.4331437,-0.0,0.0,1.4555719,0.0,2.0342832,1.0680287,0.0,0.0,1.3382579,-0.0,1.0926597,1.1136628,-1.5777493,1.1093853
-1.6996925,1.0982615,0.0,-0.0,0.6525959,-0.0,-0.0,-0.0,-0.82162017,-1.5154096,0.75663465,-0.75426036,1.3154455,-0.0,0.0,0.0,0.0,0.0,0.0,-0.0,0.0,0.7649863,-0.7052283,0.0,1.0150747,-0.0,-0.75208604,-0.0,-0.87859243,1.5880848,0.8782922,0.0
-0.0,-0.0,-0.0,1.1474495,-1.091279,-2.1165354,-1.6030369,0.90500003,0.85957164,1.5366445,0.0,-0.84223837,-0.0,0.0,0.85064167,-0.0,1.0693333,-0.9433923,0.0,-0.0,0.0,-0.0,-0.0,0.82256883,0.0,-0.0,0.0,-0.0,1.1692765,-0.0,1.4480344,2.4523294
-0.0,-0.80828243,0.0,0.0,-1.7777805,-0.0,0.0,-0.8788848,-0.0,-1.0533541,-0.0,-1.5317992,-1.5137973,-1.9280057,0.0,0.0,-1.3631555,0.0,-1.4373689,1.6390876,-0.0,0.0,0.9158543,-0.0,-0.9317925,1.232113,-0.97950107,0.0,-0.0,-0.0,1.199821,0.0
0.0,0.6870226,0.0,-0.6620136,-2.5530078,0.0,0.0,-0.0,0.0,1.7894351,-0.0,-0.9296617,0.0,-1.5240221,-0.0,-0.0,0.73383105,1.0110009,-0.0,1.1219554,-0.0,-0.75281274,0.0,-0.0,0.89587444,2.6780546,1.6414484,0.78539044,-0.0,0.0,-0.0,-0.54235685
-0.82543224,-0.0,0.0,-1.5608721,1.1921349,1.3406497,-1.3925374,-0.0,1.9648588,0.0,-2.116324,-0.90076536,0.0,-0.0,-0.0,0.0,0.0,0.85319585,-2.0553544,-2.221667,0.0,0.0,0.96071154,0.0,0.0,-0.0,-1.2083006,-0.0,0.0,1.0604678,-0.0,1.13005
0.0,-0.0,-0.0,1.0455139,2.2960842,0.86608917,1.1778264,-0.0,-1.3414991,0.0,-1.1416438,-0.0,0.94318974,-0.0,1.8317875,1.4559071,0.0,1.5376023,0.0,0.0,0.9436161,0.0,-0.0,0.0,-1.7136214,1.7324078,-0.0,1.1033508,-0.0,-0.0,-1.536229,0.0
1.5843682,0.0,0.0,-0.0,-0.0,-0.0,-1.6927823,-0.98880106,-0.0,1.0001291,1.6258146,1.1511781,0.0,1.0080242,1.9498191,-1.1224387,-0.0,2.0976412,-1.4936172,-2.014982,-0.0,-0.0,0.0,-2.0496445,-0.0,-0.0,1.7445197,1.1710299,-0.0,-0.0,0.0,0.0
-1.1335993,1.2382941,-0.0,0.0,-0.0,-0.0,0.0,-0.0,-0.74588054,-0.79669446,-1.8133184,-0.9058806,0.0,0.0,-0.0,1.0441579,-0.7031435,0.0,-1.0671624,-0.0,0.0,-0.0,1.5781268,-2.5550025,1.1585788,-0.0,-0.0,-0.0,0.8178162,0.87120086,0.6722896,-0.0
0.0,0.0,-1.8314117,-1.3736507,0.0,-0.8914079,1.0599355,0.82932866,-0.0,-0.0,-0.0,-0.9766704,0.78372097,0.0,0.0,1.7854708,0.0,-0.0,-0.0,1.099255,-0.7835815,-1.2962506,-0.0,0.92581815,-1.007734,-0.79515713,0.0,-0.0,0.0,0.0,1.0245667,0.0
-0.9565223,-1.8525097,0.0,0.9631147,-0.0,-0.0,0.0,-1.0717793,-1.8570536,-0.0,-0.0,1.429271,0.68154263,-1.1416413,-0.0,1.3656554,-0.91943705,-0.0,-0.9720353,-0.0,-0.0,-0.0,0.0,1.3573868,0.8895881,-0.0,-0.0,-0.0,-0.0,-0.0,1.5382516,-1.8237303
-1.5284625,-0.0,-1.8727793,-0.0,0.0,1.095743,0.0,-1.1910485,-1.9181389,1.7542533,1.6706394,-1.23218,-0.0,-0.0,-1.4074336,2.1700957,-2.2024817,0.0,1.0573301,-2.1891317,-0.0,0.0,0.0,-0.0,-0.0,-0.0,-0.0,0.0,-0.0,1.0419631,0.0,1.2257149
-0.7220582,0.39062425,0.0,-0.0,-0.0,-0.0,0.0,-0.78671217,1.5916274,-1.3538735,-0.0,0.0,-1.2574124,-0.0,0.0,-0.0,2.736526,-0.0,-0.91655576,-1.250174,-0.8792342,-0.0,0.68740064,0.0,0.9607507,-0.0,-0.0,0.5364845,1.2771844,-0.0,-0.0,1.0203091
0.0,-0.0,-0.0,-0.0,0.0,-0.0,0.6640885,-0.0,-1.1707846,-1.531107,-0.0,1.1585255,0.7005654,-0.0,0.9446566,-1.0947214,1.0127056,0.0,-0.0,-0.759849,-0.0,0.8521614,0.0,2.588864,-1.0589049,-1.0791494,0.68763244,-0.0,0.0,-1.4850912,0.0,-0.0
1.281314,-1.2837946,0.0,-0.0,1.6740295,0.0,-0.0,-0.0,-0.0,0.9466699,-0.0,1.1476237,-1.6383853,-1.4021754,1.3680856,1.1166961,-0.0,-1.384732,0.99929965,-0.0,-0.0,-0.0,0.0,-0.0,0.0,1.1171682,0.0,1.4896263,-0.0,1.2859654,1.9164215,0.0
1.9533708,0.78268486,0.0,1.8145653,-1.08223,1.1141489,-1.9710735,0.0,-0.8909406,0.0,-0.0,-0.0,0.0,-0.0,0.0,-0.0,-0.94663596,-0.0,1.2866744,-0.0,-0.9736895,0.0,1.8572664,0.0,2.1108832,1.4566176,-0.99333704,0.0,-0.0,0.0,0.0,1.243691
0.5983273,0.953527,-1.6030638,1.9491642,0.0,0.0,-0.0,0.66944665,-0.9161321,-0.0,-0.0,0.0,0.0,-0.0,0.0,-0.5540041,-1.6003593,-0.0,0.0,0.0,0.0,-0.0,-0.0,0.0,-1.9653606,-0.6704864,1.3681204,-0.0,0.59881645,-1.2185203,0.9531117,-0.98636854
-1.215525,-1.8143479,-0.0,2.1777997,-0.0,0.0,-0.0,-2.4389908,0.0,-0.0,-0.0,-0.0,2.09665,1.0839182,-1.903733,2.4658551,0.0,-1.4196973,-0.0,-2.2532103,-0.0,-1.5686061,1.0484369,-0.0,-1.1116964,-0.0,-0.0,-0.0,1.0665555,-1.1397818,0.0,0.0
1.1338814,-0.0,0.0,0.0,-0.0,1.7764512,-1.0369292,-2.2249994,-1.2208358,1.5424953,-0.0,1.6740898,1.2548765,-0.0,0.0,1.1994637,-2.1622705,-1.7037451,-1.0246723,2.7340336,0.0,1.4937714,0.0,-0.0,-0.0,0.0,0.0,0.0,0.0,0.89966804,0.0,-0.0
-1.0631561,1.7614585,-0.8744055,-0.8942832,-0.0,0.0,-1.2115747,0.0,1.6826173,1.7029192,-1.8723763,-0.0,-0.0,-0.0,0.0,-0.0,1.4870515,0.0,-1.0362571,-0.0,-0.0,1.1943393,-0.0,0.0,1.1095241,-0.0,-0.0,-0.82249427,-0.9854642,-0.0,0.9490421,-0.0
-0.0,-1.0538344,0.0,-0.9999207,-1.228945,-0.0,0.0,1.1149107,-1.7404412,-0.0,-0.0,0.87089366,-1.0596597,-1.0645827,0.0,1.2616636,1.0734359,0.0,-0.0,0.0,-1.3363551,1.0306036,0.0,-0.0,1.8312608,-0.0,-0.0,-0.0,-0.9123846,0.0,0.0,1.0357112
0.0,0.0,-0.7743718,-0.0,2.055234,-0.0,-1.2635102,-0.0,1.0617689,-0.89940965,0.0,0.0,0.0,-0.0,2.1430395,-0.0,0.0,0.0,-0.0,1.4043412,-2.0335407,0.705946,-0.6818223,-1.9621396,-0.0,1.6602484,-0.0,0.715641,-0.0,0.0,0.93913245,1.3652284
-1.2248273,1.0892537,-1.010684,0.0,-0.0,-0.9241631,-0.94218725,-0.0,0.9696783,0.0,-0.0,0.0,0.0,-0.0,-1.1873759,0.0,-0.0,-0.73061955,-0.0,-1.5576203,-0.0,0.73257023,1.1412556,0.76187044,-0.8442501,-0.0,0.0,-0.0,0.0,-0.7135551,-0.0,0.64871746
0.0,-1.3849441,0.79713976,0.0,-0.0,-0.0,-2.0745623,2.5946324,-0.0,-0.7458862,1.8517485,0.0,-0.0,-1.0881187,0.9780285,-1.2644867,-0.0,-1.9582143,-0.0,-0.0,-0.0,-0.0,-0.0,-1.3836412,0.0,1.2442887,-0.0,0.85557854,-0.8185985,0.0,-1.1812791,0.0
-1.6883467,0.7702729,0.0,1.0536791,0.0,0.0,-0.0,-0.93638253,0.7160216,0.0,1.0769885,-0.0,-0.0,-0.0,1.1080638,2.5469253,1.3426408,0.0,1.4764907,0.0,0.0,-0.0,0.0,-0.0,-0.6585249,0.0,-1.5660717,-0.0,0.0,1.6993874,0.637924,0.7270104
-0.0,0.0,-1.0559391,-0.0,2.7876647,-0.0,-1.1726344,1.1224358,0.8498243,-1.9576395,-0.0,-0.0,0.0,-0.0,1.0023127,-1.0852593,-0.0,-0.0,1.5872489,-1.8591981,-1.3414775,0.0,0.0,-0.0,-0.0,0.9684126,-0.0,2.3941205,0.0,-0.0,-0.8301248,1.245495
1.399953,-1.6042633,-0.0,-0.0,-0.0,-0.0,0.0,0.0,-1.0658067,1.2510293,-0.0,-2.1589952,0.0,3.036847,-0.0,-1.6754014,-0.0,-2.1162105,0.0,-0.8565524,-0.0,1.5520674,0.0,1.663381,-2.2211185,0.0,0.0,-1.4013374,-0.0,-1.8548104,3.7129982,0.0
-0.0,-1.0441467,0.0,-0.0,1.2012358,-0.0,-1.6489806,-0.0,1.56503,-1.4276731,-0.0,-0.92856455,-1.7773811,1.0428994,1.4636464,-0.0,-0.0,1.7745044,-0.0,0.0,0.0,1.2370708,-1.6094234,-0.0,1.0620613,2.3481524,-0.0,-0.0,0.0,-0.0,-0.0,-1.6325859
-0.0,0.7034866,-0.0,-0.0,1.1851743,0.9851869,-0.0,0.0,0.0,-0.618148,-2.4147046,0.0,-0.0,-0.9624561,2.5534256,0.0,-1.3435726,-0.0,0.0,0.0,-0.0,1.500782,-0.0,-1.3450803,-0.0,-2.1732752,-1.7461027,-0.0,0.5443891,2.8758209,-0.0,0.773002
1.7075601,-1.8395875,-0.0,0.0,-1.9438583,0.0,-0.0,0.0,-0.0,-1.5167918,2.3085647,0.0,0.0,1.0436966,0.9760377,-1.0246294,1.3080602,-0.99475735,1.3531717,0.0,0.0,0.0,-0.0,2.0524256,-0.0,-1.5494064,-0.0,-0.0,-1.4916035,-1.3579564,0.0,-0.0
-0.0,-0.0,-0.0,0.0,0.0,0.0,0.0,-0.6629569,-0.0,-0.6427548,-0.7570447,-0.8703645,-0.0,-1.4726253,1.0039121,0.96561396,1.4310042,0.0,-0.0,-0.0,2.1006262,0.9798615,-1.4353274,0.0,-0.0,2.1556156,-0.0,-0.0,1.3660837,0.0,0.6854737,-1.0723783
-2.3938146,-0.0,0.0,2.082272,-0.0,0.0,-0.0,-1.6164116,0.0,-2.1230843,1.1806251,1.0613531,1.0585843,0.0,-0.0,-2.4338226,-0.0,0.0,1.6082032,0.0,-0.0,1.2625598,1.0354508,1.3503288,-0.0,0.0,-0.0,1.8693402,-0.8361254,-0.0,1.1890824,-0.0
0.62161714,-0.0,0.9166529,0.0,0.0,1.1438134,-0.7515404,0.0,0.0,-0.7208444,0.7290173,1.2759246,0.78282773,0.0,-0.0,-0.0,-0.0,0.0,0.0,1.3808154,-0.654633,0.0,-0.0,0.0,-1.9756331,0.0,0.7309277,1.0471183,-1.5082636,-0.0,-0.0,-1.7300254
-1.9137135,0.0,-2.2816837,-0.87776375,0.0,0.87696147,-0.0,-0.0,-1.1830658,0.0,-0.0,0.0,0.0,-1.06701,-0.97946876,0.0,1.4326108,-0.0,2.1416068,0.0,0.0,1.0823666,-0.0,0.0,-0.9212477,-0.0,0.0,1.2415961,0.9138751,0.0,-1.4730176,0.76184267
0.97606206,-0.0,0.0,0.0,0.0,0.0,-0.8004008,0.0,0.0,-0.0,-1.4520344,-0.0,0.0,1.4584458,-1.4255251,-0.0,-1.5020702,-3.1207383,2.3272498,-0.0,0.0,1.4826074,-1.5224321,0.0,0.78763026,-1.01089,1.245811,0.0,1.6428138,0.0,1.3698558,-0.0
0.0,1.8787602,-0.0,-0.0,0.0,0.0,0.0,0.0,1.1506726,-0.0,-0.0,1.1006782,1.3691217,-0.0,0.0,0.9617357,2.000978,0.0,0.0,-1.2177422,1.1713022,-0.0,0.0,0.9410967,1.4256196,-1.3802086,-0.0,-1.6252236,-0.0,-1.3397387,2.340391,0.978833
1.3715217,1.3993123,-1.2475339,1.3207257,0.0,-0.0,-1.9763027,-0.0,-0.0,1.0735388,1.235999,-0.0,1.7679585,-0.0,-0.0,0.0,2.064856,-0.0,-0.0,-0.0,0.0,-1.1193744,0.0,0.0,0.0,-2.165248,-1.0014218,1.0132331,0.0,-0.80188525,0.0,0.9207532
1.5407745,-1.1761615,0.0,-1.4466329,-0.0,-1.0310419,-0.99100584,0.7587979,0.9650915,-0.0,0.0,-0.0,-0.0,0.9903438,-0.0,1.0989846,-0.0,-0.0,-1.0984558,-1.6382567,0.0,1.3755344,-1.7202045,-0.0,0.0,0.0,-0.0,1.3498156,-0.0,-0.0,-0.0,0.8953975
0.0,-0.0,-1.692947,0.0,-1.371258,0.0,-0.0,0.0,0.0,0.0,0.0,-0.0,0.0,-0.8737087,0.88800234,0.8861194,-1.0040239,2.1924388,-0.0,-0.9118125,0.0,0.96105397,-0.85717213,0.0,1.1112297,0.84117866,0.0,0.7634213,-1.1977583,1.1286137,0.0,0.0
1.6749833,-0.0,0.0,-2.0716774,-0.0,0.0,-0.0,-0.0,-1.0598482,-1.1661533,-0.0,2.71353,-0.0,1.8566215,0.0,1.1726807,-1.6997032,1.8221377,1.548288,3.1986017,-0.0,-0.0,0.0,0.0,-0.0,-2.7088244,-0.0,-1.7654546,-1.5271078,-0.0,-0.0,-1.6781234
-0.0,0.96654636,-2.0676775,0.0,0.0,0.7103299,0.92049783,1.1544068,-0.0,-1.4446267,0.0,0.0,-0.0,0.0,-0.0,1.472914,0.0,0.8388742,-1.1484066,-0.0,-0.0,-0.7541878,0.0,-0.0,1.349538,-0.0,-0.0,0.0,-0.78355795,1.7620462,-1.897877,-3.224985
-0.0,0.6270399,0.0,0.64230394,0.0,0.0,-1.0317838,1.0057,-1.0016187,0.0,0.79081976,-0.0,-1.133576,-0.634379,0.0,-1.3719068,0.0,-1.2042484,0.0,0.0,0.0,0.0,1.590659,0.0,0.0,-1.2709348,-1.1570493,1.3636475,0.0,1.1472523,-0.0,-0.0
1.4571595,-0.0,-0.0,1.913558,-0.0,0.0,-0.999838,0.0,0.0,-1.0158757,0.0,-0.0,-1.2768345,0.0,-0.0,-1.1034145,0.0,1.1618489,-2.285872,1.959714,0.0,-0.0,1.4739348,-0.0,-0.0,0.0,1.1811886,1.6906073,1.2420057,0.0,1.0377934,-1.8195347
0.0,-0.0,0.0,0.0,-0.86242276,0.70672387,-1.5777396,1.9228688,-1.4108112,-1.1948609,-0.0,0.0,-0.0,-0.0,0.90924525,0.0,0.9210107,-0.0,0.0,1.0110991,-2.9695368,-0.0,-0.7634934,0.0,0.0,-1.1407615,0.0,0.84225136,1.6293414,1.0102148,0.0,-0.0
0.0,-0.0,0.0,0.0,1.4579943,-0.0,-2.1335888,0.0,-0.0,-0.0,-0.0,-1.2480055,-1.383474,2.4322448,0.0,-0.8520298,0.7888121,0.0,0.98122144,-1.8725065,0.0,-1.7549739,-0.0,3.5132213,-0.7705759,0.0,-0.0,1.4542027,-1.4545898,-0.0,-1.4306192,0.0
0.0,-0.8915691,-1.1175262,0.0,0.0,1.2235551,0.0,0.0,1.0979847,1.8921293,-0.8043558,-0.0,-0.74271506,0.7540531,0.0,-1.9615095,-1.7937859,0.0,0.0,-0.0,0.89359885,-1.4623358,0.0,0.89506274,-0.0,-0.7565393,-1.4650996,0.0,0.0,0.0,0.0,-0.0
-1.1182047,0.0,-0.0,0.0,0.0,1.4258028,0.0,1.7879719,-1.9792275,-0.0,0.94175255,0.0,0.0,0.9837678,-0.9202352,0.0,-0.0,1.600103,-1.7272462,0.0,0.0,-0.0,0.9098356,-0.0,0.0,-0.0,-1.8524734,-0.0,-0.93144464,1.4362671,-1.1828289,1.7071277
1.8693817,1.3479418,-0.0,-0.0,0.0,0.0,1.2846948,-1.7671834,-0.0,1.1121256,0.0,0.0,0.66242534,0.0,0.0,1.131706,-1.782575,1.4750831,-0.0,0.0,-2.06543,0.0,0.0,0.0,-1.2587911,1.6864932,0.0,-0.0,-1.5963508,2.6745398,0.0,-0.7007815
-0.0,0.0,-0.0,-0.0,1.0830798,0.96947956,-0.0,0.0,-0.0,-0.0,-2.1020377,-0.83795875,1.1195973,-1.0993483,-0.78670824,0.0,-0.0,0.0,-0.0,1.9077011,-0.0,-0.89104795,-0.72100043,-0.0,-1.1896864,1.3990505,0.7022669,0.0,0.0,0.7916114,0.0,1.3165414
-2.592574,0.0,-1.2751322,0.0,0.0,-1.063576,0.8301577,-0.0,-0.0,0.0,-0.85216135,-0.8895961,-1.4247199,-1.4740242,0.0,0.0,0.0,0.9714588,0.0,-0.0,2.3073227,0.0,2.0328772,-0.8277012,-0.0,-0.0,1.214268,-0.936003,0.0,0.9261058,0.0,-0.0
0.72530586,-0.0,1.0456717,0.0,-0.0,0.86071104,-0.9717432,-0.0,-0.0,-1.4097935,0.0,-1.7468641,-0.0,-0.0,-0.7750933,-0.0,-0.0,0.0,0.0,1.2434099,-1.214497,-1.5039525,0.0,0.0,0.0,-1.3362142,1.2180868,1.1247395,-0.0,0.8667445,0.0,-1.6185052
1.4752833,0.6706748,-0.0,0.0,-0.0,-0.8417457,-0.0,-1.2464193,-0.0,-1.9778799,0.0,-0.99745786,1.3115102,-0.0,-0.0,0.0,0.0,1.4680089,0.0,0.0,-1.6113056,0.0,-0.0,-2.3610868,2.032321,-1.1659936,-0.0,0.948196,-0.0,1.0066013,-0.0,-1.7534261
-0.0,-0.7777167,-1.6401922,0.0,-1.1679258,0.0,-0.0,-0.78622586,-1.4623463,0.7650042,0.94377714,-0.0,0.0,0.0,-0.0,-0.0,-0.0,-1.075594,-2.0203733,-0.0,1.0133004,0.0,0.0,-0.68588364,0.0,-0.0,2.7297525,-0.0,-0.7214531,1.0191222,-2.0002024,-0.0
2.0457215,-1.105183,0.0,-0.7081534,-1.1429834,0.0,0.0,0.0,0.9302643,0.0,-1.8832762,0.0,-0.7464096,-0.0,0.0,1.0533273,0.0,0.0,-0.0,-1.5369804,0.0,1.1235901,0.8828349,0.68516046,1.5546051,-0.0,-0.0,0.93153983,-0.0,0.0,0.0,-1.3724968
1.0827448,-0.8581928,1.070463,-0.61890393,0.0,-1.2406973,-1.7963564,0.0,0.0,-0.0,-0.0,1.6723464,1.2785271,-0.0,-0.0,-1.349301,0.0,0.0,0.67318213,0.0,-1.0217773,0.0,-0.0,-0.0,0.0,1.1572479,-0.0,-1.1238141,2.2363684,-0.93991804,-0.0,-0.0
0.0,-0.0,-1.4922019,0.0,-0.98309195,0.8522349,0.0,-0.0,1.5091041,-1.1556607,-0.9294933,0.0,-2.00873,-0.0,-0.97339505,0.858601,0.0,-1.0037833,1.8048735,0.0,-0.0,-0.0,0.0,-1.1801728,0.0,-0.0,-2.1722376,1.6930752,-0.0,-0.0,-0.0,-2.2354681
-0.0,1.3154972,-0.0,-0.768343,-1.1715614,0.6941801,-1.8893012,-0.0,-0.0,-0.0,1.0503771,-1.166072,-0.0,0.0,0.9326982,1.9290861,-1.736593,0.7301774,-0.66846406,-0.9775533,-0.0,-0.0,-0.0,0.0,-1.1350569,-0.0,-0.0,-0.0,-0.0,0.85597783,-0.0,-0.0
0.0,-3.3503532,-1.4193982,2.6579683,0.0,-1.8857284,0.0,-0.0,-0.0,1.5557709,-0.0,0.7207934,-0.0,-0.6281887,-1.0236373,-1.4140207,0.0,-0.64479077,0.8608283,0.0,-0.0,1.0855814,0.0,-0.0,2.590439,-1.0080684,0.0,0.0,0.0,0.0,-0.7346526,0.0
1.1012093,0.0,0.9360678,-1.1526495,0.0,-1.6409189,-0.7027535,-1.0078639,-0.8474642,0.0,-1.5776334,-0.0,-0.0,0.87206054,0.0,-0.0,-0.0,-2.326183,-1.294046,0.0,-0.0,-0.0,-0.0,-2.413045,0.8733041,1.072649,-0.0,1.985576,-0.0,-0.0,0.0,0.0
-0.5552899,0.8771531,0.0,0.79364955,0.0,-0.0,-1.1783924,2.425804,-0.0,0.0,0.0,0.0,0.0,-0.9307583,-1.2228765,0.0,0.6593952,1.4625742,1.1446906,0.0,-0.0,1.0369741,-0.0,-0.0,-0.0,-0.52926606,0.614142,-0.0,-0.0,0.0,2.0754313,0.99292934
-1.2275943,-0.0,-1.2690085,0.0,0.0,-0.83356434,-0.99575734,-0.0,0.0,0.0,0.0,-0.0,-0.7209276,0.0,0.7407319,-0.0,-1.1002675,0.0,0.0,-0.0,0.0,1.1397467,0.0,-1.3156514,0.9210043,-0.7387573,-1.2954937,0.0,0.0,-1.9426216,1.5609409,-1.782083
-1.1038988,0.0,0.0,-0.0,-0.0,1.3209344,1.9263704,1.5049267,-1.1115736,-0.0,-0.0,0.0,0.0,0.0,1.2435455,1.188795,0.0,-1.2692666,0.0,-1.0243182,-0.0,1.0751679,-1.3973371,1.2327021,0.0,-0.9310935,-0.0,0.0,1.1660093,-0.0,-0.0,1.1458604
-0.0,-0.0,-0.0,-0.0,1.7247442,1.4410163,1.0800486,-0.0,0.0,1.0663409,-1.5702467,1.2124156,-1.4382935,-0.0,0.0,-0.8477369,-0.0,-1.758133,0.8995449,-0.0,0.0,0.0,1.1980388,-1.3620992,0.0,-0.0,0.0,-0.0,1.0234089,-1.774793,1.2954587,-0.0
-2.5246255,1.6200598,2.8045497,0.0,1.7848643,-0.0,1.1783388,-1.2615063,0.0,1.2418581,0.0,1.7863072,0.0,-0.0,0.0,-0.0,1.1640505,-0.0,-1.0410621,0.0,0.0,0.0,0.0,-0.0,0.0,0.0,-1.4668642,-0.0,2.1596353,-1.2747197,-1.9639704,-0.84165096
-0.0,0.0,1.4738834,1.2383076,-0.0,1.4368548,-1.2102811,-0.0,1.4296128,-1.0850984,0.0,1.5808914,1.1532079,-1.8035241,-0.0,-1.0077065,-0.0,-0.0,0.0,0.0,-1.2032819,0.0,-0.0,0.0,-2.0510738,-3.1398385,-1.6060919,-0.0,-0.0,-1.0368936,0.0,0.0
0.0,0.0,-1.2173969,0.0,1.3356327,0.0,1.2467812,-1.9959359,-1.1249793,-1.924368,-0.0,1.2228736,-1.3527057,0.0,0.0,-0.0,-0.0,-0.0,1.18745,-0.0,0.0,-1.7143931,1.5022532,0.0,0.0,1.1901476,-1.1736145,-0.0,-1.4875605,0.0,-0.0,1.2665899
-0.0,-0.0,-0.0,-1.0718364,-0.88345003,0.0,0.0,-1.9903771,-1.8756335,-0.77273875,-0.0,0.0,0.0,0.0,-0.0,-0.0,-0.0,-1.4304222,-0.0,1.1244298,-1.3614169,-1.2261983,1.3007613,0.0,-0.0,0.0,0.7682319,1.2859209,1.5224054,-0.8651016,-1.0665596,-0.0
1.2891569,1.8403559,-0.79581004,-0.0,-0.76887774,0.0,0.0,-0.0,0.78797066,-1.1550975,-1.6955053,-1.875964,0.0,-2.038992,0.0,-0.0,-0.0,0.0,0.0,-0.0,-0.0,0.0,-0.0,0.9884354,-1.386742,1.436302,1.9889079,-0.0,1.7393719,0.7696937,0.0,-0.0
0.0,1.0391153,1.6085802,-0.0,-0.0,-0.0,0.0,-1.3370321,-0.0,0.0,-0.0,0.96366715,-0.0,-1.3630029,0.0,0.0,0.0,0.84588957,-0.8308753,2.008741,-2.1806743,0.83609194,-1.404503,1.6743073,1.3454555,0.0,-1.2481487,-1.9760185,0.0,-0.0,0.0,-0.0
-2.6403816,-1.4777428,-0.73177755,0.5896082,-0.0,0.0,0.0,-0.0,0.7628095,-0.0,-0.0,1.2642883,0.0,0.0,-0.0,-0.0,2.4333649,0.6419791,-0.0,2.5143278,1.6039853,-1.744373,-1.6336979,0.0,-0.0,0.0,-1.88652,-1.011244,0.0,1.3744259,0.0,-0.0
