0.0,-1.8606446,0.0,-0.97543883,0.71365935,-2.5327888,-1.2518619,1.0700035,0.0,3.0583158,-2.1693738,0.76953244,0.0,-0.0,-0.0,-0.0,0.0,0.0,-0.7036099,-0.6717596,0.0,-0.0,0.0,-1.5219227,1.3032951,0.0,-0.0,0.92927265,-0.9660311,1.6122837,-1.5977514,1.1655186,0.0,-0.0,-0.0,-0.73450357,-0.9198626,-1.1888463,-1.4602172,1.3567909,0.0,-0.0,-2.5232303,0.0,0.8498245,-0.71051246,0.0,0.77267194,-2.1752849,0.9312981,-0.0,1.1141123,-0.0,-0.0,-0.83699375,0.0,-0.6742265,1.2519898,-0.0,0.83912474,1.131003,-0.0,0.0,1.2037094,0.0,0.73855627,0.6657767,-0.0,0.0,-0.0,0.0,-0.0,-0.0,0.675294,-0.0,-0.8036648,0.78736,0.0,0.9030986,-0.0,-0.0,-1.2333382,-1.2095655,0.9624087,-0.0,0.0,-0.0,-0.0,0.9078798,-2.025306,-0.6761976,1.1125757,0.0,-0.0,-0.0,-0.76729345,0.0,-1.3949416,-1.336427,-0.7136272,-0.0,0.0,0.7679175,1.1766665,0.0,0.0,0.0,-0.0,1.6038496,0.0,0.0,2.1136324,0.0,1.2953817,1.8483658,0.9145282,0.0,0.0,0.886682,-0.0,0.74250394,-0.0,1.3088698,-0.9406935,-0.0,-2.2873814,1.1469288,-0.0,0.0,0.0,-0.0,0.0,1.1445724,0.0,-1.2727126,0.0,-0.74131215,-0.0,-0.0,1.6283706,-0.0,0.0,-1.1233373,0.0,1.0020585,0.0,1.0241913,-1.5452669,1.128238,0.0,0.7339268,-0.773696,-1.2007394,-1.4528021,-0.0,-1.5556085,1.6110572,-0.74841464,0.8273344,-0.0,0.0,1.4188516,1.0159727,0.0,0.72537,0.68017054,0.0,-0.0,-0.0,0.0,0.7402268,-0.0,-0.710107,0.0,-0.66967285,0.0,-0.0,-0.0,0.82850325,1.4909017,1.1620371,-0.0,0.0,0.0,-0.0,-1.3086206,0.0,0.0,1.2910073,0.84327245,2.0457952,-0.0,0.0,0.0,-0.0,0.0,-0.7938204,-1.2127478,1.3426237,-0.0,1.2688583,-1.3920937,0.0,-0.0,-0.88077605,0.0,-0.0,-0.0,0.8305771,-0.0,1.7964258,-1.0704341,0.0,-0.0,1.3012296,-0.0,1.2347674,1.0394346,1.1072828,0.0,1.780228,-0.77720535,-0.0,2.250645,0.0,-0.0,-0.0,0.0,0.0,-1.215768,2.2235785,-1.852271,-1.9951102,0.6843496,-0.0,-0.0,-0.0,0.0,0.84625345,-1.1907262,-0.73242766,-0.0,-0.0,0.0,1.7133228,-0.0,1.1691439,2.0559313,-0.7046443,-0.0,-0.0,1.0472794,0.85544616,0.0,0.0,0.0
-1.0193621,0.0,3.7232635,3.0771327,-0.9844067,-1.9046587,-0.0,-0.0,1.2890236,0.0,1.2542956,0.0,1.0236349,0.0,-0.0,0.0,0.0,1.5201373,0.0,-1.1364431,-0.9626514,1.0999541,-0.0,0.98465735,0.6629684,-0.0,-1.2247342,0.0,1.0436199,1.5965092,-2.1967316,-0.9422294,0.81402767,1.1236696,0.0,0.0,0.0,1.9220309,0.9382041,0.0,1.4455725,0.0,0.0,-2.584518,-0.0,2.2155378,1.9942555,-0.0,-0.0,0.0,0.0,0.0,-0.0,-0.0,1.9903195,0.8174014,-0.8203724,-0.0,1.6422107,-0.95347375,0.0,-0.0,-0.0,1.2089797,0.0,-1.6850451,0.0,-2.6246626,0.0,0.85479486,-0.0,-0.0,0.0,-0.0,2.1669886,-0.0,-0.67738783,-1.0590008,1.1067992,1.530483,0.6649747,-1.394329,-0.0,-1.1530739,0.8555392,-0.7445056,-0.6699719,-0.0,-0.0,-0.7192641,-0.0,-1.6675184,-0.0,-0.0,1.1730183,2.3464565,0.0,-1.1772927,0.0,-0.0,-1.0066669,0.0,1.335101,-0.7810166,0.88943326,0.0,0.0,-0.99924624,-0.0,-0.8394728,1.9460202,1.2887439,-0.0,0.0,-0.92164785,1.2964112,0.0,-1.8332381,0.7812675,0.0,-0.0,-1.3635218,0.83034897,-0.0,-1.4697691,-2.3786612,1.7453811,0.7782917,0.0,-1.3709093,-1.284189,0.0,-1.0832621,0.0,-2.7037141,-1.1451173,-0.0,0.0,0.0,-0.0,-0.0,-1.2179375,-0.0,-0.0,0.0,0.0,0.0,-1.5526398,-0.99307144,-0.0,0.0,0.9863448,0.0,0.0,-0.0,0.7331649,-0.0,1.3586265,-0.81052196,-0.65010506,0.99425733,0.94473374,-0.0,-0.8357118,-0.0,-0.93452835,0.0,0.0,-1.3517598,-2.0222778,-0.0,0.7434884,-0.0,-0.0,0.0,-0.0,-1.4807307,-0.0,0.67144126,0.0,0.0,-1.096964,0.0,-0.0,0.0,-0.0,-0.0,1.9876096,0.0,0.0,1.1706518,-0.0,2.3421419,-1.1038418,2.160944,1.1171894,-0.0,1.2038716,-1.0199689,1.7891054,2.4230647,-0.0,-0.0,-0.9482727,-0.0,0.0,0.0,0.7588149,-0.0,1.1243606,1.3198769,0.6512326,1.1341882,-0.8283963,-0.0,1.2574837,1.0002064,1.6406202,-1.4051749,-0.0,-0.0,1.1803539,-0.7670102,-0.79647446,-0.0,-0.0,0.8102924,0.0,-0.0,-0.0,0.93505204,0.0,0.0,1.516481,1.2543988,0.0,0.9821689,0.0,0.0,1.3506536,-1.9294249,-2.0823975,1.8348774,-0.0,-0.0,-0.0,-0.0,0.0,0.0,0.0,-0.0,-0.0,-0.0,-0.71235293,0.0,0.0
-1.0612688,-0.0,1.3617007,-0.0,1.6115565,-0.0,-0.0,-0.0,1.851516,0.0,-1.1122199,-0.0,-1.3699127,0.0,0.7129364,1.5001873,-0.0,-1.0994189,0.0,-1.2923857,-1.0604299,-0.0,-1.6199648,0.0,-2.0612173,-0.0,0.0,-0.0,-1.5799379,1.0458347,1.12446,-1.076879,-0.0,-0.0,-0.0,2.2686856,-1.1494979,-1.5480417,0.0,-0.64947367,0.68071604,-0.0,0.7404782,1.0434891,-1.5851117,-1.0677257,0.64885765,1.4665827,0.0,-0.0,-0.0,1.4880455,-0.0,-2.2693124,0.0,0.0,0.0,-0.0,0.0,0.0,-0.0,0.0,0.7741043,-1.0089344,-0.0,-0.0,0.0,-0.8347098,0.7080812,0.0,-1.0649984,-0.0,0.0,0.95833164,-1.6658362,1.3444911,-1.1650963,-2.0406218,0.0,-1.4582413,2.0935316,0.0,0.0,0.67731136,-2.3925433,0.91622955,0.71608293,0.0,-0.0,0.0,0.0,-0.0,0.64343494,0.95731884,0.83726895,0.0,-0.0,-0.0,0.0,-0.0,1.9558978,-0.0,-1.6005136,1.1903313,1.7603278,-0.0,-0.0,-1.1814327,0.9034097,-0.8040176,-2.2782035,0.0,-0.0,1.336021,0.0,0.75794405,1.2458596,0.0,-0.0,1.6080115,-1.8912168,-1.3603971,-0.0,-0.0,-0.0,1.8361228,1.0700204,0.0,-1.4357419,-0.0,0.0,0.0,0.0,-1.4164773,0.0,-1.117388,0.0,-0.7348091,1.7395285,0.9516573,0.0,-0.0,0.0,1.3281844,0.0,-0.0,0.7889807,0.0,1.8621852,-0.0,0.73341197,-1.7050346,-1.7565471,0.0,1.2933489,-0.0,0.0,0.78208244,1.8039126,0.0,0.0,-0.0,0.0,0.0,0.8183952,0.0,0.0,-0.0,-0.0,0.0,1.7651465,-0.0,-0.0,-0.0,-1.0857148,0.0,-1.3440778,1.9980499,-0.74777454,-0.0,-0.0,0.7644337,0.0,-1.5283737,-0.74038607,0.0,-0.0,1.9645562,-0.0,-3.1735842,1.5912516,-0.0,0.0,0.0,1.1028756,-0.0,0.0,-1.0774242,-0.0,-0.8541633,-0.0,0.89937866,1.2053598,-0.0,0.91738427,0.0,1.4863113,0.0,-1.2302058,1.852815,-1.572599,0.0,0.9182927,-1.2030164,0.9993664,-0.0,-1.1639445,-0.0,0.0,-1.4833782,-2.4169817,1.0268692,1.2609215,0.799064,-0.0,-0.90476114,1.8735049,-0.0,-1.8050581,0.0,-1.9811785,-0.0,-0.0,0.0,1.4952599,1.7407347,1.0079415,0.8233159,1.5534056,-0.7847325,0.0,-0.0,0.0,0.86968595,0.0,-0.0,-0.0,-0.0,0.0,-1.218104,-0.0,-2.3491094,-0.0,-1.164721,0.8165338,-0.8957638
1.6863286,-0.0,-0.0,-0.0,1.341879,0.0,-1.3004385,-0.0,0.0,-0.0,0.9596521,0.68492115,-0.0,0.0,0.0,0.0,-1.6471469,-0.0,-0.0,-0.84957427,0.0,0.86279935,0.7310695,0.0,-2.8294554,0.0,1.7913165,0.0,-0.0,-0.0,1.8818405,0.9103754,0.0,-0.0,0.0,1.2866765,0.0,-0.91774184,0.0,0.0,-0.0,-0.0,0.0,-0.9735623,1.817251,-0.0,-0.0,-1.1759017,-1.2659559,-0.0,0.0,-0.0,0.84920096,0.924142,-0.0,0.0,-0.0,-0.0,-2.7528899,0.0,-0.0,1.3528967,-1.2201728,0.0,0.6865162,-0.0,0.78102577,0.0,-0.0,-0.0,1.7420415,1.1224653,0.75451285,1.6709307,0.91399056,-1.7049491,1.4818411,1.1994994,0.8761908,-0.0,1.4651722,-1.1004045,0.0,-0.0,1.3789023,-1.713932,-1.301426,-0.0,-0.0,0.0,-1.2571754,1.2301159,0.92339677,0.0,-1.2622108,1.452999,-1.3361979,0.7400362,0.0,-1.2260028,-0.86584085,0.0,-2.1419125,0.0,-0.8151494,-0.0,0.0,0.0,-0.0,1.7109008,-0.0,1.1266867,-0.68160254,-2.4244986,0.0,-0.0,-0.9541737,-1.6283929,-1.2586186,-0.0,0.71466863,2.2331486,1.0440794,-0.0,-1.4870619,1.9323524,0.677762,1.1643652,-1.4454508,-0.0,-1.4463125,0.0,0.0,0.0,0.0,-2.1211762,0.0,1.416747,0.7815784,-0.0,-0.0,-0.0,-0.94313276,0.0,-0.0,-0.0,-0.7754229,1.3783373,-1.5776632,-0.0,0.0,-0.0,0.0,0.0,2.0447235,0.0,-1.4323277,1.9474801,-0.0,-0.0,-0.0,-0.0,-0.0,-0.0,0.6841162,-1.0307504,0.748621,0.97020495,-1.2179605,-1.3351954,-0.0,-0.95766526,-0.0,-0.0,-0.0,0.0,-0.8067443,0.0,1.6317163,1.8047909,1.7875394,-0.9133711,0.0,0.0,-0.0,1.5639762,0.0,0.0,0.0,-1.7441107,0.0,-1.2329578,-1.837216,0.0,-0.81979936,1.4886544,-0.0,-0.7179629,-0.70689213,-0.0,-0.0,-1.7794833,-0.0,0.0,0.0,1.1192166,0.0,-1.209023,-1.4781619,0.0,0.73140866,-0.0,1.2752734,-1.2570453,-0.0,0.0,0.7781168,-0.0,-0.0,1.1552006,0.0,-0.7283879,1.2294734,-0.0,-0.93308866,1.3016137,-1.7802868,1.0885739,-2.1558828,0.0,0.0,0.0,1.2668666,1.5439856,-0.0,-0.0,-0.0,0.0,-0.0,-0.9223879,-1.0947081,1.7547728,0.0,-1.3278803,-0.7547528,-0.0,0.0,0.0,1.6120703,-0.90083146,-0.0,-0.800861,-1.9842343,2.2140486,1.4740299,0.9512679
-1.8312583,0.96151996,-0.0,-0.0,-0.7985822,-1.256218,-1.2165902,-0.0,0.0,-0.0,-0.0,0.9363088,-1.1122853,0.0,0.0,2.1996193,-0.8329966,-0.87568533,1.6184566,-0.0,-1.089001,-2.6864424,-0.0,0.0,0.0,-1.1501061,-0.0,-0.88936126,-1.3401735,-0.0,0.7065496,0.8289584,1.334291,0.0,-0.0,1.0706567,-0.7861287,0.0,-0.0,0.8451398,1.2401594,0.0,-0.0,0.0,1.8616178,-0.0,-0.0,-0.0,-0.0,1.3300524,0.9909361,2.3282557,0.0,-0.0,1.5566679,-0.6770198,0.0,0.7740814,0.0,0.0,-1.5881144,0.0,-2.316887,-0.0,-0.93780535,-2.6051333,-1.9913133,-0.0,0.79946786,-1.0384576,0.0,0.0,-0.0,-1.394832,0.71017337,-0.0,-1.5209119,-1.0266479,1.2238033,-0.0,-0.0,0.0,0.0,0.0,0.83597165,0.0,0.0,0.0,-0.77372736,-0.0,-0.6848753,-0.80031073,-1.3777802,-0.0,0.0,-1.1317818,2.5938134,0.0,0.0,-2.0123565,-0.0,0.0,-0.0,1.4938561,-0.0,0.8047357,1.5152606,-0.9936885,-0.0,-0.75493366,0.0,1.1439143,-0.70381886,-0.0,-0.0,-0.0,1.0070328,-1.8489735,-0.0,2.2899914,1.1618807,-0.9138669,0.0,-0.95090353,1.1931375,2.8311677,-0.0,1.0353909,-0.9475127,0.0,-0.0,-0.8553425,-1.2062583,0.0,2.016075,1.2812036,0.0,-1.450365,0.70229846,-0.0,-0.0,-0.0,0.0,-1.3803471,-0.0,-0.0,-0.0,0.0,-1.8841555,0.9470441,0.0,-0.0,-0.0,1.1665599,-1.6947229,1.2081486,0.0,-1.9842616,0.0,-0.0,-1.408409,-1.2470423,-1.6581078,0.0,0.0,-0.84862745,-0.0,-0.0,-0.0,0.84553814,0.0,-0.7109196,-0.0,-0.7538115,-0.0,-0.0,0.0,1.4088974,-0.0,0.0,-2.4236734,-0.0,0.0,0.0,-0.850801,-0.87883747,-0.0,-0.0,-0.0,0.8815791,-1.2803091,-0.6910951,-0.7879188,-0.8584152,-1.485639,-0.0,-0.9379784,-0.0,0.0,-1.0434085,-0.0,0.0,0.0,1.7705985,-1.0775466,-0.81756306,2.559808,0.0,1.2772404,-0.0,-0.0,0.82361734,0.0,1.2770218,0.0,1.0297523,-0.0,0.0,-0.9024258,0.0,0.72585636,-0.6790284,-2.4448154,2.424725,0.0,-0.74254143,-0.7433349,0.7447006,0.0,0.0,-0.0,-0.0,0.0,-1.9412451,1.6632098,-1.0286353,-0.0,-0.0,-0.8379982,-0.0,0.0,0.0,-1.5445888,-0.0,-1.0791532,0.0,-1.4956231,1.7821581,-1.398598,-0.0,-0.0,0.7298169,0.0,0.0,0.89278597,1.0667406
0.7116276,-0.0,0.0,0.0,0.0,-0.0,-0.9345137,1.4400969,-0.0,-0.0,-0.0,-1.1468548,-0.74271345,0.0,0.0,0.0,-0.0,-0.89084274,0.0,-0.82654244,-0.0,-0.0,-0.0,-0.9304502,0.0,-0.0,-1.0106626,-1.3825741,1.4909909,0.6767876,-0.0,1.2045792,1.0553738,-0.78970027,-0.0,-0.8516349,0.0,0.0,2.7537315,-0.6810628,-0.69061226,0.0,0.0,-1.2383006,-2.0691624,1.1823585,0.0,0.0,-0.0,1.9426637,0.0,-1.5311787,-0.7033662,-1.1884286,1.3788465,-0.0,-0.0,-0.0,1.3972838,-0.0,0.7794134,0.0,-1.6300863,-0.0,0.0,0.0,-1.0876918,1.3767962,0.0,-0.6968416,2.2134733,-0.76401484,-0.0,-0.0,-0.0,0.8158234,1.5739093,-1.2578928,-0.0,-0.0,-0.0,-0.0,1.0927246,-1.0642574,-0.0,0.0,1.6221673,-0.0,-0.69973797,0.0,-1.3372753,0.0,-1.4039369,-0.0,0.0,-0.0,-1.8678644,0.0,-0.0,0.0,0.0,0.0,0.0,-0.9712092,1.2417579,-0.9645972,-0.0,0.0,1.0260516,-2.2876577,0.9841369,0.85195976,0.0,0.0,1.2503076,-0.0,-0.7549099,0.0,-0.0,0.0,-0.0,0.0,-0.0,-0.95848495,0.0,-0.0,-0.0,0.0,-2.036518,-0.0,-0.90911925,1.210054,1.6041538,1.8243895,-2.2018216,-0.0,-1.5249205,0.66232306,-1.0429527,-0.0,-0.0,-0.0,0.8720046,0.0,0.0,-2.5246053,-1.6221402,-0.77568436,-0.0,-0.0,0.0,-0.0,-0.0,0.7332734,-0.6987625,-0.74834436,-1.1262218,0.0,2.4574535,-0.0,-0.0,-0.0,0.7482318,0.83715653,-1.6202627,-0.8505858,0.0,0.6601082,-0.0,0.0,0.87086797,-2.5536294,-0.0,1.330766,1.0997812,0.0,-2.0208397,1.1688324,0.0,1.2058617,0.8057107,0.0,1.1288645,0.86537915,-1.2489858,-2.090281,0.0,0.0,0.0,0.9257752,-0.8206934,0.8040619,-0.6506089,0.6579065,2.4050736,-0.0,1.3457396,0.0,-0.0,-1.0705239,1.1522254,1.2897155,1.430227,-1.0819863,-0.0,0.0,0.0,-0.0,0.0,-0.88136977,0.0,1.208426,0.0,-0.0,-0.0,-0.97216284,-1.6450001,0.0,-1.439185,0.8820758,-1.6150188,0.97942543,0.0,-0.0,0.0,2.5201728,-0.0,0.0,-0.9886696,1.125384,-0.0,-0.0,0.63364553,0.89456254,-0.0,0.85606474,-0.0,-0.7646293,0.0,-0.0,0.0,-0.0,1.4922278,1.027379,-1.0561754,1.2413887,0.0,0.0,1.8203049,-1.0351267,1.5211633,-1.0879452,0.69917244,1.2339404,0.0,0.0
0.6490095,1.0544744,1.1524665,-0.0,1.6054472,0.0,-0.0,1.9008868,-0.0,-0.0,0.0,0.0,0.0,-1.0862913,-0.0,-0.0,0.95888346,0.7205507,-0.0,-0.0,1.2771682,-2.4827216,-0.0,0.0,-1.4410534,-0.0,-0.0,-0.0,0.6683195,-0.0,1.5353498,-0.0,-1.7538147,0.0,-0.75706965,-0.0,-0.0,0.0,0.0,1.3773569,1.1042998,-1.249464,-0.0,-1.2080867,-0.0,0.0,-0.0,0.0,-1.003446,1.5160531,-0.0,-0.0,1.7665387,0.0,0.0,1.4510128,0.6426443,0.0,0.97299,1.165453,0.0,-1.6049411,0.0,0.76144207,0.7102578,0.0,-0.0,-0.0,0.9052608,1.0356174,-0.6394686,-0.0,0.92909956,-0.0,-1.4467413,-0.0,-0.0,0.0,0.0,0.0,-1.6524739,-0.0,-2.6854298,1.4598973,-0.0,-0.8333991,0.9525992,0.0,-1.0857215,-0.0,-0.0,1.4787245,0.0,-0.6528802,1.2545267,-0.0,0.0,0.8254786,0.0,0.0,0.0,-0.0,-1.0558017,-2.0813208,0.0,-1.1719065,-0.0,2.1412954,1.6360657,-0.0,0.99572545,1.0100855,-0.0,0.0,1.762624,-0.0,-0.7153283,-0.66534805,-0.0,0.96968055,-0.876923,1.5883987,-0.0,0.64577264,-2.1737566,2.016994,0.9134366,0.0,-0.0,1.2773895,0.0,-1.4334738,1.4280097,-0.0,0.0,1.1577556,1.2250619,1.1212991,1.1080658,0.0,-1.070558,0.7415013,-1.1961052,0.97316617,0.0,0.9805937,0.6607168,2.3403602,2.8279483,-1.2886132,-0.6872531,0.0,1.4991263,-1.7073239,0.0,1.5582956,0.0,-0.0,0.0,0.0,-1.583692,-0.0,-0.0,0.652024,1.9426764,0.73386186,1.7058206,-1.0526267,1.8532962,2.3191254,-1.1551887,0.0,-0.0,-0.0,0.0,0.0,-0.0,-1.3908874,-0.0,-1.3042083,0.0,0.0,-0.0,0.6443825,-0.0,-0.0,-0.69706815,1.2680968,-0.0,0.94944084,1.7008529,-0.0,0.0,0.71770394,1.2455331,1.0743359,0.901591,0.0,1.0040101,1.0881974,-0.0,-0.0,0.0,0.80192864,0.7752288,-0.9080183,0.0,0.0,0.0,-0.0,-1.0858428,-0.0,-1.919642,1.0139891,-0.0,-0.0,1.3953446,1.2637172,0.0,0.0,1.3636451,1.9214516,-0.0,-0.0,-1.2872847,-0.77442104,0.0,-0.0,0.0,0.0,-0.70116,0.0,1.7389271,0.9796281,0.0,-1.3360248,0.78710204,-0.0,1.5037905,0.0,-0.0,0.0,3.2250686,-0.0,1.2116879,-0.0,0.0,0.0,-1.3242892,0.0,0.0,-1.0821202,-0.6846281,1.723315,0.0,0.0
-0.9951253,-2.0626764,-0.0,-0.0,-1.4826416,3.0098937,1.6482698,0.9302629,1.4419777,0.0,0.0,0.0,2.0277429,-0.0,0.0,-0.0,-0.0,-0.97006786,-0.98542094,0.0,0.6901894,0.0,-0.0,-1.5733619,-0.0,-0.0,-0.0,-1.1765807,0.0,0.0,-0.83188486,-0.0,0.8445347,-0.0,-1.336048,-1.1839684,-0.0,-0.0,-0.0,-0.0,1.1597216,-0.0,-1.0103235,0.0,-0.0,-0.0,-2.635923,-3.3436549,-0.0,0.0,-0.83786297,0.0,-0.0,-0.0,-0.0,0.0,-0.0,0.0,0.81440824,-0.8477013,0.0,1.4046193,-1.156109,0.0,-0.0,0.7340881,-1.0910019,-1.2153255,-1.0955389,-0.9787329,0.0,-0.692394,0.0,-0.95046484,1.6867731,-1.6910309,0.95679736,-0.0,-0.0,-0.0,-1.1941532,0.0,-1.0385066,-0.0,-0.9284633,0.0,-1.5779089,0.0,1.0204254,-0.0,-1.319379,0.912708,0.0,0.9722862,0.0,0.0,1.1512717,0.0,0.0,-0.0,-1.2582359,-0.0,0.0,0.0,0.0,0.0,0.9847069,-1.7403324,1.0297557,-0.0,1.6512343,0.0,0.0,0.0,0.0,0.0,-1.0744948,-0.0,0.0,0.784244,-0.0,0.0,0.0,-1.0641042,1.8933303,1.5121824,-1.8816781,-0.0,0.9203201,0.83328867,-0.0,-0.75576067,1.6196885,-2.786172,1.4586741,0.7552618,-1.34951,-1.1743374,-0.0,-0.0,1.0822113,-1.0009658,-0.80095047,0.0,-0.8488316,-0.97895885,0.0,0.0,0.7501677,0.0,-0.0,-0.0,1.4536163,-1.9864807,1.1296071,-0.0,-0.0,0.7304729,0.0,0.0,0.0,0.776456,2.265102,1.7502831,-0.0,0.0,1.3647405,-0.0,0.0,-0.0,0.0,-1.6803195,-0.0,0.97203225,1.456042,-1.2646474,2.161616,-0.0,-0.7743171,-0.0,-0.0,-0.0,1.9470361,-0.0,-0.0,-0.66424406,-0.0,0.7227403,0.0,0.9383819,-1.3134077,-0.0,-0.0,-2.449642,-0.0,0.65568453,-0.9664664,-0.653456,-1.8367647,0.82159495,0.8437588,0.0,-0.8641867,-1.8976414,0.0,-0.0,-0.0,0.0,-0.0,-1.0992377,0.0,-0.0,-0.68011534,-0.0,2.355416,0.0,0.0,0.0,-1.0749538,-0.0,-1.2282674,-0.0,-1.2613442,-1.0557452,1.0148174,0.0,1.6758255,0.0,1.4060667,0.880482,-1.7766142,0.6527296,2.8201423,0.0,0.79882354,-0.9740388,0.0,-0.0,-0.0,1.1316426,0.0,-0.0,1.5478916,-1.5645251,0.9198042,1.219835,-0.0,-0.71455616,1.8711067,-0.69306076,-0.0,-0.0,-0.8322049,2.1085958,1.3456608,1.1341051
0.0,-0.850855,-0.80195165,0.87793964,2.443274,0.0,-0.0,0.83129746,2.4455826,-1.1616279,-1.2531565,0.0,2.2382402,-0.0,0.0,1.0628027,-0.0,0.0,-1.6855823,-1.4297707,1.080876,0.934459,-1.5317125,-1.4684807,0.0,0.0,-0.9585529,-0.0,-0.0,-0.8928426,-0.0,0.0,-0.0,-1.3692608,0.0,-0.0,-0.0,-0.0,-1.3859488,-0.0,-0.0,-0.92114294,-1.4610351,-0.94304425,-0.97070026,-0.0,2.4369545,-0.0,-1.4117004,1.1280689,-0.0,-1.1911063,0.0,-1.8374553,0.0,-0.0,0.0,-0.0,0.0,1.2200626,-0.0,-0.0,-0.0,-1.0464897,1.3874875,0.0,0.0,-1.1996948,-0.8251451,-1.4318616,2.152931,1.9717897,-0.0,0.0,1.7364734,0.0,-0.9723881,-0.9033364,-1.3548269,0.0,0.85294086,1.049664,-0.0,0.0,0.0,0.0,1.733724,-0.0,0.0,-1.411375,-1.3881441,-0.0,1.6366142,1.2609007,-0.0,1.0432163,1.3872851,-0.8444766,-1.0033978,-1.4487486,0.0,1.6612897,-2.131061,-0.0,-1.2970061,-1.3995669,1.1770236,-0.0,1.1643618,-0.0,2.284378,1.9052987,0.9097755,-0.0,0.0,0.0,-1.607762,-2.3025074,1.1283771,0.0,0.0,0.86204994,-0.0,1.273696,-0.0,0.0,-2.0284333,1.0080587,0.0,-1.7970123,-0.0,1.1290046,-0.9550509,-1.3124089,0.9959,1.0424137,-0.0,0.0,-0.0,-0.0,0.0,-0.0,-0.0,0.0,1.132312,-2.1856544,-0.89584374,1.1960081,0.8518217,-1.058776,0.0,1.7527419,-0.0,-0.0,-2.0715566,-0.0,0.0,-0.0,2.7709818,-0.0,-0.0,0.9126889,-0.7886647,1.7400597,0.0,0.0,0.0,0.0,-1.4011014,-0.0,-0.0,1.5466399,0.8684687,1.8265429,-0.97572184,1.2407217,-0.0,-1.6019158,0.801072,0.0,-0.94416034,0.0,-2.2152321,0.0,1.4052327,0.0,-1.1113515,0.0,0.0,-0.96093184,0.0,0.0,-0.0,-0.0,0.0,1.5904152,0.0,0.8762301,0.0,0.0,1.0683182,0.0,-1.1469324,-1.6615146,-0.0,0.0,-0.0,-0.80729395,-0.0,-0.0,0.0,-1.5685382,0.0,-0.0,0.0,0.0,-1.1029503,-0.0,0.0,-0.0,-0.0,0.0,-0.0,-0.83098024,0.0,0.9847626,-0.0,-1.5009676,1.0478201,-1.6522182,0.0,-0.0,1.2000073,-1.1157429,-0.0,-1.1507541,-0.0,1.0938289,-1.2919474,0.8912345,0.8408202,-0.0,0.0,1.3830417,-0.0,1.1592491,0.0,-1.6164676,1.3129562,0.0,-0.0,-0.0,-1.7958748,-1.0682652,-0.0,-1.0637507
-1.2783481,-2.5512311,0.0,0.9852431,-0.0,-1.2611358,0.9367785,1.2973129,-0.0,-0.0,-0.0,-0.0,-0.7212814,0.9522491,0.0,1.8916427,0.0,-1.3331871,-0.9050688,0.0,0.0,0.8043875,-0.0,0.0,-0.0,-0.0,0.7316833,-1.1079962,-1.0926765,0.0,-1.6844689,1.3042136,-0.87986606,0.0,-0.0,-0.0,0.0,1.5703231,0.0,-0.0,1.2850249,-0.0,0.9109111,-0.0,0.0,1.244775,0.0,0.0,-0.0,0.7636688,-0.0,0.0,-0.0,0.95651186,0.0,2.9386632,2.1014354,-0.0,0.0,-2.9012969,-0.0,-1.2819744,0.6546861,0.9929538,0.0,-0.7694333,-0.0,-0.8112918,-0.0,0.0,0.0,0.8308195,1.4487499,-0.8428252,1.6671064,-1.8736281,1.5924919,-0.0,-2.0326848,0.0,-0.0,0.0,0.0,-1.2174261,1.1304085,-0.0,1.5396479,0.0,0.0,-0.7829306,0.8668207,-0.0,0.0,1.0079513,0.0,0.9184685,-0.0,-0.0,0.8536512,0.97992027,0.0,0.0,0.64613736,-0.99672335,0.0,-1.0193508,0.0,-0.0,0.0,-1.0725131,-0.0,0.7294195,1.3829398,0.0,0.67931855,-0.0,1.0493221,1.0186753,-0.0,0.0,-0.8624693,0.6347467,1.4305829,0.0,0.6819471,2.3951435,-0.64466864,1.1416576,-0.7833276,1.5180523,0.6555057,-0.9063697,0.9228827,-1.094631,0.0,0.0,1.4476213,-0.8658797,1.0628769,-0.0,0.0,1.716387,-0.0,-0.0,0.0,2.492431,0.0,0.0,-0.0,-0.0,-0.0,-0.0,-0.0,1.273759,-1.6356,-1.3017931,-2.5093372,0.8933699,-2.0192878,-0.0,-0.9044795,-0.0,0.95938027,1.2411904,0.0,0.0,0.0,-0.0,1.8047158,-0.0,-1.6755874,1.1053443,-0.0,-0.9716095,0.0,0.0,-0.0,-0.0,-0.89144564,0.0,0.0,-0.0,0.91078216,0.0,-0.0,1.2181355,1.5023243,-0.0,0.61984134,-0.0,-0.0,-0.0,-0.0,0.90406156,0.89436054,-1.0314192,-0.72365344,0.0,0.0,0.0,1.7704542,-1.2673582,-1.513421,-0.0,-0.0,0.0,1.3872409,1.3177651,-1.19559,-0.65298355,0.0,-0.99128354,0.0,2.1234224,-0.0,0.0,-1.0513351,-0.8458494,1.0118082,-0.0,0.0,-0.9720718,-0.0,-0.87757975,0.0,-0.0,0.0,0.0,0.0,0.0,-0.0,-0.65321386,-0.0,0.0,0.0,-0.63806635,0.8922908,-0.0,0.947988,0.88630754,0.78560776,1.5369002,1.5959144,-0.0,-0.0,0.9121288,0.0,-1.7447755,-0.0,1.6701723,-1.2733971,2.0642583,0.0,1.2454332,0.9278636,1.7419035
0.6775701,0.0,1.0096183,2.0723712,-0.0,-0.0,-0.92525506,-0.0,-0.0,0.0,-2.3384974,-1.9208393,-0.0,-0.0,-0.0,-1.0073458,1.3897364,-0.72341746,0.0,-0.0,1.1438051,0.0,0.0,-0.0,0.0,1.9578346,-1.3581612,1.4240947,-0.0,-0.0,2.244932,-0.0,-0.0,0.8530257,0.0,-0.0,-0.0,0.0,-0.0,0.0,-2.1318486,1.6938096,1.517084,-1.287421,-1.2151483,0.0,2.553496,0.0,-1.0095437,0.0,-0.92219067,-1.4354454,0.0,0.0,0.8906751,-0.7580893,0.0,-0.0,-0.0,-0.0,-0.0,0.996349,0.0,-1.6554371,1.5623564,0.0,0.0,0.6926092,-1.7677362,0.82534343,0.0,0.0,-0.0,-1.407602,1.5161864,0.0,0.0,1.6936454,-2.5738492,-1.4962099,0.77562773,-0.0,0.0,0.6853399,-1.6130418,0.0,0.0,-0.90776515,-0.0,-0.75571555,0.0,0.0,1.4194582,-1.2332573,1.9468126,-0.0,-0.837688,0.0,1.2938384,0.0,-2.0232298,-0.0,0.0,0.781017,0.0,1.4003041,0.0,0.0,-0.0,-0.0,-0.0,1.6842126,0.0,-1.1165466,0.0,2.3003926,-1.0987262,-2.073664,-2.2269478,-0.0,-0.96120995,-1.7026379,-0.7099054,0.928025,-0.0,0.0,-0.0,-0.7479284,-0.0,-0.0,-0.0,-1.2225455,0.0,-0.0,1.152275,0.0,-2.0777664,-0.0,-0.0,0.0,0.0,1.9760001,1.6352739,-1.3146112,-0.7480884,-1.8523552,0.0,0.0,1.1308352,0.0,0.0,0.0,0.96734846,1.5621157,-1.6464379,-1.7790073,-0.0,1.2075927,3.0562394,2.0611417,-0.0,0.0,0.8991848,1.0689106,0.0,1.3343565,-1.3264756,1.7284597,0.0,0.0,-0.0,1.9514498,-0.69797635,-0.0,1.102287,0.0,0.0,0.8229819,0.0,1.3060759,-2.0519419,-0.0,0.94946945,0.0,0.0,-1.1695224,0.0,1.0435138,0.0,0.9040521,1.2820606,-1.6166915,1.6773057,-0.7231167,-0.0,0.74780065,-0.84165597,-1.594949,0.67986286,0.0,0.0,0.0,-2.283003,0.0,1.2386,-0.6772331,-0.9976737,-0.68478584,-1.2913107,0.6888391,-1.4538163,0.0,1.3195887,0.0,-0.0,0.0,1.5358247,-0.0,-1.1682289,0.0,-1.1753441,-0.0,-0.0,-0.71730983,-0.0,0.0,0.6918516,0.9770651,-1.7834413,-0.76436156,0.0,-0.0,-1.9649197,-1.3082854,0.9527794,0.0,-0.0,1.1881756,-1.4951357,0.0,-0.0,0.0,-0.0,-1.8967001,0.0,1.2425474,0.0,-1.0116037,0.0,-0.0,0.0,-0.8187361,0.7820658,-0.0,-0.0,0.0
-0.0,-0.0,2.4259725,0.97150683,-0.0,1.2624002,-0.0,-0.0,0.0,0.0,0.0,-1.6619294,0.0,0.0,-0.0,1.1276634,-0.0,-1.3407209,-0.779331,-0.0,-0.92327183,-1.6852498,-0.0,1.1481601,-1.4359837,0.0,0.75207525,1.1213588,1.3919342,0.9468955,0.0,0.99474394,-0.0,-0.0,0.761025,0.0,1.0080662,-0.0,0.0,-1.1386173,1.843282,-1.8363172,-0.0,-0.0,1.2641925,-1.7232589,1.3093767,0.0,-0.78576654,0.91828656,1.4949279,-2.2809527,-1.3374312,0.0,0.9974883,-0.9664356,-0.76915056,-0.0,0.0,1.9556907,-1.1267037,-0.0,1.1366514,0.0,-0.0,-1.587547,0.0,0.0,-1.5733365,-0.0,-0.0,0.8939801,0.0,1.1975415,-0.0,-1.3391628,0.0,-0.0,-0.0,-0.0,-0.0,-2.3945503,-1.7169635,-0.0,-0.0,-0.0,0.0,-1.6730851,-1.9326108,-0.0,-0.0,-0.0,1.0185875,-0.0,-1.4751753,1.1697894,0.0,-0.0,0.0,-0.0,0.0,-0.0,0.0,-0.0,-0.0,0.0,-0.95553166,0.0,-1.5576335,1.185594,-0.9275106,-2.9733067,-1.0341091,-1.3998516,-0.0,0.0,0.0,0.0,1.3312638,1.5774816,-1.8041387,0.9825158,0.0,0.8785542,0.0,0.0,0.0,-0.0,0.0,0.0,0.0,-0.0,-2.5149446,-1.66449,-1.036241,-0.0,1.1840295,0.9314543,0.0,1.7938875,1.8044193,-0.0,0.0,1.4894382,2.5516787,-1.2593008,-1.1038471,1.0769613,2.118694,0.0,1.4224205,-1.026432,-0.0,-1.9428295,-1.0306343,-0.0,-0.0,0.0,0.0,1.6445872,0.0,0.9760926,0.0,0.0,-0.0,1.2492603,0.0,1.2552754,0.0,-1.8992413,0.87335235,-1.907131,1.2720697,2.0160832,-0.0,0.0,0.0,0.0,1.6615658,0.0,-0.0,0.79102015,1.2587215,0.0,0.0,-2.0720599,-0.0,-0.0,2.2634532,0.0,-2.1707172,0.0,-0.0,1.1510066,1.6780559,-0.0,-0.0,-1.2122636,-1.0809164,-1.6699771,0.9420386,-0.0,-0.0,1.0992453,2.0431166,0.0,-0.7978444,-0.0,-1.8732,1.0333992,1.344728,-1.4120435,1.5914135,0.0,0.8370249,-0.881196,-0.0,0.9439073,0.0,-0.0,-0.0,2.1292088,0.0,-0.0,-1.2703876,-0.8795625,-0.0,0.0,-0.0,-1.0734555,0.0,-0.0,-1.5554943,0.0,-0.0,-1.10018,1.6787255,-0.0,1.1050556,0.0,0.0,-1.7010832,0.8764503,-0.0,-0.9490987,0.0,0.96758467,-0.0,-2.022957,1.2881209,2.2764676,1.2848053,0.0,-1.121352,-2.4831247,0.93652695
-1.5046954,-0.0,0.0,0.0,0.0,0.0,-0.0,0.0,-1.0148311,-1.0029652,1.1643627,0.8636111,-2.067213,-0.0,0.0,-0.0,0.0,0.0,-1.3525593,0.0,0.8998666,-1.2205178,-1.6549251,0.8872196,-0.0,0.0,1.2169825,1.0846117,0.0,0.79229945,0.0,-0.0,-0.0,0.0,-0.7895905,0.7022112,0.0,-1.3471903,0.8226291,1.1680566,0.0,0.82427055,0.0,-2.6579766,-0.7664941,0.0,0.0,-0.0,-0.0,0.0,-1.592682,-0.868977,-0.80026484,-0.0,0.0,-0.0,-1.7513373,-0.0,-0.0,1.209732,1.0256227,-0.0,0.8178719,-0.0,1.2723763,1.3903515,3.5240374,-1.0718621,0.0,0.0,-0.0,0.0,1.0894438,-0.0,-0.76229936,-0.0,-1.0524231,1.8720708,0.0,0.0,0.0,0.0,-0.0,1.4255784,0.81706387,-0.0,0.8732188,2.379944,-0.0,-0.0,-0.0,-0.71889496,-0.0,-1.0953584,0.8135769,1.9002497,-0.0,0.9221277,0.0,-0.0,-0.72660905,0.7694238,-0.0,0.0,0.0,1.1651243,0.0,0.985339,-0.7654064,1.7035079,-1.094894,0.0,-0.7554235,-1.9477788,-0.0,0.0,1.4502666,-0.97962064,-0.0,-1.8573388,-0.0,1.567185,-0.0,1.2389616,-0.0,1.2851132,-0.0,-1.4235836,-0.0,-0.6994321,-0.8328218,1.0004587,-0.0,-1.0437355,-0.0,0.0,0.0,-1.8522768,-2.406552,0.73734003,-0.0,1.0637857,-1.5980146,0.7597393,0.0,0.0,0.8583239,-0.0,0.0,0.0,-0.8863848,-1.3440222,-0.0,-0.0,-0.0,0.0,-1.1173899,-0.716627,0.91347533,0.91528755,-0.0,-0.0,1.5041502,0.0,2.2267025,-0.0,-1.0878513,-0.0,-0.7001923,0.0,0.0,-0.0,1.2391428,0.8103619,1.4786481,0.0,0.0,-0.0,-0.0,-0.0,0.71666807,-1.59824,-1.1255311,0.0,-1.3181837,-0.0,0.0,0.0,1.3567678,2.1203675,-0.9546919,-0.0,-0.6856467,0.7435634,-1.2413367,-0.0,0.0,-0.68344975,1.3752455,1.00117,-0.0,-0.0,0.0,0.0,0.0,-0.0,0.9908587,1.2836711,0.0,1.2582864,-0.0,0.0,0.83786213,2.578572,2.5286658,1.6706096,-0.74063504,0.0,-2.1964955,-0.6854788,0.0,0.69686425,-0.0,-0.0,0.9502683,1.3797694,0.0,-2.956603,1.3217822,-0.0,-0.9767976,-2.2705486,-1.0284911,-1.3316698,-0.0,1.2271541,-0.0,0.0,1.2857476,1.2444261,-0.0,1.1558365,-0.0,0.0,-1.1803477,1.7217813,0.0,-0.0,-0.0,-0.0,0.0,-0.8079923,0.0,-1.4344578,-1.4377277,-0.0
-1.5930171,-1.0349994,0.0,-1.9828726,0.0,0.0,-1.5541483,-1.3146574,-1.5443001,0.0,0.0,-0.0,-0.0,0.0,-0.0,-1.7866673,-1.5179574,0.84353364,0.99534994,1.2571898,0.0,-0.0,0.9369312,0.0,0.0,0.0,0.0,1.2251881,-0.0,0.0,0.92901325,0.0,-1.569233,1.8061557,-0.817004,0.0,-0.0,-0.0,0.0,-0.86989105,-0.0,1.6725223,-0.7589841,0.75032437,-0.0,0.0,-0.0,0.0,-0.0,0.0,0.0,-0.0,-0.8106891,0.94476897,0.0,-0.0,0.0,-0.9058047,-0.99551696,-2.127372,0.0,0.0,0.7668219,-0.0,0.0,0.0,2.3206358,-0.0,1.4367634,0.97345495,-0.0,0.0,0.0,-1.8919008,-0.0,1.0146667,0.0,0.0,0.0,0.89982367,-0.0,-0.0,-0.0,2.248205,-0.0,1.8092297,1.5742471,-0.9542784,-0.0,-0.0,-1.1636745,0.0,-0.0,-0.0,-0.82930195,-0.0,0.0,-2.519519,0.0,-0.0,-1.776603,0.0,1.4038776,0.94628894,-0.8276092,-0.8215244,1.6401857,-1.0375662,0.0,-0.0,-0.0,-1.5016618,1.1190196,0.9091131,0.0,1.6261047,-0.0,0.0,-0.906879,-0.0,-0.0,-1.2389525,1.1014647,-0.0,0.0,0.9174775,0.0,1.5916564,-0.0,-1.2437142,1.3057077,0.0,-1.2630408,0.75537926,-1.0478188,1.7118298,-0.0,-1.9967712,2.0038369,-0.0,0.0,1.1548367,0.9912141,-0.0,0.0,-0.0,-0.0,1.2556642,1.0148957,-0.7878343,-1.0685607,0.0,1.453114,-0.84296054,-0.0,0.0,1.9735035,-0.0,-0.0,-0.9397663,-0.0,0.0,-0.0,1.8731625,-1.3153118,1.1235578,-0.94223183,-0.0,1.8693129,-0.80039614,1.4941307,0.0,0.0,1.4744444,-0.0,2.0358925,0.0,-0.9747271,-2.777206,1.2854279,0.0,-1.6203601,1.3972995,0.0,-0.0,0.0,-1.1239748,-2.1566167,-0.0,-0.0,-0.0,-1.2345637,-2.4572732,1.0625883,-1.2536582,-0.75089085,1.1470147,1.2972474,0.9972246,-1.5617021,-0.0,-0.0,1.6167293,-1.1916558,0.9368076,-0.0,0.0,1.7750959,-1.0943154,1.9849123,-0.0,-0.0,-0.93760604,-1.382409,-1.3036456,-1.3445837,0.93662965,-0.9375086,0.0,0.0,0.78957707,1.0034888,0.0,0.0,1.1391861,-0.0,-1.6161369,-1.1775767,-0.0,-0.0,-1.1994153,0.0,2.2630627,2.1767848,0.0,1.2076442,0.0,-1.3040282,2.1587803,-0.0,0.0,-1.0981736,-0.0,1.1823345,0.0,-1.4484165,0.0,-0.0,0.0,-0.0,-0.0,-0.0,0.0,-0.0,1.2116148,-1.0063664
-1.2672302,-0.0,-1.1819407,0.0,0.0,-0.7792571,0.0,1.7265133,-0.0,0.0,-0.0,0.0,-0.0,-0.7431173,-0.96353424,-0.930471,0.0,0.0,-1.0147607,1.0324829,0.0,0.0,0.8316129,0.81511897,-1.8603945,-0.0,0.0,0.0,0.0,2.1182723,0.8945569,1.786549,0.0,0.0,1.7734355,-1.2193332,-0.9372067,2.3121126,0.6349569,-0.9905252,-0.0,-1.813414,0.0,-0.0,-1.367532,-0.0,1.0295382,-1.2811661,1.1154937,-1.55596,0.0,-0.0,-0.0,-0.0,1.2689831,-0.0,0.7353776,-0.0,1.1720316,0.0,-0.7761139,0.0,0.0,0.0,-0.96648264,-0.0,-1.1403784,-1.0764829,0.0,0.0,0.0,-2.070277,-0.0,0.9479356,0.6798307,-0.0,-1.4166741,1.4328104,0.8778315,-1.0772883,-2.6191034,1.6785768,0.0,-0.0,-1.0246549,1.2419153,-1.1278579,-0.0,-0.0,1.4886979,-0.0,0.0,0.76023114,-0.0,1.5286678,-1.5505952,-0.0,-1.002998,-0.0,0.0,0.9894323,1.3602928,-1.7912962,-1.2386286,0.8015396,1.915269,-0.0,-1.0121527,-0.729748,-0.0,-0.0,-0.0,1.8259227,-1.4974895,-1.2599145,0.0,2.137941,0.79890054,1.4777241,1.6280314,0.0,-0.0,-0.0,0.0,-0.0,0.0,-0.0,2.0303636,-0.0,-1.9435608,-2.2365317,0.0,1.1193206,0.0,-0.0,0.0,-0.6248088,-0.755704,0.65737975,0.0,-0.7798489,0.66949147,0.0,-0.0,-0.0,1.4338441,1.1231749,-0.0,-0.0,-0.932254,-0.0,0.0,-0.0,0.0,0.0,0.8199165,1.407892,-0.0,-1.774061,0.0,1.1805296,-0.7390643,0.0,-1.1205269,-0.92139316,1.615827,-0.0,0.0,0.0,-0.0,0.0,0.0,-0.0,0.0,0.0,-1.6518098,-0.0,0.0,-0.0,1.7495785,0.0,-0.0,-1.5090528,0.0,0.0,0.0,0.65932757,0.82898515,-0.0,0.7420147,-2.262828,-0.89715713,0.905576,-0.0,-0.0,-0.0,-0.0,1.3078133,1.0309806,-1.2349951,1.157304,0.98663133,-3.0505958,-0.0,1.3084732,-1.4797592,0.0,0.0,0.8038608,1.0117266,1.7768356,0.0,-2.4473782,1.5446389,-1.1757396,-1.2050995,-0.80328214,0.0,-0.91722184,-0.0,0.0,-0.73984647,-1.1933856,-0.0,-0.0,1.3498387,0.0,0.0,0.0,-0.0,-0.0,-0.85380954,-0.77175236,0.0,0.0,0.0,0.0,-0.0,0.0,0.0,-2.0564067,-0.0,1.783047,1.8895164,-0.72197866,0.0,-1.805287,0.0,0.0,-0.0,-0.0,-1.0687312,0.94722706,0.77412134,-0.7876395,0.7194186
-1.4054203,0.0,-0.0,1.2948699,-0.0,-1.3362405,0.0,1.2654225,0.7268054,-1.8309329,0.8606345,-1.2271975,2.1794078,0.9405712,-1.7449294,0.8103375,-0.9110844,-0.0,-0.0,0.0,-0.0,0.73643726,-0.0,1.2088008,0.0,1.1461515,-0.0,1.1837225,0.0,0.70171326,-1.53681,-1.5396281,0.6646649,-1.1218773,0.0,1.0480437,-0.0,-0.0,-1.2037095,0.0,0.7461498,-0.0,1.1352695,-1.4906944,-0.70216066,0.7830423,-0.0,0.72385293,-0.0,-1.4722239,-0.0,-0.0,0.0,-0.0,-0.0,-0.0,-0.0,-0.0,0.0,0.9584663,0.0,1.3378303,0.0,-1.2055557,0.0,0.0,-0.98803395,0.0,0.0,-0.0,1.9593333,1.4504467,0.0,-0.0,-0.0,0.0,-2.1234431,0.0,1.3726556,-0.0,-0.0,-1.336691,-0.0,-1.1931903,-0.72879845,1.5028585,1.1809746,0.0,0.0,1.2752755,-0.6457029,-1.7652776,0.9541725,0.0,0.0,0.0,-0.0,-0.0,-0.0,0.0,-1.9465424,0.71823794,-0.0,0.0,-1.0605834,0.0,0.0,0.8471266,-3.2275598,0.0,-0.0,0.0,0.0,0.0,0.0,-0.0,-0.0,0.0,0.0,0.0,-0.0,-0.0,2.241423,1.621794,0.0,0.0,-0.0,0.0,-0.0,-0.0,-0.0,0.8283443,-1.1621989,-0.9891774,-0.0,0.0,0.0,-0.0,0.0,-1.1340295,0.0,-0.0,1.9152222,0.0,0.8658681,0.727749,-0.0,1.0259125,-1.6695691,-0.0,0.0,-0.67838883,0.70168847,-0.0,0.0,1.4826493,-1.0322481,1.4177952,-2.2439704,-0.65865296,-1.0417473,-0.7186472,-2.1832707,-2.3276742,-1.2647569,-0.9498861,-0.0,-0.0,-0.0,-1.0103471,-0.0,0.0,0.0,-0.9057214,-0.8121692,-0.0,0.68996966,-1.3390672,-1.22982,-1.2248871,1.5386462,0.0,0.0,-0.78254247,0.0,-0.6855758,-0.7472581,-0.0,0.0,0.0,0.0,1.8906409,0.76584303,-0.0,0.0,-0.0,-1.1471233,1.1970932,-1.6514333,-0.0,0.7925158,-1.5816169,0.73115534,1.6631639,-0.0,0.7556199,-0.6498247,-0.0,0.6970581,-0.0,-1.8916693,0.0,-1.3531182,0.0,1.419826,1.0076088,-0.7470832,0.93879354,0.7367628,0.0,-1.2258456,0.0,0.0,-0.0,-0.0,-1.650069,1.8755999,0.0,-0.0,-2.0818949,-0.0,-1.253287,-0.8853105,-0.7028901,-0.0,-0.8743335,0.7784373,-1.3665838,0.0,-0.86501634,-1.5813729,-0.0,-0.0,-1.4945012,-0.0,0.0,-0.0,-1.2547758,1.6167767,0.0,-0.8071068,1.0805885,0.7957758,-0.0,-1.8290781,0.89792186
0.0,-1.0959928,-1.0050179,0.98976403,-1.5065643,-0.0,-1.9784456,-1.9936162,-1.8336333,-2.2283502,-0.0,0.0,-1.7407705,0.7600286,0.0,0.0,1.1735101,-1.3841572,-2.0555594,1.2681289,0.95475024,1.3348758,-0.0,0.0,-0.0,-1.2699639,0.0,0.0,-0.0,0.0,0.0,-0.0,0.0,0.771625,-1.4835229,-0.0,-0.0,0.97524065,3.1993442,-0.0,-0.0,-1.3632797,-0.9092286,-0.78392595,0.0,-1.5931729,-0.9429497,-0.0,-1.1228361,0.8688538,0.0,1.5061457,-0.0,-0.0,-1.758012,-0.0,1.6102073,-0.0,0.0,-0.0,-0.0,-0.7916726,-1.1922628,2.032608,-0.0,0.7607914,-2.29951,-0.0,-1.6285045,-1.3376387,0.0,1.3881074,-0.0,1.5916358,0.7507879,-2.4779634,-0.0,-0.0,1.214493,-0.0,-0.0,1.147397,-0.0,1.0944954,-1.4915186,1.1084226,-1.1231467,0.0,1.290257,-1.1082604,-0.0,1.2471522,0.0,0.0,1.0878711,-0.0,-0.0,1.7034743,-0.93944156,-0.0,0.8308253,-1.112492,-0.77214885,-1.0292956,0.0,-0.0,-1.4051942,0.0,-2.3549345,0.0,0.0,-0.8192137,-1.6767573,-1.0478715,-0.0,-0.0,0.0,0.0,-1.2810249,1.609269,1.19512,-1.4201199,0.79511255,-0.87407684,-0.0,0.0,0.87565917,0.0,-2.8760653,-0.0,1.337657,-0.97158056,1.5869051,-0.0,-0.9770053,-0.8191831,-0.0,0.0,2.0698469,0.0,-0.0,0.8249119,0.0,1.831073,1.7511381,0.0,0.0,-1.9163992,-1.0446317,-0.77990127,0.0,-0.7505002,-0.0,1.8112928,0.0,-0.7189975,-0.0,-1.0271616,0.0,0.0,-1.3027536,0.0,-0.0,-0.0,0.0,-0.7208786,0.0,0.0,1.0837878,0.0,-0.0,-0.0,0.0,0.0,-1.2426454,0.0,0.0,0.7337314,0.94443154,0.0,0.0,0.0,-0.0,-1.314636,-0.0,1.2899604,-1.3976474,0.0,-1.6700921,0.0,0.0,2.2140388,-0.0,0.9321204,-0.94319135,-1.0543547,1.3880217,-0.0,-1.482165,0.94353914,-1.1368004,-0.0,1.7541476,1.8819907,-0.0,0.0,1.2758838,-1.4083183,0.0,0.7738891,-1.043308,0.0,0.0,-0.0,-0.0,-0.0,0.0,0.0,0.0,-2.3797324,1.6115863,-0.0,-0.8582252,-0.0,-1.2753628,1.6678959,1.6811229,-0.0,-0.0,0.0,0.0,0.0,2.5428867,-1.3899394,-0.0,-0.0,-0.0,-1.1221545,0.0,-1.1007147,0.0,-1.0533581,0.80144924,-1.0891151,-0.0,1.210095,-0.0,-0.0,-0.0,0.0,-0.8552581,0.0,0.0,-0.0,-0.0,-2.0146484
-0.0,0.9534906,0.0,-0.0,0.0,-0.0,-0.0,0.93710566,0.9860766,-1.2854677,0.9393462,-0.8314808,0.0,1.0261316,0.0,0.8145624,0.0,0.0,-0.0,0.0,-0.9808689,-1.3642609,0.0,-0.0,-2.3533418,-1.0368798,-0.0,-0.97071266,0.0,0.87427145,1.8123868,-0.0,0.9136633,-0.0,-0.0,0.0,2.0888793,0.0,-0.0,0.0,0.0,-0.0,-0.88633096,0.0,0.0,-0.0,0.0,0.0,-0.0,-1.2640275,1.4638153,-1.7764322,-0.0,1.7340094,0.0,-0.0,0.8564498,-0.0,-1.7984163,-0.0,0.0,-0.90778387,0.0,0.0,1.6205412,1.8801663,0.9802497,0.0,-0.0,1.0823671,-0.0,1.6745845,1.4345427,0.9565815,0.0,-0.7770473,-0.0,-0.0,0.0,1.417757,1.6229286,1.3605034,-0.8843898,1.4880629,1.4504358,0.912846,-1.0255116,-1.3663441,1.5603383,1.9384072,0.7630432,-1.1464027,-0.8315509,-1.6787829,-1.8880595,-1.3985838,-0.0,-0.0,1.2332091,0.79543245,1.011208,-0.76029336,-0.95730025,-1.2356279,-0.7417867,1.0991282,0.0,-0.0,-0.7348292,-0.76343817,0.0,-1.7798862,-0.0,-0.0,0.0,0.0,-1.8783988,0.0,1.3106097,0.0,1.0679189,0.95469916,-0.0,0.0,0.0,-0.8317071,1.8055458,-1.625912,-0.0,0.0,-0.0,-1.4588099,1.4498072,2.5458846,-1.592152,0.974425,-1.10218,-0.0,-0.0,-0.0,0.0,2.358784,0.0,-0.0,-1.9309031,-1.4698682,-0.97860366,1.3236985,0.81629115,-0.0,1.7984627,-0.0,1.4150598,-1.5552503,0.0,0.0,-0.0,0.9480817,-0.0,-0.89578587,0.0,-0.0,0.0,0.975211,-0.0,0.0,0.99903196,-2.1518679,-0.9548407,-0.0,-1.0977551,-1.625018,0.0,-0.0,-2.0479426,-1.2776775,0.0,-0.0,0.0,-0.7264486,0.0,-0.0,1.6651787,-1.5749476,0.0,-0.0,1.7075195,-0.0,0.0,1.4283929,-1.2668235,-2.045474,0.0,0.0,-0.0,0.0,1.0454252,-0.0,0.0,-1.9359952,0.0,-1.0877881,1.221975,1.0365714,0.0,1.0220375,-0.7525431,0.0,-0.94112617,-0.0,-0.0,1.6337869,-1.8064568,1.3294214,-0.0,-0.0,0.0,-0.82731676,1.1209848,0.0,-0.0,-0.0,-0.0,1.3909807,1.6162994,-1.3948863,-0.0,1.2711173,-0.0,-0.0,-1.4992086,-0.0,-0.0,0.92993665,0.0,0.0,-0.99648964,-0.0,0.0,-0.0,-1.9526242,2.084687,0.0,0.0,-0.0,-0.0,-0.0,-0.0,-1.78156,-0.0,-0.0,1.1501344,-1.0492332,0.8768566,0.0,1.1317524
1.609932,0.0,1.2769005,-0.0,-1.0488201,0.9367665,1.2305992,0.76743674,-0.8696755,0.0,0.0,0.0,-1.2309448,0.0,-0.0,0.0,0.0,0.0,1.347157,-0.0,-0.748383,-0.0,1.9266702,-0.0,-0.0,-2.0227585,-1.2497647,-0.0,-0.7714782,-1.1904241,1.4196384,-0.0,-1.1716505,0.78865945,1.2978144,2.0790298,0.0,0.0,0.8924906,-0.0,-0.0,0.0,-0.0,0.90672016,1.8403274,0.0,1.1722519,2.1038997,-0.0,0.0,-0.7597026,0.7533742,0.8247539,-0.0,-0.88767016,1.4174088,1.3580393,1.6483179,1.2412674,1.1293774,-0.0,-2.5974467,-0.0,-0.0,-1.733487,0.0,0.0,0.0,0.8351163,0.8294596,0.73141825,0.0,0.71595734,-0.8277747,-0.0,1.7701434,0.0,-0.0,0.0,-0.88458985,1.2857918,-1.1227717,-0.0,0.0,1.7977707,-0.86646867,0.0,-0.7834705,-0.7876339,-0.7759783,-1.3617525,-0.0,-0.0,0.0,0.0,0.0,1.0166711,-2.6094966,-0.0,-0.0,-0.0,1.0538017,0.9415025,-0.73187906,0.74693435,-1.6971031,1.2952839,-0.0,0.0,-0.7598734,-0.7346713,-0.0,-0.9725654,0.0,1.3450354,-0.7734812,-0.0,-0.0,-0.0,-0.0,-1.6355767,-0.0,0.0,0.0,-0.7843284,-0.0,-0.0,-0.0,1.6653789,-0.0,-0.0,-0.0,0.8228445,0.0,2.12386,-0.8011023,2.2471135,-2.4866118,-0.0,-1.9499774,1.5170975,0.0,0.0,1.1366955,-0.0,-1.9238721,0.0,0.9304107,2.142001,1.390713,0.0,1.3095437,-0.0,0.0,1.3536509,1.8027121,-0.0,-1.1405294,2.2504966,-0.0,-0.0,-0.0,0.0,0.0,-0.0,-0.0,0.0,-0.0,0.0,-1.9126734,-1.8337895,1.6420214,-0.0,-1.1651764,1.4027655,0.0,-1.8812225,0.0,0.0,1.4659474,1.6624951,-1.9915583,-0.0,0.0,-0.0,0.0,0.0,0.0,1.6491231,-0.0,1.4316356,0.0,-0.0,1.6098489,-0.9100105,0.0,-0.0,-0.0,-1.4927932,0.0,-1.5417751,0.0,-1.2409269,-1.1418493,0.0,0.0,-0.0,0.9463354,1.086161,-0.7109311,-1.0461359,0.0,-1.0627441,0.0,-1.2581291,0.0,0.0,-1.9725664,0.0,-0.0,0.7183407,1.5269393,1.4335011,-1.5117729,0.0,-0.0,-1.1296165,-0.9380517,1.0887897,0.7502233,-0.0,-0.0,-0.0,-0.0,0.0,1.3259704,-1.2692099,-1.7617142,0.0,0.0,-1.0584213,0.0,0.0,-2.4433434,-1.6634411,0.0,-0.0,-1.034063,-0.82664883,1.8545017,0.0,-1.4300089,0.0,0.89792275,0.0,0.0
1.4100724,-0.0,-0.0,2.1175008,-0.9156848,0.0,-1.090264,-1.1601871,1.7187617,0.0,-0.0,0.9547011,-0.0,0.0,-0.9041547,-0.0,1.3747439,-0.0,0.9581886,-0.0,0.0,0.0,1.1907188,1.0704836,0.0,-1.0623043,0.0,-0.79519224,0.0,-0.0,-1.2610098,1.7932117,0.0,-0.0,0.8046533,0.0,-0.0,-0.81753457,0.9869312,-0.0,1.8338741,0.0,-0.0,0.0,1.8606522,0.9977597,-1.378258,-1.1035872,-0.0,-1.5635248,-1.3716354,-1.046308,-1.2170826,-0.0,-0.0,1.2095867,-1.0960802,-0.82016814,-0.0,-0.0,1.3247626,-0.0,0.0,0.0,0.7977373,0.9232419,0.0,1.5432104,1.1894702,0.0,0.0,0.0,-1.1320332,-1.2946533,-0.9912831,-0.0,1.7711473,1.4919417,-0.0,1.1171095,1.0710245,1.110646,-1.5520415,1.2677668,0.0,-0.0,-1.6071403,0.79986495,0.0,-0.0,0.89453226,-1.0163192,0.0,0.0,-0.8874471,-0.0,0.0,-1.8358731,0.0,-0.0,-0.0,2.328288,-0.0,-0.0,-0.0,-0.0,0.0,0.0,-0.8792889,-0.0,2.4311304,1.167174,0.0,-0.0,0.9737985,-0.9299895,-0.0,-0.0,-1.3939129,1.609347,1.8176731,-0.9095759,-0.0,2.4453359,0.0,1.1935111,0.0,0.0,1.5725275,0.0,1.2904732,0.0,0.0,0.8818261,-0.0,0.0,-1.3411645,0.7896373,-1.2325952,2.6198585,0.0,0.0,0.0,-0.0,0.887473,0.0,-0.0,0.0,0.0,-0.0,0.9262846,-0.0,0.86379546,-0.0,1.3093616,-0.0,0.0,0.0,-0.875091,-0.0,-0.8001258,-0.98604757,-1.8954465,2.2646136,-0.0,-0.0,1.3367152,-0.9706789,-1.0012727,-0.9974224,0.7892498,-0.0,0.0,0.0,1.5111926,1.0150863,0.0,0.0,-1.2591213,-1.1793164,0.0,-0.0,0.0,-1.9191638,0.0,-1.3848778,0.0,-0.9604472,1.2223526,0.8515999,0.9277259,1.0893205,0.0,-0.0,0.0,-3.278962,0.0,1.1806623,0.0,-1.2573491,0.0,-0.7948669,-0.0,-0.0,0.0,-0.0,0.0,1.0655429,-0.0,0.0,-1.2129787,-0.0,-0.0,1.7544599,-1.9640244,0.0,2.2636762,-0.8747492,-0.0,0.0,-1.3082459,1.4948304,0.0,0.0,0.0,2.3198812,-0.0,0.8270093,-0.0,-0.8559468,-0.0,-1.3115278,0.9102229,-0.0,0.0,-0.0,1.3003548,-2.202889,-1.0484555,1.8791595,0.0,1.1015922,1.129157,1.2254742,-2.481218,-0.8822593,1.0220648,0.0,-0.0,-0.0,0.79309154,0.0,-1.5633423,0.97719616,-0.0,-0.99622273
0.0,0.8435109,0.0,-1.8635784,1.2168826,-1.2007297,-0.8882353,-1.1144835,-0.0,0.8815282,-1.0154433,-1.0043632,-0.0,-0.0,-0.0,0.0,1.3779291,-0.0,0.0,-1.0496404,-1.4624969,0.0,-0.9421059,1.7317984,0.89291924,0.0,0.0,0.95381033,-0.0,-0.0,-0.96295047,-1.1429317,-0.0,-1.336994,0.0,-0.0,-0.725347,-1.6725456,-1.2557101,0.0,1.4783351,-2.5896785,-0.0,-0.84365445,1.2201434,0.0,-1.4456035,0.0,-1.4506595,3.1756122,-0.8702384,0.0,-0.0,-2.1697297,-0.0,2.589113,0.0,0.0,0.0,0.0,1.15362,0.0,-0.0,0.0,-0.0,-1.1802361,-0.0,1.6658989,0.0,0.8817545,-1.4612106,0.0,0.76425195,0.0,0.7681595,-0.7755969,0.0,-0.0,-0.0,-0.0,1.860219,0.0,1.7766325,-0.0,-0.0,0.0,-2.272411,-2.1523802,1.2205409,1.1613005,0.0,-0.0,0.0,0.0,-0.8989538,-0.0,0.0,-0.0,0.0,1.1265316,-0.8817928,0.8972792,-0.0,1.1624414,1.5319234,-0.97062296,-0.0,-1.1019412,-1.4953221,0.0,-0.0,-0.0,0.0,0.0,-1.0308639,-0.0,0.0,-0.97125846,1.404386,-0.8865967,0.0,0.0,0.0,0.7754955,0.0,2.324005,-0.0,1.3219879,0.0,-0.0,-1.0884666,-1.3533467,-0.73568213,2.0585515,-0.0,1.4657872,1.3831165,-1.1885186,2.3440557,-0.0,1.0108916,0.92235094,1.558202,0.72713983,2.483047,-1.1331705,0.0,1.6280723,1.4418682,0.0,1.3563013,0.8671703,0.0,0.0,-1.1892542,0.0,1.6683654,-1.4151474,1.6258777,1.5066195,-0.0,-1.4998478,-0.78501844,-0.0,2.1670744,0.7675239,-0.0,-0.0,-1.8656404,-1.8324668,0.0,-0.0,0.0,-1.101649,-0.0,-0.0,-1.1085805,-0.86819106,0.0,-0.0,-1.1483934,0.72638947,0.0,1.4595556,-1.0688444,0.0,0.0,-0.7561797,0.0,0.0,-0.0,-0.7927556,0.0,-0.0,-1.7529055,-0.0,-0.7540401,-1.5221074,-0.0,-0.0,0.0,-0.0,-0.0,-0.9435377,-0.0,1.0991076,1.1048764,0.0,0.83125633,-0.9114237,0.7696597,0.0,0.74841917,-0.0,0.0,-0.0,-0.0,-0.0,0.0,-0.0,-1.3446097,-0.0,-0.0,-1.3531635,0.0,-0.0,1.1025572,1.2222565,-0.0,-0.0,-1.4166129,-0.0,0.0,2.0088444,0.9448184,-0.0,-1.7166156,-1.0658,-0.0,-0.0,-0.0,0.7434812,0.0,-0.0,0.0,-0.0,-0.0,-0.91825306,-1.3406093,-1.0523151,1.2877733,-0.0,-0.753037,-0.0,-0.9487928,0.9395002
-1.2389483,-0.0,-0.0,0.0,0.0,-1.3566315,0.9452759,0.87480485,1.1804479,0.99038905,-0.0,0.7604453,-0.0,-1.1705115,1.6809235,1.3383437,1.1152858,-0.0,-0.0,1.0267993,0.0,0.76980376,-0.0,-0.7613388,-2.884167,2.0218382,-2.0276437,0.89160824,1.2451186,-0.98237634,0.0,2.11461,-0.0,-0.7422072,-1.2489341,0.0,0.0,-0.0,-0.0,-0.0,0.0,0.0,-1.0847106,1.8147645,-1.0867035,0.0,-1.490264,0.0,-0.9110649,-0.92177874,-0.0,-0.0,-0.0,-1.0764576,1.0088475,1.2029719,-0.0,0.69027,0.0,-0.0,-0.0,0.0,0.0,0.9768674,-0.0,-0.77708226,0.0,0.0,0.0,1.3347648,-1.3429253,-0.9347905,-0.0,-1.5066923,0.0,0.0,0.7616851,-0.0,-0.0,0.0,0.6918035,0.8184013,0.0,0.89790183,-1.0285586,-2.1668549,-0.0,-0.70160335,-0.0,-1.701343,1.0170497,0.0,-0.0,-0.7760697,0.0,1.062686,0.0,-0.8820782,0.0,0.0,0.0,1.066475,0.0,-0.0,0.0,1.2771902,-0.0,-0.0,0.0,1.9695374,1.169585,-0.0,-0.0,-0.0,0.0,0.9261895,0.0,-0.0,0.0,-1.6193241,0.81412894,1.5365895,-0.0,-0.0,-1.7354959,-1.4309407,1.1402766,-0.8964419,-1.9512061,-1.8908288,-1.1718119,-0.0,-0.0,-0.90093017,-0.0,-0.0,0.91082877,-0.0,-0.0,-0.0,0.89327025,1.1272432,-0.961328,-1.1774384,-0.0,0.0,-0.0,1.0160437,-0.96222585,0.73205197,-1.7783533,-0.0,2.256015,-0.0,-1.7992818,-2.2904997,-0.0,2.8075273,0.0,-1.322897,0.0,1.723663,0.0,-0.0,0.8905917,1.7561511,0.0,-0.0,0.0,-1.0163815,-0.0,0.0,0.0,0.7186229,-2.7094033,0.0,-0.0,-0.8644545,-0.9856861,0.0,-0.0,1.1514997,0.0,-0.0,-1.0307436,0.7715393,-0.0,0.8309081,-1.1460837,-0.0,-0.7400473,-0.7706399,1.4938649,0.7361372,0.91133016,0.0,-0.7136575,-0.85444295,0.0,1.7030469,1.3082976,0.0,0.0,0.0,1.2189934,1.1707723,2.0568924,-0.0,0.0,-0.0,0.0,-0.0,-0.0,-0.0,0.0,0.8362576,-1.5945837,1.0058882,0.93987185,-0.0,0.0,0.0,-0.0,2.3537698,0.0,-0.0,-0.82674605,0.0,2.49541,0.7798177,-0.0,1.560762,-0.0,0.0,-1.4185671,0.0,0.0,0.0,-2.2322552,0.0,-0.7802497,-1.0416325,-0.0,-1.630823,1.917855,0.0,0.9942998,0.0,1.0823171,1.2805703,-0.0,0.973544,-0.71026134,1.0052674,0.0,-0.0
-0.0,-0.0,1.4294254,-1.3867309,-1.91943,-0.0,0.0,0.0,-0.0,-0.0,-0.0,0.0,0.78358006,0.83660525,-1.5963433,-0.86721593,0.0,0.0,0.0,-0.8138115,0.73719686,1.7871214,0.7813593,-0.9380312,2.101877,1.0501386,0.0,-0.0,0.0,-0.9631284,-2.2121084,-0.0,1.2586818,-1.0104879,0.0,-1.4451168,0.7989172,-0.0,0.0,0.7254816,-0.0,-0.8091462,1.9767735,0.0,0.0,0.0,0.0,2.170756,0.0,1.6184212,-0.7870701,-1.9358292,0.0,-1.6029485,2.25163,-1.193077,-0.0,0.0,0.7862313,-0.0,0.0,-0.7076997,0.99997985,0.0,-0.82725483,2.4519496,1.7487024,-0.7315098,0.0,-0.0,0.0,-0.0,-0.0,-0.0,-0.0,-0.0,2.013338,-1.1485631,0.0,0.0,-0.0,-1.6201214,0.98294294,-1.6658356,0.0,-0.0,1.0446385,-1.327545,0.0,1.2061355,-0.9641611,-1.492995,1.501354,0.0,0.0,0.0,0.7394146,-1.0553153,0.0,0.77734685,-1.1633468,0.0,-2.0126915,0.0,-0.0,-0.9536002,0.0,1.0415413,-0.0,-0.8907897,-0.0,-1.2957611,-0.0,-0.8255762,-0.0,0.0,0.8517824,1.3107499,-0.0,0.74385375,0.0,0.89460665,-0.0,1.294296,0.0,-0.0,-1.6460673,-0.0,-1.0458729,0.7341064,-0.0,1.1449689,0.0,-0.0,0.0,-0.67400044,-1.7220637,1.9560219,1.563161,-0.0,-0.0,1.2430345,-0.96725005,0.8172223,1.3696126,-0.0,0.0,-1.5911245,-3.1956184,-1.85902,-0.0,0.0,-0.0,1.1983726,1.3958058,-1.0080411,1.1279104,-0.0,-0.0,1.6522694,1.1882473,2.0114772,-1.5750209,-1.1381674,-0.0,-0.0,1.7437464,-0.0,-0.96853673,0.0,-0.0,0.0,1.675578,-0.0,-0.0,-0.0,0.0,0.78530437,-0.0,1.3673353,0.0,0.0,-0.92375696,1.1695507,0.0,0.0,-1.5180931,-0.0,0.9993218,-0.65453357,2.8530164,-0.0,1.5055475,-0.0,-0.0,0.0,-1.6508646,0.0,0.0,1.0933164,1.4278959,1.210451,0.0,-2.5021625,-0.8422837,-0.0,0.0,0.0,-0.0,1.8161261,-0.949514,-0.0,1.8822405,0.0,-0.0,0.0,-0.73885316,1.2711172,0.0,0.0,1.0554919,-0.0,-0.0,-0.0,-0.0,-1.1857357,1.2416248,0.0,-0.0,-1.6223322,-0.0,-1.0643755,0.98514247,0.7938252,-0.0,-0.0,-0.0,-0.0,-0.0,0.7494674,0.0,-0.0,-0.0,0.7566532,0.0,1.447293,0.0,-0.0,-0.844668,-0.8567727,-0.8854146,1.3212287,0.89597166,0.73555434,-0.0,-1.8135924
1.1410778,-1.2355471,0.0,1.2162791,-2.0271802,0.0,-0.0,-1.1748958,-0.0,1.626834,-0.84923637,0.0,-0.0,0.0,0.8535582,1.0927917,1.410732,-1.6835343,-0.9728469,-0.0,-2.5033271,0.0,-0.0,0.0,-1.3870444,0.0,0.0,0.0,0.0,0.0,-0.0,0.0,0.0,-0.0,0.0,0.79147595,-0.0,-0.0,-0.0,-2.2229373,-0.90252024,-1.1667988,-1.9555522,1.0513266,1.3348651,0.88118386,0.0,-0.0,1.060026,1.2251399,0.0,-2.2493162,0.0,-1.1894681,0.0,-0.9887046,0.0,1.1321738,0.0,0.0,0.0,-1.7479006,-1.4298376,-0.7812664,0.0,0.0,1.0476608,-0.8993806,0.0,0.0,0.0,-1.6459348,-0.0,1.2363962,-0.0,0.0,0.7783468,-0.0,-0.0,1.4109442,-0.8522545,-1.0493302,-1.5335758,-1.1366959,0.0,-1.1120614,-1.318791,-0.0,1.380347,0.0,-1.2535456,-0.0,-0.0,1.2280436,0.0,0.0,-0.0,0.0,1.6069922,-1.3448442,0.0,-0.0,0.0,-0.0,0.0,-0.0,-0.0,-0.0,-0.0,0.0,-1.1905844,-1.0093826,0.99814284,0.0,-1.4261916,0.0,-0.92799205,-0.0,-0.0,0.0,-1.4000763,-0.0,2.3716054,-1.1623307,-0.0,2.736332,2.4735074,-0.9298469,-0.8941953,0.0,-1.1555012,1.1441417,0.0,-0.96006435,1.1419963,0.0,-0.0,-0.0,0.0,0.0,-0.0,0.0,-0.0,1.3637911,1.7822896,-1.611523,-0.0,1.1224929,0.0,1.0426637,2.0331943,1.7924696,0.0,0.0,-1.3201667,-0.0,-0.9487585,-1.3401148,0.95897704,1.2262248,0.0,-0.0,-1.1812598,-0.0,1.0192882,-0.0,0.97353065,-0.0,0.0,-0.0,0.0,-2.3413773,0.0,1.4742514,1.6460664,1.1339965,0.0,0.0,0.7665224,0.969486,-1.0254382,1.9767385,2.1503086,1.8057767,0.0,1.3073436,-2.281599,-0.0,-0.0,-1.091835,-0.0,0.0,-1.1894884,0.0,0.0,-1.3384899,0.0,-0.0,0.8940684,-0.92520815,0.97035784,0.0,-1.498681,0.0,0.0,0.0,-0.0,-2.543846,2.1232393,-0.0,0.881234,0.9905418,0.0,1.9314196,1.1125964,0.0,1.8029966,0.0,-1.4073329,0.82897854,-1.7289027,1.6500766,-0.9005195,-0.9005531,-0.0,0.0,0.0,-1.5603411,1.2136974,-0.0,-0.0,0.8748726,0.0,1.5087522,-0.0,-0.8879027,-0.0,0.0,-0.0,0.0,0.7758034,0.0,1.0704932,0.0,-0.0,-0.8647948,0.0,1.0385691,-1.1210539,1.1354829,-0.8577565,-0.0,-1.9603697,-1.0249922,1.7394226,1.8783977
-3.2757552,-0.0,-0.0,-0.0,-0.99669075,-1.2465287,-2.2615812,-0.0,1.6469842,1.1995736,0.0,2.5150928,-0.0,-1.7906641,1.6849577,0.0,1.0337559,-0.0,2.4113338,-0.99762017,1.237869,-1.0803871,1.2800838,-0.9115916,0.78962916,0.0,-0.0,0.0,0.9037779,1.5776145,-1.1287258,-0.0,-2.0450587,0.0,0.0,-0.0,0.0,1.3771079,0.0,0.0,-1.4484901,-0.0,0.0,-1.1339027,1.1161659,-0.0,2.2146533,0.0,0.0,0.0,-0.0,0.0,1.0582849,-0.98379815,-1.0474652,1.1655291,0.0,-0.0,-0.0,2.1109924,-0.0,-2.179514,-0.0,-0.0,-0.0,-0.8189865,0.0,1.3605522,1.2005345,0.8611531,1.3076178,-1.1342273,-0.0,0.0,0.0,1.3214841,-2.1407943,-0.0,-0.0,-0.0,-1.6851348,-0.0,-1.4780226,1.1326473,0.91858035,-0.0,1.5836662,-0.0,-0.0,1.1303157,-1.5312444,-1.3657126,-0.0,1.3777635,0.0,-1.6909553,-0.0,-1.3564249,0.0,-0.0,-0.0,0.0,0.0,1.2450132,-1.4788971,-2.431479,1.9352285,0.0,0.0,-1.3885539,-1.8072711,2.6589284,0.0,0.0,-0.0,-0.0,-1.9292803,3.0343473,1.2942091,-0.0,-0.0,-0.0,-0.0,0.0,-1.0793126,-0.0,-0.0,-0.0,-0.7509328,0.0,-0.95520216,0.0,-1.0943758,-2.3218265,1.0624932,1.4571978,-0.7781048,1.5875181,0.0,1.8213191,0.0,-0.0,0.0,-0.841889,1.225306,1.2978754,0.0,0.0,0.0,-1.5742552,-0.0,0.0,-0.8576929,-0.0,1.0992122,1.5786124,0.0,-0.0,0.0,-0.0,-0.0,-0.0,0.8722692,-1.1615005,-1.1215588,1.5026001,0.0,-0.0,-0.0,0.0,-1.0276539,-1.3233584,1.2159666,0.0,1.8465593,1.120802,2.2129853,0.0,-0.97116786,-0.8936861,2.6835954,-0.0,0.0,-1.8686225,0.0,-0.0,-0.0,-0.0,0.0,1.4365664,-0.97873586,-1.6165924,-1.0778863,0.0,2.9379718,-1.1259276,0.0,0.0,-0.0,-0.0,-0.0,0.9723491,-2.3287985,2.11555,0.0,0.0,0.0,-0.0,-0.0,0.0,-1.6469576,1.5171939,0.0,-1.0705354,0.0,0.97856355,0.0,0.9022324,1.0580263,-1.3967737,-0.0,0.9659228,1.3571905,-0.8970018,0.0,2.0233226,-0.0,-0.7677371,0.0,-1.4151498,0.0,-0.8257867,0.84243155,0.0,-0.0,-2.3868048,1.7631637,-2.5060148,-0.9345194,0.0,0.0,-0.0,-2.345785,1.8290492,-0.0,-0.0,-0.956562,-1.3728245,-1.6475201,-0.0,-0.0,1.1555474,0.0,-0.0,0.8703353,-0.0
-2.5677185,-0.0,0.7372554,-1.5060165,0.0,-0.66063493,1.0583909,-1.4058251,-0.0,0.0,0.0,0.0,-1.0663095,-0.0,0.0,0.0,-1.1953243,0.0,-1.4397984,-0.68927574,-0.0,0.0,-0.0,-0.0,-0.99059874,1.0371445,1.4439352,-0.0,-0.0,0.0,0.7183075,-1.9803644,-0.0,0.0,-0.0,0.734063,-1.4606827,0.0,-0.80574644,-1.084911,-1.6174709,0.7040045,1.4956639,-0.0,0.8190142,1.6974511,0.6761595,-0.0,0.0,-0.8158651,-0.84041536,-0.0,-1.0955243,0.0,0.0,-0.77249205,-0.0,-0.0,3.642942,-0.94785595,-1.3845929,0.0,-0.0,2.5044117,-0.9594938,0.0,-2.2734141,2.4513423,2.2207143,1.0135362,2.496109,-0.86932856,0.7467241,-0.88401675,-0.0,-0.0,0.0,0.6900096,1.2050471,-0.0,-1.4559594,-0.85474294,0.0,-0.0,0.0,0.0,-0.9374046,0.8787356,-1.3719387,0.0,0.0,-0.0,0.8366317,0.0,-0.0,-2.2256966,-1.0169681,-0.8834164,-0.0,1.9532512,-0.81602365,0.0,-2.736304,-1.8297076,-2.2856445,-0.0,-0.0,1.2387613,0.0,-0.0,0.0,0.0,1.0158849,2.0918005,1.4791566,0.8512997,0.0,-1.3333638,-0.9322386,-0.0,-0.0,0.0,0.0,-0.0,-0.0,-1.6406467,-0.0,-0.0,-0.686004,-0.78987193,-1.0344232,-0.7142224,0.0,1.3826554,-0.0,-0.0,-0.0,-0.0,-1.3365053,0.9657434,0.9054908,1.0084652,0.64344627,0.0,1.6628523,2.4208872,-0.0,-1.0071595,-0.82900167,-0.0,1.7014173,-2.067603,-0.0,0.0,-0.6811637,-0.0,0.0,-2.262035,0.0,-2.148826,0.0,-1.1042197,0.0,-1.1128621,1.3095969,0.8904231,-0.0,-1.0787855,0.0,1.1243925,1.0011529,-0.0,0.0,-0.0,0.9295987,0.72372097,0.0,-0.0,-0.0,0.0,0.9055289,0.9104896,-0.0,0.7439257,-0.0,0.9064418,-1.4319355,-0.0,1.4645739,1.1682649,-0.0,1.2484397,1.5117154,0.0,0.0,-0.0,0.0,-2.3215923,0.7771561,0.69064313,0.0,0.0,-0.0,0.93723327,-0.0,0.0,-1.3232079,0.0,1.3598223,-0.0,0.0,0.0,2.0459132,-0.0,1.0525097,1.2737505,-0.0,-1.7808651,-0.0,0.0,0.0,0.0,-1.1055557,0.0,2.3451252,-1.6874846,0.0,0.0,1.848879,-0.6477845,0.0,0.0,-0.9522668,0.0,-0.0,-0.0,-0.0,1.1023027,-0.0,-0.9776798,0.71508944,0.0,0.87963206,-0.0,-0.0,0.6894879,0.0,0.0,2.6370585,-0.0,0.0,-1.8253381,0.6697347,-0.0,-0.0,0.0
1.195776,0.7688346,0.81509924,-2.4696386,2.134206,0.0,0.0,-0.0,1.326797,0.0,1.1184813,-0.0,0.0,-0.0,-0.0,-0.8938582,-1.8440286,0.0,0.0,0.0,1.2262061,1.3094748,1.4998449,-1.6021141,0.8793103,0.0,0.9133441,0.0,0.0,0.0,-1.2173032,0.0,-0.0,0.0,-1.5298344,-1.5959759,2.1719434,2.377897,0.0,-0.0,0.80458415,0.0,-0.75758666,0.0,-1.2578129,1.3409916,0.0,1.7409896,-0.0,1.4982407,-0.0,0.0,1.1285316,-1.0499346,0.91959953,-0.0,0.0,1.1105691,0.0,0.0,0.76984096,-0.0,1.1457416,0.0,1.9629742,2.097906,0.0,0.9523835,-0.87292486,-1.8191587,-0.0,-1.0147135,-0.0,-1.1761674,2.083203,-0.0,1.7829368,-0.0,-0.0,0.0,-0.0,1.858321,1.3029532,-0.0,-0.0,0.0,-0.93002313,0.0,1.1633965,0.9839009,-1.1187845,0.0,0.0,-0.0,-1.4073614,-0.0,-2.1820436,-0.0,-0.0,1.3278215,1.6087558,-0.0,0.0,-0.0,-1.0301839,0.79305184,2.0256624,0.0,0.0,-1.7647271,-0.0,-0.0,-0.0,0.0,1.0454311,0.0,2.948158,-0.0,-0.0,0.0,-0.0,-0.0,0.0,0.0,0.9100459,-1.7327694,-0.0,-0.82157344,1.0295954,-1.8882675,0.0,-0.0,1.6854258,0.0,-0.80584556,-2.3087344,-0.79681504,0.0,-0.0,-0.0,-0.0,1.1746596,-0.0,-1.2187959,0.0,-1.8068573,0.0,-0.0,0.0,1.0363328,0.90841424,-0.8591472,-1.2129924,-0.0,-0.0,0.0,1.2377225,0.85367185,1.2285949,0.0,-0.0,-0.0,-1.9304405,0.0,-0.0,1.4251903,0.8403634,-0.0,0.0,0.0,-0.79199624,1.9028797,-0.0,-0.76331586,-0.0,-1.2030686,-0.0,1.1117737,0.90601707,0.0,-0.0,-0.9989987,0.0,-1.1499437,-0.8588185,-0.0,-0.9001125,0.0,-0.76702654,-0.0,1.7400624,2.2761974,0.0,1.4408039,-0.0,-0.0,0.0,-0.0,0.80060846,0.0,-0.0,-1.2851325,-0.0,2.4460077,-0.0,0.0,1.0940785,-0.0,-0.0,-0.0,-1.2016734,-0.92642206,0.90666884,0.0,-0.0,-2.797804,2.0157146,-0.0,-0.0,1.3806853,-0.0,0.0,1.6748179,-1.4094173,1.0057219,-1.7096001,-1.8045993,0.0,-0.0,0.0,1.4764677,1.5289048,-1.0633467,0.8329035,1.5054505,1.4999669,1.1868744,-2.0784287,0.92797107,-0.0,1.2599435,-1.5741913,-1.3167177,-1.143992,0.0,-0.0,-0.7964624,-1.1908852,1.4184773,1.3907561,-1.5486292,-0.0,-0.0,0.0,1.0764581,-0.0
1.1022055,-1.8810754,1.1745389,-0.0,-1.9074662,-0.0,-1.0875226,-1.0273638,2.2198,0.0,1.1379786,1.0633473,0.0,0.0,-0.0,-1.5559894,0.0,0.0,0.0,0.94963783,-0.0,-0.0,1.7977747,-3.030697,-0.0,-1.2595522,-0.0,-0.70800483,1.1792096,-0.0,0.0,-0.0,-0.0,-0.0,-1.8905262,0.0,-0.0,0.72625303,-1.0158046,1.2914537,0.98617643,-1.736314,-0.0,-0.0,-1.1630119,-1.6388575,1.5547031,0.0,-1.112512,-0.87498105,-0.7590262,-0.844831,1.8157997,0.0,0.0,-0.0,-0.0,-1.0023297,-0.0,-0.7641822,-0.0,-1.6973212,0.76880443,0.72331125,-0.0,1.1339812,-0.0,-0.7317948,0.0,1.144487,-0.0,-0.75831145,-0.0,3.205498,-1.192105,0.0,-0.0,-1.9740345,-0.0,-0.0,-0.0,0.0,-0.0,0.71917176,0.0,-0.0,1.5945106,-0.7344279,0.0,-0.0,0.0,-0.0,-0.0,-0.0,0.0,0.848417,0.0,0.0,0.0,-1.0809587,-1.0826486,1.4223,0.8558519,0.7426781,0.0,1.4213923,-1.6007553,0.0,-0.0,1.7089186,0.0,-0.0,0.0,-0.0,-0.0,-1.4095626,-0.0,-0.0,-0.7608603,-0.0,-0.0,-2.1499295,1.3493178,-0.0,-0.7645451,-0.77802306,1.9060379,-1.7200165,-0.8534163,-2.9543974,-1.3189787,1.4562899,0.0,2.2215395,1.2504066,0.0,-0.0,0.0,1.7887412,-1.175846,0.85515493,-0.0,0.0,0.0,0.0,-1.7196374,-0.8282708,1.5028347,-0.7980347,-0.0,-0.0,0.77616626,0.0,-1.66801,0.0,-0.0,-1.6669724,0.0,1.7079759,1.8721008,-1.5949636,-1.1243353,0.0,0.0,0.0,1.0689656,1.3758805,-0.0,-0.0,1.0091537,-0.0,-0.0,-0.0,0.7924413,-1.8105332,1.3392024,0.0,0.7799577,-0.0,-0.943221,2.2691605,-2.939274,1.5348206,-0.0,0.0,-0.80626833,-1.9325727,-0.0,-0.0,-2.7568922,-0.0,-0.0,0.0,0.8558139,-0.0,-1.1133212,-1.1673212,0.0,0.0,-1.4362817,-0.8396924,0.85529315,0.0,1.0096263,0.0,-1.2129005,-0.0,1.4741992,0.0,0.90796006,1.3341005,-1.9771963,-0.85362226,1.0516658,1.3511932,-0.0,-0.0,-1.2538558,-0.7457905,-0.0,-0.0,0.0,-0.0,0.0,2.263163,-0.9792123,-1.2475613,0.0,-0.0,-0.0,-0.0,-1.10603,-0.0,-0.8176052,0.73835117,-0.0,-1.1802195,0.8589083,-0.90766156,-0.0,-1.089607,-0.0,-1.6665529,-0.9924365,-0.0,-0.0,0.0,-0.0,-1.0116719,-0.0,0.8218738,0.0,-0.0,-0.0,-0.0,-0.0
1.8305445,-0.0,-2.2456121,1.4356114,-0.0,0.0,-0.7067985,-0.89622915,0.71363986,-0.0,1.6651702,0.9928214,-1.4927866,-0.0,-1.6217415,0.7307855,-1.5324244,0.8475445,-0.0,-0.7267607,-0.0,0.0,0.0,-0.0,0.97454834,0.0,-0.0,-0.0,-1.1123238,-0.0,-0.8970802,-0.0,0.0,1.1891352,0.839334,2.1199412,2.2332146,0.0,0.0,-0.0,-0.0,-0.0,0.9989901,1.8726382,-1.599751,1.3512659,0.0,0.0,-1.0736619,0.0,-0.7317701,0.77247393,0.0,0.0,1.3718727,1.3633213,-1.2729826,0.81839275,-0.0,-0.7545703,2.3990593,0.0,-1.6316141,-0.0,2.110544,-0.0,1.0519295,0.7204053,-0.89042026,-2.19354,-0.0,0.0,0.0,-0.0,-1.2765217,-0.0,-1.206911,0.73607117,0.0,0.6995942,0.0,0.0,-0.0,2.5953336,-0.0,-1.71941,-0.92794365,0.9288712,0.7280699,-0.0,0.0,-0.7276087,-1.3288761,-1.0711918,0.0,-0.75361466,-0.0,-0.8532526,-0.0,-0.0,-0.0,0.0,0.68425095,0.0,-0.9957322,1.1393495,0.0,-0.0,0.0,0.0,0.0,-0.78190863,-2.4155588,0.99929893,-0.83602726,1.7543942,1.3284556,-0.0,1.0857081,1.4689445,-1.347407,-1.4497399,-0.8524562,-1.7897093,-0.0,-0.7570824,-1.3721987,0.0,-1.0461206,0.0,0.0,-0.0,-1.2928,2.8359714,2.3087504,0.0,1.1545299,-1.1971259,1.2848237,-1.6594341,-0.0,-0.0,-0.0,-1.9176848,2.2002358,-0.0,-0.0,-0.0,-1.4693301,-1.1843512,0.0,-0.83981,-1.1208873,-2.8897674,-1.1122628,-0.0,0.0,1.4455402,0.0,0.0,-0.85400796,-0.0,1.659261,0.0,0.71879226,-2.773104,0.9365332,0.0,-0.8508554,0.0,-0.0,0.0,-0.78387654,0.9809802,-1.1183337,-0.0,2.1786747,-0.0,0.8216278,0.6908198,0.0,0.0,-0.0,1.587971,-1.7362267,0.0,-1.4008274,-0.0,0.0,-0.0,-1.0171423,0.7142291,-0.0,-0.0,0.0,-0.82542574,-0.86468214,0.0,-1.037704,0.0,1.3243686,-0.0,-0.0,0.0,-0.0,0.0,0.0,-0.0,-0.0,1.0230176,0.0,0.0,-0.0,0.0,-0.0,0.75931966,1.9026946,-0.0,-0.0,-0.0,1.0281096,0.0,-0.0,0.0,1.7228903,-0.0,-0.0,0.0,0.88723767,0.0,-0.0,-0.0,0.0,0.0,0.0,1.2412945,-0.94323635,-0.0,0.8127898,0.0,1.5677316,-0.89292216,2.871321,0.7460431,0.7283037,0.0,-0.0,0.0,-0.0,-0.9399774,-2.15122,-0.0,-0.0,2.2926698,0.0,-1.283949
-1.1047534,0.0,1.3310314,0.8757017,0.0,-0.88885194,0.0,2.0370052,-0.0,-0.86052656,-0.9585209,0.76392734,-0.0,2.2267804,-1.1084117,-0.0,-0.0,-1.3854,1.0612977,0.0,-0.0,0.81160814,-0.0,-0.0,-2.224559,0.0,-1.2867712,0.0,1.1328933,0.85983413,-0.0,-2.0007186,0.0,1.213027,1.907026,0.0,-0.0,-1.7113111,-0.0,-0.0,0.9300986,0.0,0.0,-2.155633,-0.0,-1.0173254,-0.0,0.8170163,0.8966428,-0.9648379,0.0,-0.0,-1.2213663,-1.1357797,-0.0,0.0,-2.434617,-0.0,-0.0,0.0,-1.3177665,-0.0,-0.0,-1.6173208,0.0,1.0231454,-0.77631414,-0.76975846,-0.0,-1.3242198,-0.97110605,-0.0,0.7477459,-0.0,-2.0506265,0.0,0.0,-0.778196,0.0,1.1923244,0.0,0.0,0.0,-0.97214437,0.0,-0.0,-1.9874051,-1.3171103,0.0,1.2539297,0.0,0.0,-1.060226,-0.0,-0.8840248,-1.1833,-0.9528035,-1.3236457,-0.9718246,-1.0957444,-1.123455,-0.0,-0.0,-0.0,1.3639845,0.990748,-0.0,-0.0,0.0,-0.0,-1.6630299,0.0,0.0,-0.0,0.9535178,-1.695672,0.8881174,0.0,0.0,0.8656191,-0.0,-0.0,0.85945946,-1.620169,0.8987598,-1.460093,0.0,2.3888767,-0.9336487,-1.632744,0.78684855,-1.1008465,0.0,-1.4790642,1.0219958,0.0,0.0,0.87526315,0.0,-0.0,0.0,0.82563645,-1.539944,0.8554979,0.0,-0.9556076,-0.0,-0.0,-0.0,0.0,-0.83510154,0.8370851,-0.0,-0.0,1.106528,-0.0,0.7593633,1.0267186,1.2154064,-0.77510214,-0.0,1.4918556,-0.0,0.0,-0.0,1.9655613,0.0,0.0,-1.1510879,-0.0,0.90006375,-1.3099045,-1.4513265,0.0,-0.7779181,-0.0,-0.9897529,0.0,0.92515016,-1.8272609,0.0,-0.8300266,0.0,-0.0,1.3347777,0.0,-0.0,-1.5251139,0.0,0.79760355,-0.0,0.0,1.6528232,-0.98958087,-1.5076004,-1.4036396,0.0,0.0,-0.0,-0.0,0.0,0.79777735,0.0,-0.8452878,0.0,-0.0,0.0,-0.0,-0.0,0.0,2.348022,0.0,-1.1441888,0.92892665,1.6926068,0.0,-1.7602019,-0.0,-0.0,-1.4205639,0.7688101,0.0,0.0,1.2123629,-2.450825,-1.0385902,-0.0,-0.0,0.8755964,0.0,0.0,0.91454846,0.0,2.2656324,2.2125835,-2.6091633,-0.0,1.0774955,-0.0,0.0,-1.6712545,0.0,0.0,-2.004851,0.0,-0.9589961,0.8004088,1.2391955,0.0,-0.87670696,0.0,0.0,-2.6095266,0.0,-0.79981977,-0.0
-0.69165415,-0.0,-1.2731047,-0.0,0.0,-0.0,0.0,0.0,0.0,0.7461534,-0.0,1.4952143,-0.0,-1.3112413,0.9562824,0.9432156,1.1798973,0.0,1.1915818,-0.0,0.0,-0.0,-1.2739731,-0.0,-1.1583569,-1.297046,-0.0,-0.0,-0.98068506,-0.0,-1.6681012,-0.7715281,0.8643029,1.2636589,0.0,0.0,1.408875,0.0,-0.0,0.0,-0.7320133,0.0,0.0,-0.0,0.0,0.0,1.8359154,0.0,1.3630879,0.0,0.9761186,0.0,-0.0,1.2084246,0.0,0.98683155,0.8084051,0.77927256,-1.9667116,1.4788536,1.317957,-0.0,-0.0,0.0,-0.701716,0.0,0.0,0.0,0.0,-1.1834288,-0.7713319,-0.0,0.9632177,-0.0,1.0070008,1.1248262,-0.0,-0.9807959,-0.0,1.8404665,0.0,-0.0,-1.3862419,1.4448093,1.24896,-0.0,-0.0,-0.8983417,-2.3153431,1.8716708,0.0,0.0,-0.0,-1.8008778,1.4632127,-1.6611936,0.9106852,0.77601737,-0.0,0.0,-1.8203231,-1.0649713,-0.0,0.0,-1.2425404,-0.86349064,-0.88842064,-1.1922505,-0.0,-0.916363,0.9595278,-1.4608374,-0.0,1.2035995,-0.8710914,0.0,0.0,-0.9104227,1.7840225,1.9358362,-0.0,1.1677424,-1.3768533,0.0,-0.0,1.0860873,-0.0,0.0,-1.2594153,-0.0,1.8665167,0.0,0.0,0.0,0.0,0.0,0.0,0.0,1.0413972,-0.0,-0.0,0.82643175,0.76562923,2.2221596,1.8737224,0.0,0.0,0.0,1.2959248,-0.0,-0.0,-1.2339313,-0.0,-0.88904643,-1.1822304,0.92747587,0.0,-1.3477163,-1.3883091,0.0,-1.294591,0.0,-1.5634106,-1.3115546,-0.0,-0.9639028,-0.0,-0.0,-1.7183719,0.8805952,-0.803864,0.98057973,0.88712895,0.0,0.0,-1.8400197,1.3197412,0.0,1.5172259,-0.0,-0.75090283,-0.0,-1.8275889,0.0,-2.9000943,-0.8263107,-0.0,1.343934,-0.0,-1.1109176,-0.87490284,-1.3246315,-0.8120115,-1.9399039,-0.0,-0.800153,0.0,0.0,0.0,-2.107417,-0.0,-1.5952528,-0.0,-2.0282998,0.0,-1.1805272,1.1189754,2.0289984,-0.0,1.3408521,1.075277,0.0,-0.0,0.0,0.0,-0.0,0.901005,-0.0,0.0,1.9289976,0.0,1.3450276,0.0,0.0,-1.5368518,2.4428873,0.0,-0.0,-1.5760311,-0.0,-0.0,0.0,-0.9099399,-0.9839919,1.2329789,0.0,-1.2167547,-1.465416,-0.0,1.6762583,-1.358224,-0.0,-0.0,-0.0,-0.0,0.9848782,-0.0,0.0,0.0,1.0404968,-0.0,0.0,1.5358733,-0.0,-1.3011736,0.0
1.5316917,0.0,-1.4140457,1.0181229,2.054793,-0.0,-1.8776158,0.0,-0.98469836,-0.0,0.0,-0.725158,0.0,-0.0,-0.0,-1.1023426,-1.1329395,0.73271024,-0.85981995,-1.229161,-1.1527944,-1.3980093,0.7066907,-0.0,1.109796,-0.0,0.0,0.0,-0.0,1.0423168,-1.0406166,0.0,1.3959154,-0.0,0.8210969,0.0,-1.5675077,-1.1634027,0.0,0.0,0.90027106,-1.4139881,0.0,-0.92340285,-0.0,0.6951112,0.0,-0.83427966,0.0,-1.0137197,1.0343511,0.9779312,-0.0,0.0,-0.0,-2.1068182,0.99421346,-0.0,-1.092983,-0.0,-0.0,-0.0,0.0,0.0,0.0,0.9831256,1.9039862,0.0,-1.6810865,-0.9101303,-0.0,0.0,-3.203032,1.433544,0.9986254,0.0,0.0,-0.0,-0.0,-0.83444625,0.0,-0.0,1.2536832,0.0,0.0,-0.0,-0.0,-1.6262854,-0.0,-3.3619998,-1.9914547,1.8997544,-0.0,0.0,-0.0,-0.0,-0.0,0.94873226,0.0,0.9164296,0.0,-1.0661553,-1.0082906,2.1085372,-1.7892153,-0.9866963,0.0,0.0,-0.0,1.5830669,-0.0,-0.0,-0.92185855,-0.0,-0.0,0.0,-0.91469723,1.6033489,0.0,2.1467144,0.0,0.0,1.6797657,0.0,-0.74096084,-1.4294355,-0.0,0.0,0.0,-1.4333086,-0.0,-0.0,0.0,0.76252687,-1.1541907,0.0,0.8335765,0.0,0.0,1.7327446,-0.0,0.0,1.6082262,0.0,0.0,0.7390742,0.0,-1.181111,0.0,2.0626101,0.0,-0.70910496,-0.0,-0.0,0.7452719,0.0,0.0,0.0,-0.0,-0.8625492,-0.8424464,0.0,-1.6055646,-3.041055,1.2634554,1.1270303,-1.5729305,-1.6337037,-1.1442955,0.7625446,0.0,0.81344825,-0.0,0.0,1.6759242,-1.2429595,-1.0279934,0.9686186,-0.0,1.2213036,1.0577894,0.0,-0.0,-1.7481028,-0.0,-0.0,0.0,-0.0,0.7858702,0.899297,0.0,0.8007914,-1.9981945,0.0,0.69717735,-0.0,-1.2281544,0.0,0.8294071,0.0,-0.0,-0.0,2.4724033,-1.3753387,-1.4764465,1.2400123,0.77152073,-1.245851,-1.195922,0.0,0.0,0.8523234,-0.0,-0.0,-1.5490097,-1.1953238,-0.0,-0.86531913,1.7091007,1.2063426,0.0,-0.0,-3.158903,-0.0,-0.0,0.0,-0.0,0.0,-1.0409758,-1.0172412,1.0218751,0.0,-1.8730036,0.0,0.0,1.9140856,1.685525,-0.0,0.0,0.0,-0.0,2.1782422,-1.0597289,1.0920756,1.6154666,0.77827,0.0,-0.0,-1.9943982,0.7333956,0.7999117,-0.75602895,0.0,1.5569339,-0.0,-0.0
